<?xml version="1.0"?>
<opencv_storage>
<opencv_ml_svm>
  <format>3</format>
  <svmType>C_SVC</svmType>
  <kernel>
    <type>RBF</type>
    <gamma>1.5000000000000000e+00</gamma></kernel>
  <C>4.</C>
  <term_criteria><epsilon>1.1920928955078125e-07</epsilon>
    <iterations>1000</iterations></term_criteria>
  <var_count>64</var_count>
  <class_count>31</class_count>
  <class_labels type_id="opencv-matrix">
    <rows>31</rows>
    <cols>1</cols>
    <dt>i</dt>
    <data>
      20113 20140 20864 21513 23425 24029 26032 26187 26690 27818 27941
      27993 28189 28248 29756 29976 30358 31908 33487 33945 34255 35947
      36149 36195 36797 37122 38397 38485 38737 40065 40657</data></class_labels>
  <sv_total>2257</sv_total>
  <support_vectors>
    <_>
      1.41335726e-01 1.04146674e-01 1.72006980e-01 7.63652772e-02
      2.81176835e-01 0. 0. 0. 0. 6.17354512e-02 9.99766812e-02
      1.09936014e-01 2.48285174e-01 1.48003906e-01 1.19774051e-01
      9.76748765e-02 3.07549685e-01 1.78268209e-01 5.66849336e-02
      1.13749564e-01 1.34974867e-01 4.53880616e-02 1.15024395e-01 0.
      2.12246701e-01 1.21388324e-01 1.12180114e-01 1.39057145e-01
      6.87775686e-02 6.05717748e-02 4.82473783e-02 0. 0. 0. 0. 0.
      2.75425017e-01 8.81497636e-02 1.19711615e-01 6.52619153e-02
      1.30642816e-01 1.08023703e-01 1.63433835e-01 2.14095950e-01
      1.89569384e-01 0. 0. 0. 1.55134186e-01 7.65775666e-02
      1.23740755e-01 8.78146663e-02 1.32981718e-01 0. 1.59883037e-01
      1.68809652e-01 1.78180754e-01 9.82859135e-02 8.96418244e-02
      1.10776991e-01 6.97178990e-02 1.10436171e-01 0. 0.</_>
    <_>
      1.49453670e-01 4.84030060e-02 0. 1.55642495e-01 2.74323374e-01 0.
      0. 0. 0. 1.09971195e-01 8.74568745e-02 7.35421702e-02
      2.95037448e-01 8.70620161e-02 2.22669318e-01 0. 2.54012674e-01
      1.23621687e-01 1.38637275e-01 1.55837417e-01 1.66622996e-01
      1.26645237e-01 1.30701542e-01 0. 2.03668535e-01 1.97274461e-01
      1.42349631e-01 1.04022935e-01 1.04798362e-01 8.52771848e-02
      1.39381886e-01 1.28839418e-01 0. 0. 0. 0. 2.15615556e-01
      9.83752459e-02 8.71101674e-03 7.49200583e-02 1.38907999e-01
      5.83540611e-02 1.64632499e-01 1.04674861e-01 2.33943745e-01 0. 0.
      0. 1.69898003e-01 9.71992165e-02 4.91927117e-02 1.02711938e-01
      5.80290928e-02 0. 1.96286768e-01 7.11975917e-02 1.95881784e-01
      8.42974260e-02 0. 0. 1.60868585e-01 9.78469178e-02 0. 0.</_>
    <_>
      2.63926893e-01 1.19351372e-01 0. 1.68061018e-01 2.03123927e-01 0.
      0. 0. 0. 8.47306177e-02 1.04051560e-01 0. 2.61693984e-01 0.
      1.69058889e-01 1.21128291e-01 3.55660468e-01 1.46401107e-01
      1.44911066e-01 1.26549825e-01 9.04899463e-02 0. 9.84344408e-02
      1.40616342e-01 1.57147780e-01 1.37827262e-01 1.56452656e-01 0.
      1.27916768e-01 5.94965294e-02 1.48932368e-01 0. 0. 0. 0. 0.
      1.69968009e-01 1.61909968e-01 6.58403262e-02 0. 2.16083288e-01
      1.35585204e-01 2.14015782e-01 1.54334813e-01 1.01561964e-01 0. 0.
      0. 0. 1.14053890e-01 7.95016587e-02 0. 9.97269675e-02 0.
      2.40795240e-01 1.73969060e-01 1.31111681e-01 1.02462962e-01
      6.04039617e-02 1.23382702e-01 1.24387495e-01 0. 0. 0.</_>
    <_>
      1.48133084e-01 1.31579384e-01 1.29736558e-01 7.67242908e-02
      2.29497746e-01 1.21394336e-01 1.88978985e-02 0. 0. 0.
      1.05446868e-01 0. 3.02782178e-01 1.28710970e-01 1.61880791e-01
      1.00856751e-01 2.75239259e-01 1.92821085e-01 1.07880972e-01
      8.15940723e-02 8.01356956e-02 0. 1.30345136e-01 1.51875168e-01
      1.59566566e-01 1.60862625e-01 1.04311123e-01 1.29155263e-01
      7.05356598e-02 8.87785703e-02 9.75088403e-02 6.90939352e-02 0.
      4.98874076e-02 1.44939870e-01 1.11434899e-01 1.21727996e-01
      1.19494610e-01 1.11696400e-01 8.44052508e-02 1.57062858e-01
      9.20946673e-02 1.79207742e-01 1.88510150e-01 2.19764084e-01 0. 0.
      0. 1.21595174e-01 1.54430270e-01 7.27949515e-02 1.09131664e-01
      6.19674474e-02 0. 2.10340500e-01 1.31357700e-01 1.60353780e-01
      8.91359150e-02 5.41897081e-02 4.13786471e-02 1.69045284e-01
      9.48655680e-02 0. 0.</_>
    <_>
      1.84137091e-01 7.60044977e-02 1.43395871e-01 1.97155222e-01
      1.14885256e-01 1.49427652e-01 5.14320731e-02 0. 0. 5.49986064e-02
      1.38381496e-01 1.31710172e-01 1.80742756e-01 1.55342340e-01
      1.74986199e-01 1.11677721e-01 2.28957504e-01 2.85519749e-01
      1.26527414e-01 0. 9.10606086e-02 0. 1.06473461e-01 1.46037608e-01
      1.68970942e-01 1.90336600e-01 0. 6.06248304e-02 1.54593632e-01 0.
      1.09133378e-01 1.24914825e-01 0. 1.94830336e-02 1.13977790e-01
      1.52054831e-01 8.33176300e-02 1.47791147e-01 1.26244083e-01
      8.63346532e-02 2.07164660e-01 9.41642821e-02 1.14839673e-01
      1.44604221e-01 1.30809471e-01 1.38381496e-01 0. 0. 1.42672390e-01
      1.20339915e-01 0. 9.97504368e-02 1.12676390e-01 1.97805706e-02
      2.07735002e-01 1.50475711e-01 1.72200680e-01 9.74151678e-03
      1.10436507e-01 8.25029165e-02 1.71146572e-01 0. 0. 0.</_>
    <_>
      1.58724591e-01 1.31768152e-01 1.05848350e-01 1.90188825e-01
      2.47456536e-01 0. 0. 0. 6.66522309e-02 6.00690544e-02 0.
      1.25709519e-01 1.57950476e-01 0. 1.29609644e-01 8.78303796e-02
      2.60806382e-01 2.95109153e-01 1.50121808e-01 1.38636038e-01
      1.06281787e-01 1.30306408e-01 0. 1.03710338e-01 2.04864830e-01
      2.57832766e-01 1.04045495e-01 8.79459903e-02 1.64884835e-01 0.
      2.06553653e-01 1.87084496e-01 0. 0. 1.23987474e-01 8.72598067e-02
      8.90483558e-02 1.18947372e-01 1.84283443e-02 1.34762704e-01
      1.79258436e-01 3.71050611e-02 1.24318108e-01 0. 1.01023711e-01 0.
      0. 0. 1.15209296e-01 8.62401426e-02 6.09934516e-02 0.
      6.71434477e-02 6.94100186e-02 2.28923038e-01 1.74090028e-01
      2.15390071e-01 1.06396098e-02 6.10181428e-02 9.01090503e-02
      1.01023704e-01 0. 0. 0.</_>
    <_>
      1.52422681e-01 1.31070931e-02 7.51691610e-02 1.11006677e-01
      2.15417862e-01 0. 0. 0. 0. 5.23387454e-02 0. 6.22416064e-02
      2.72686362e-01 1.74905062e-01 2.07241345e-02 1.35577023e-01
      2.41424978e-01 2.05904797e-01 1.03829131e-01 9.80624631e-02
      1.52450800e-01 1.45357594e-01 9.01584625e-02 1.57573387e-01
      8.37577283e-02 1.67680770e-01 9.01997089e-02 1.29232317e-01
      1.24452606e-01 5.07143512e-02 8.87258351e-02 1.48797989e-01 0.
      9.26811434e-03 1.06508262e-01 8.80066976e-02 1.58899203e-01 0.
      1.26145139e-01 0. 1.86240137e-01 1.56853944e-01 1.20476268e-01
      1.95991963e-01 1.76002562e-01 5.23387454e-02 0. 0. 1.31057486e-01
      1.38758868e-01 1.29290447e-01 9.97210965e-02 1.88327119e-01
      1.02628335e-01 1.94815189e-01 1.38625622e-01 1.92080989e-01 0.
      5.26448265e-02 7.87469447e-02 2.25243926e-01 5.07143512e-02 0.
      6.07486255e-02</_>
    <_>
      1.33266106e-01 9.13890153e-02 6.57906160e-02 1.14902869e-01
      2.34836191e-01 1.25500187e-01 4.98879515e-02 0. 7.02926293e-02
      8.64084661e-02 4.76098992e-02 7.24701434e-02 3.06763649e-01
      1.67661637e-01 1.35351926e-01 1.28525615e-01 2.24641457e-01
      2.76850462e-01 5.22791035e-02 8.21490511e-02 1.06356703e-01
      1.11870885e-01 8.48993361e-02 5.70661575e-02 1.30872995e-01
      2.07438767e-01 1.10284299e-01 1.98776737e-01 1.44527316e-01
      6.43894598e-02 9.50843319e-02 1.01081356e-01 0. 0. 0. 0.
      2.19429672e-01 1.00659490e-01 8.06937516e-02 3.69573608e-02
      1.18654214e-01 1.09358683e-01 1.57024175e-01 1.96063012e-01
      2.05515131e-01 0. 0. 0. 1.30822837e-01 0. 7.78013691e-02
      7.34328777e-02 7.02926293e-02 0. 2.10892931e-01 2.07553059e-01
      8.84846672e-02 7.96807036e-02 8.06093737e-02 0. 1.15877710e-01
      1.32812649e-01 9.30165350e-02 0.</_>
    <_>
      1.95878923e-01 1.04724199e-01 0. 1.48251832e-01 1.69454485e-01
      1.45545065e-01 5.36286905e-02 0. 0. 0. 9.24032405e-02
      7.96896368e-02 3.26304138e-01 9.24032405e-02 1.45154119e-01
      1.03360325e-01 2.50199795e-01 2.03673020e-01 2.01807007e-01
      1.00284062e-01 9.88022238e-02 5.39555885e-02 9.38729197e-02
      7.97177777e-02 2.27181986e-01 1.63887784e-01 1.40694410e-01
      1.28041029e-01 9.01923552e-02 8.99003968e-02 8.19300488e-02
      1.05618313e-01 0. 0. 0. 0. 2.35296622e-01 1.07368223e-01
      1.64525323e-02 8.39186162e-02 1.56609982e-01 9.09349099e-02
      1.52462348e-01 1.71770498e-01 2.20925242e-01 0. 0. 0.
      6.37756214e-02 1.22210875e-01 1.33057639e-01 7.89390877e-02
      6.22948594e-02 0. 1.80230930e-01 1.49193317e-01 1.56270757e-01
      9.49887373e-03 7.80094117e-02 1.34899944e-01 1.12708017e-01
      1.05776295e-01 0. 0.</_>
    <_>
      1.14515297e-01 1.51012197e-01 1.32230371e-01 7.47010112e-02
      2.33772054e-01 0. 0. 0. 0. 0. 0. 0. 2.78942257e-01 1.13809556e-01
      1.26371726e-01 9.36460570e-02 1.77609205e-01 2.45357692e-01 0.
      1.10484734e-01 6.99654520e-02 0. 9.47914198e-02 1.15635663e-01
      8.36091787e-02 1.52911842e-01 7.96122998e-02 8.54079574e-02
      1.42249867e-01 0. 8.20735767e-02 1.77355021e-01 0. 0. 0. 0.
      2.93998092e-01 0. 9.47914273e-02 1.35257557e-01 1.07961804e-01
      1.73548222e-01 1.47506744e-01 1.73768714e-01 2.18673736e-01 0. 0.
      0. 9.77438316e-02 1.29584357e-01 1.23120286e-01 1.80027366e-01 0.
      1.10991515e-01 1.63184136e-01 2.14488238e-01 1.48272544e-01
      1.40954465e-01 1.45011559e-01 1.55752122e-01 0. 1.62670299e-01 0.
      9.74652320e-02</_>
    <_>
      1.31809428e-01 8.65098462e-02 1.65382072e-01 2.04109505e-01
      2.18414322e-01 0. 0. 0. 0. 5.06141074e-02 0. 0. 2.81255126e-01
      1.66875765e-01 5.69293909e-02 7.47762620e-02 1.95851237e-01
      2.49061689e-01 8.62437263e-02 0. 1.33995026e-01 0. 9.50773209e-02
      1.42081738e-01 1.58940002e-01 2.20966578e-01 0. 0. 1.32886589e-01
      4.98617776e-02 5.06141074e-02 1.79179087e-01 7.85720274e-02
      3.97235192e-02 0. 6.91629797e-02 2.44136035e-01 1.20821409e-01
      6.77653402e-02 0. 1.62963212e-01 1.74490824e-01 1.32463887e-01
      2.18341574e-01 1.84593782e-01 0. 0. 0. 1.42291322e-01
      1.07342690e-01 9.78831798e-02 1.49436265e-01 7.41139054e-02
      9.82966796e-02 1.67503670e-01 1.56869605e-01 1.49543539e-01
      1.09443530e-01 0. 1.18120909e-01 6.76526651e-02 8.49256366e-02
      1.09900810e-01 6.98615089e-02</_>
    <_>
      1.81274861e-01 1.14261717e-01 9.89083722e-02 1.72267318e-01
      2.59906799e-01 0. 0. 0. 0. 5.46386689e-02 0. 0. 2.54810661e-01
      1.65520489e-01 1.22146487e-01 7.85686746e-02 2.46770293e-01
      1.91538483e-01 1.50715381e-01 1.59278899e-01 1.56218946e-01
      6.95103779e-02 2.13679243e-02 0. 1.46241963e-01 1.46852672e-01
      1.91019371e-01 7.12595284e-02 1.44784227e-01 8.55379775e-02
      1.53152630e-01 8.78971517e-02 0. 5.01705967e-02 1.48625374e-01
      1.13791667e-01 1.24192461e-01 1.22499488e-01 1.14985354e-01
      8.66998136e-02 2.08855510e-01 9.67403278e-02 1.46241769e-01
      1.18454792e-01 1.83781847e-01 0. 0. 0. 1.48906067e-01 0.
      8.89816657e-02 8.02661180e-02 7.61796236e-02 9.60785225e-02
      2.01636761e-01 1.63161024e-01 1.67067572e-01 7.75893182e-02
      1.12333618e-01 8.22275504e-02 1.53109670e-01 6.95103779e-02 0. 0.</_>
    <_>
      1.49209499e-01 1.31626129e-02 1.05154537e-01 7.90805072e-02
      2.79463261e-01 0. 0. 0. 7.93525875e-02 9.30737332e-03
      1.05103485e-01 7.88260624e-02 2.84903020e-01 1.76188439e-01
      1.25748530e-01 1.67152211e-01 2.11477250e-01 1.88452810e-01
      1.15955949e-01 1.36014879e-01 1.50705874e-01 0. 9.00815129e-02
      1.88980803e-01 1.52048215e-01 2.37990379e-01 6.80837333e-02 0. 0.
      0. 1.31626129e-02 3.25267226e-01 0. 0. 0. 0. 2.29274839e-01 0.
      1.03442296e-01 7.60717764e-02 1.46310821e-01 1.92549780e-01
      1.31465748e-01 2.06297308e-01 1.24979772e-01 0. 0. 0.
      8.40621144e-02 1.08045414e-01 0. 7.65801892e-02 7.81106427e-02
      1.14698194e-01 1.44716099e-01 2.23404393e-01 1.25468925e-01 0. 0.
      0. 0. 0. 0. 0.</_>
    <_>
      1.59900099e-01 1.54916242e-01 7.89931640e-02 6.64250702e-02
      3.16955477e-01 0. 0. 0. 0. 4.44211178e-02 0. 0. 2.72354037e-01 0.
      9.93286446e-02 6.64250702e-02 2.20903486e-01 2.57677376e-01
      7.89931640e-02 6.64250702e-02 6.64250702e-02 7.89931640e-02
      9.93286446e-02 0. 1.45450175e-01 2.04348147e-01 7.89931640e-02
      6.64250702e-02 2.12372497e-01 0. 8.88422430e-02 9.39392298e-02 0.
      0. 0. 0. 3.06122124e-01 0. 1.17527239e-01 9.39392298e-02
      1.20023884e-01 1.61159173e-01 7.89931640e-02 9.39392298e-02
      2.47775495e-01 0. 0. 0. 1.63514242e-01 1.48410946e-01 0.
      6.64250702e-02 6.64250702e-02 7.89931640e-02 2.40549922e-01
      9.39392298e-02 1.67050198e-01 1.34459421e-01 1.11713201e-01
      6.64250702e-02 1.75203726e-01 0. 9.93286446e-02 0.</_>
    <_>
      1.99417531e-01 6.75443634e-02 1.18578352e-01 1.34523034e-01
      2.30538413e-01 0. 0. 0. 0. 4.36657481e-02 1.01259165e-01
      1.31518900e-01 2.33744249e-01 1.55174419e-01 1.46122292e-01
      7.24716783e-02 2.19748944e-01 1.85153201e-01 1.68488815e-01
      6.97027743e-02 7.16629177e-02 9.57477167e-02 1.71684343e-02
      7.71577507e-02 7.38663971e-02 9.54251364e-02 1.53553829e-01 0.
      2.42022499e-01 9.72267240e-02 7.59401768e-02 2.75440104e-02 0. 0.
      0. 0. 2.67935842e-01 9.70296264e-02 1.48683004e-02 7.58380070e-02
      1.95246324e-01 1.26644939e-01 1.37474298e-01 2.05305696e-01
      2.30538413e-01 0. 0. 0. 7.15594143e-02 8.26195627e-02
      1.17389284e-01 7.04026893e-02 1.35231599e-01 6.85436949e-02
      1.68488577e-01 1.22604065e-01 2.20016599e-01 9.38735306e-02 0.
      1.32760093e-01 2.07055271e-01 4.40677851e-02 1.08883157e-01
      4.88479175e-02</_>
    <_>
      9.88888070e-02 8.12220350e-02 1.03989132e-01 7.87915215e-02
      3.01989079e-01 0. 0. 0. 7.82651156e-02 1.06920615e-01
      1.02537699e-01 0. 2.37383723e-01 1.91234723e-01 1.40320599e-01
      8.13183635e-02 2.25628480e-01 2.74548411e-01 8.98701176e-02
      8.60407129e-02 4.00414504e-02 7.89251328e-02 9.79003832e-02
      2.23249078e-01 1.08431138e-01 1.65934578e-01 1.25029355e-01
      1.25409171e-01 1.40152007e-01 1.21441066e-01 4.39120345e-02
      1.68040410e-01 4.98854332e-02 0. 0. 0. 1.88617244e-01
      1.25295237e-01 1.27549559e-01 7.30049387e-02 1.29487813e-01
      1.39842063e-01 0. 1.75576389e-01 1.71285391e-01 1.05761223e-01
      4.48615924e-02 0. 1.41509652e-01 6.61552623e-02 7.49115422e-02
      6.01794273e-02 4.01516818e-02 1.78117633e-01 1.85161173e-01
      1.70469761e-01 9.06508043e-02 8.01781267e-02 8.26287717e-02 0.
      1.75893903e-01 9.21781734e-02 0. 8.71981755e-02</_>
    <_>
      1.30852133e-01 8.63569900e-02 1.04734920e-01 8.05549622e-02
      2.11406946e-01 0. 0. 0. 0. 0. 0. 0. 1.63924441e-01 1.74851850e-01
      1.63399801e-01 1.22721665e-01 2.04972222e-01 2.48589337e-01
      7.82243088e-02 7.75007457e-02 0. 0. 2.72688791e-02 0. 0. 0. 0. 0.
      1.44853085e-01 1.04814105e-01 4.18078303e-02 1.69833601e-01 0. 0.
      0. 0. 3.21433663e-01 6.60883784e-02 9.31259990e-02 1.83932081e-01
      1.55462980e-01 1.38463452e-01 0. 1.79899976e-01 2.86246359e-01 0.
      5.13181649e-02 0. 1.22306317e-01 9.97722968e-02 9.80034247e-02
      7.00176060e-02 1.08092293e-01 1.81355938e-01 2.28526458e-01
      2.21492201e-01 1.93265378e-01 1.45231098e-01 1.55103222e-01
      1.34527221e-01 1.33716613e-01 8.96141455e-02 8.56627598e-02
      7.23484084e-02</_>
    <_>
      1.62168220e-01 9.95405167e-02 1.08214945e-01 1.57366961e-01
      2.72234350e-01 0. 0. 0. 0. 4.88060974e-02 0. 0. 2.66021311e-01
      6.06463142e-02 1.22394383e-01 9.47227031e-02 2.49236688e-01
      2.24653319e-01 0. 0. 1.04499124e-01 5.90882003e-02 8.19768310e-02
      4.44337353e-02 1.89839602e-01 1.46348283e-01 0. 1.02800369e-01
      1.58526331e-01 0. 1.17069654e-01 1.19797543e-01 0. 4.22396846e-02
      0. 1.62465364e-01 2.31277227e-01 9.53269452e-02 1.30082324e-01
      9.80898365e-02 1.52346939e-01 1.16013214e-01 1.04241058e-01
      1.33367285e-01 2.46245235e-01 0. 0. 0. 1.40963987e-01
      5.51839508e-02 1.53937846e-01 7.39365667e-02 1.42082378e-01 0.
      1.43593982e-01 1.64081872e-01 2.42049143e-01 1.22254249e-02
      1.15991347e-01 7.34499097e-02 1.98778987e-01 0. 1.23914927e-01 0.</_>
    <_>
      1.53270900e-01 1.09830894e-01 1.63800448e-01 1.52624533e-01
      1.94686934e-01 0. 0. 0. 0. 0. 0. 0. 2.34146923e-01 1.01965852e-01
      1.23943374e-01 6.74973130e-02 2.41038606e-01 1.77673578e-01
      1.37585089e-01 3.10785621e-02 3.26342694e-02 5.72157167e-02
      3.01811136e-02 6.11839890e-02 8.32027644e-02 7.30639845e-02
      6.23242408e-02 0. 1.31317481e-01 0. 1.20107517e-01 1.13722660e-01
      0. 0. 0. 0. 3.45038950e-01 1.25814065e-01 1.07792802e-01
      3.02256607e-02 1.78038701e-01 1.00216575e-01 1.45928025e-01
      1.30665123e-01 2.75328904e-01 0. 0. 0. 1.28923506e-01
      8.61297622e-02 1.46380380e-01 7.54585415e-02 1.57695472e-01
      7.19683990e-02 1.38637334e-01 1.42823547e-01 2.86186337e-01
      1.50098875e-01 1.46714449e-01 1.03979789e-01 1.75189227e-01
      5.64552732e-02 8.12148377e-02 1.02825955e-01</_>
    <_>
      1.56897649e-01 1.22733466e-01 7.93055817e-02 1.64345026e-01
      2.41366804e-01 4.65113707e-02 2.15411652e-02 0. 0. 2.82040033e-02
      4.75155897e-02 1.47693321e-01 2.01655552e-01 1.20988585e-01
      1.27258897e-01 8.34235922e-02 2.34806865e-01 1.82271197e-01
      1.22454055e-01 0. 0. 5.26731350e-02 7.46187940e-02 3.48841101e-02
      1.38567671e-01 2.64376551e-02 4.94499616e-02 0. 1.96956128e-01
      7.53570795e-02 8.46860036e-02 8.10185149e-02 7.73068070e-02
      5.68469875e-02 1.12782478e-01 1.80172652e-01 1.87803686e-01
      9.46886986e-02 1.40475094e-01 9.67043340e-02 1.35284454e-01
      1.13988377e-01 1.87567621e-01 1.66802362e-01 2.71314442e-01
      8.12406018e-02 0. 0. 1.53946564e-01 8.81126970e-02 1.39043927e-01
      1.18561603e-01 8.89713764e-02 1.09568745e-01 1.84224129e-01
      1.26522392e-01 2.45645970e-01 1.56743631e-01 9.06254128e-02 0.
      1.64347440e-01 0. 8.44449401e-02 7.16973990e-02</_>
    <_>
      1.52817056e-01 1.45997465e-01 1.27093762e-01 7.17991814e-02
      2.24690959e-01 0. 0. 0. 7.06334785e-02 2.77484898e-02
      9.44785029e-02 1.31212562e-01 2.69285470e-01 1.57467112e-01
      1.16797246e-01 7.30394572e-02 1.40821382e-01 2.02283978e-01
      1.22851290e-01 1.06485106e-01 1.01545937e-01 6.93400726e-02
      5.01214117e-02 1.67818904e-01 7.97347054e-02 1.48655936e-01
      1.05007850e-01 8.96294788e-02 1.37895152e-01 1.00767069e-01
      1.00024246e-01 2.83038199e-01 3.66938636e-02 8.26588869e-02
      4.81499918e-02 3.43763828e-02 1.87791497e-01 5.51791601e-02
      1.01252533e-01 1.81543514e-01 1.70837015e-01 1.68948397e-01
      1.03959732e-01 1.51483878e-01 1.12345487e-01 4.74203303e-02
      6.69209585e-02 1.28704622e-01 8.35938901e-02 2.21356377e-02 0.
      5.57339676e-02 7.04178512e-02 1.41353950e-01 8.54576528e-02
      3.14424336e-01 9.42387059e-02 1.00185379e-01 9.14938599e-02 0.
      1.10862017e-01 0. 5.29130399e-02 1.75801203e-01</_>
    <_>
      1.51923552e-01 9.99888405e-02 0. 1.40796259e-01 2.08415911e-01 0.
      0. 0. 0. 0. 0. 0. 2.28882134e-01 1.26985550e-01 1.82100639e-01
      1.29111439e-01 2.31119648e-01 1.93402857e-01 1.41995326e-01
      8.44208226e-02 1.07385114e-01 5.22005521e-02 0. 9.65512916e-02
      1.46649063e-01 1.63698643e-01 1.37455463e-01 7.66422004e-02
      1.37853399e-01 1.43546686e-01 1.55209480e-02 9.88597348e-02 0. 0.
      0. 0. 2.52414763e-01 1.01226673e-01 1.26728015e-02 7.77804404e-02
      1.61250100e-01 1.31782860e-01 2.16939107e-01 1.77968726e-01
      2.08415911e-01 0. 0. 0. 1.35384887e-01 1.51756108e-01
      8.96922424e-02 1.05993025e-01 1.28357679e-01 8.98276642e-02
      1.52215615e-01 7.39735886e-02 2.85699695e-01 1.24642387e-01
      4.89929020e-02 8.42420831e-02 1.52113438e-01 1.26472890e-01
      1.01026975e-01 7.34889656e-02</_>
    <_>
      1.30074099e-01 1.36141434e-01 8.89212340e-02 1.49503380e-01
      3.12541038e-01 0. 0. 0. 0. 0. 0. 1.29588276e-01 2.20591307e-01
      1.15254536e-01 1.26401678e-01 1.01162776e-01 2.96503574e-01
      2.62617230e-01 8.85889754e-02 5.28441928e-02 1.25670329e-01 0.
      8.56330246e-02 0. 1.11857146e-01 2.59188414e-01 1.89335331e-01 0.
      0. 0. 2.13589549e-01 1.22581199e-01 0. 0. 0. 0. 2.50320435e-01
      1.30842403e-01 1.34379743e-02 1.08490326e-01 1.31509721e-01
      1.57320499e-01 6.75101876e-02 1.22520231e-01 0. 0. 0. 0.
      1.27673820e-01 0. 0. 1.12826183e-01 7.31947646e-02 0.
      2.15555772e-01 1.50393203e-01 1.97771341e-01 7.58680478e-02
      1.32761046e-01 1.13813348e-01 1.80445641e-01 0. 0. 0.</_>
    <_>
      5.99494167e-02 1.25976652e-01 1.82981506e-01 1.47584632e-01
      2.64143527e-01 9.89262834e-02 0. 0. 0. 0. 0. 0. 2.65025407e-01
      7.25099668e-02 9.89337191e-02 6.10059910e-02 2.56807446e-01
      2.27068707e-01 1.84750989e-01 1.38902918e-01 1.35504350e-01
      5.45705259e-02 9.03125331e-02 0. 1.57127395e-01 1.95635334e-01
      1.20654188e-01 8.73079076e-02 8.01590011e-02 1.11784153e-01
      1.69278607e-01 1.11715235e-01 0. 0. 9.95111242e-02 8.31351578e-02
      2.15678886e-01 1.63416475e-01 1.50656611e-01 5.91563769e-02
      5.80662489e-02 9.77177471e-02 1.15973771e-01 8.83822218e-02
      1.33915633e-01 0. 0. 0. 1.35646865e-01 1.22323647e-01
      8.87293145e-02 7.21930638e-02 1.15555771e-01 0. 2.12943211e-01
      1.47324160e-01 2.22662628e-01 7.83677101e-02 2.06694767e-01
      1.32041439e-01 0. 0. 0. 0.</_>
    <_>
      1.65228784e-01 1.12047069e-01 1.10211357e-01 1.25030965e-01
      2.14271426e-01 0. 0. 0. 0. 0. 0. 0. 2.81215787e-01 1.30153090e-01
      1.53191328e-01 1.12316169e-01 2.26641849e-01 2.11839691e-01
      1.19184777e-01 0. 0. 8.91223624e-02 9.32849869e-02 7.04565346e-02
      7.30206370e-02 2.25666277e-02 9.01278406e-02 1.01878598e-01
      1.51512772e-01 1.10998385e-01 5.34543507e-02 0. 0. 1.38191795e-02
      1.02433540e-01 1.62128180e-01 1.58717260e-01 1.51914224e-01
      1.02845810e-01 9.57286358e-02 1.81256875e-01 1.37197658e-01
      1.77404150e-01 1.58555165e-01 2.83771873e-01 0. 0. 0.
      1.11831754e-01 1.34747267e-01 1.27552494e-01 1.26121983e-01
      1.25689536e-01 0. 2.03076795e-01 1.58874005e-01 1.93216205e-01
      1.34900615e-01 1.22722454e-01 1.42699212e-01 1.24862343e-01
      1.12448156e-01 4.13614623e-02 0.</_>
    <_>
      1.88978001e-01 1.00213259e-01 0. 1.42322317e-01 1.74756661e-01 0.
      0. 0. 0. 0. 0. 0. 2.11558536e-01 6.93128407e-02 2.50780284e-01
      9.52907279e-02 2.51390189e-01 2.39109457e-01 6.38672858e-02 0. 0.
      5.25708646e-02 7.80151710e-02 9.16108191e-02 1.12930506e-01
      6.49901554e-02 1.10836230e-01 8.80215764e-02 8.96319002e-02
      9.01881307e-02 1.17026657e-01 9.15693939e-02 0. 0. 0. 0.
      2.59454489e-01 1.04229607e-01 8.14098567e-02 2.95279026e-02
      2.15583101e-01 1.17132522e-01 2.09615946e-01 2.04517812e-01
      2.14032322e-01 0. 0. 0. 1.31788269e-01 1.11884162e-01
      1.22748516e-01 9.67275724e-02 1.06966667e-01 0. 2.12368175e-01
      1.74834058e-01 2.30088592e-01 1.58661246e-01 1.32357717e-01
      1.45706922e-01 8.96319002e-02 1.15500771e-01 4.20454852e-02
      7.80437514e-02</_>
    <_>
      1.51200846e-01 7.03000128e-02 1.49333552e-01 1.83023795e-01
      1.60930634e-01 0. 0. 0. 0. 0. 0. 1.62626341e-01 1.81537911e-01
      1.29145145e-01 1.84675574e-01 0. 2.44979009e-01 2.52519816e-01
      1.05762832e-01 4.35806885e-02 9.97650251e-02 0. 1.05631001e-01 0.
      1.78644046e-01 1.88978240e-01 0. 0. 5.44509031e-02 0.
      8.58829916e-02 5.67188933e-02 0. 0. 0. 1.11347377e-01
      2.84146130e-01 1.38982102e-01 9.44046304e-02 6.60327747e-02
      1.37416795e-01 8.39351490e-02 1.87572002e-01 2.18187764e-01
      2.25536868e-01 0. 0. 0. 1.77639738e-01 1.21327408e-01
      1.29875153e-01 1.01382449e-01 7.44733363e-02 9.12870541e-02
      2.10605383e-01 1.30278930e-01 1.92553356e-01 1.15171053e-01
      1.43198386e-01 1.19858250e-01 0. 9.08396021e-02 1.17246754e-01 0.</_>
    <_>
      1.51266992e-01 1.19539656e-01 1.15926281e-01 2.47655272e-01
      1.85089439e-01 0. 0. 0. 0. 5.50274178e-02 0. 0. 2.54731029e-01
      6.12567142e-02 1.10571794e-01 7.66816363e-02 2.87194848e-01
      2.58278757e-01 9.09469053e-02 7.06774518e-02 1.16596937e-01
      1.13736957e-01 1.03743687e-01 0. 1.32180959e-01 2.15827793e-01
      1.34449542e-01 1.78095847e-01 1.52054727e-01 7.59463906e-02
      1.18762635e-01 1.18922181e-01 0. 0. 0. 0. 2.41930336e-01
      1.10874370e-01 8.84715840e-02 3.91378887e-02 1.36293784e-01
      1.46352842e-01 1.49657756e-01 1.44100741e-01 1.30878001e-01 0. 0.
      0. 1.42008856e-01 0. 9.15562734e-02 8.54298994e-02 1.25931948e-01
      7.34110847e-02 1.59680143e-01 1.60725206e-01 2.37754375e-01
      5.50274178e-02 1.11417063e-01 8.30843598e-02 9.25447196e-02
      9.10650864e-02 9.30951536e-02 0.</_>
    <_>
      1.42567486e-01 9.19686407e-02 1.16164714e-01 8.84012133e-02
      2.37938032e-01 0. 0. 0. 0. 0. 0. 0. 2.64977217e-01 1.69708088e-01
      1.72279507e-01 8.02121162e-02 2.19769761e-01 1.83008656e-01
      7.71765783e-02 5.24899773e-02 9.28710923e-02 1.28174812e-01 0.
      8.99281353e-02 1.65963650e-01 8.10452700e-02 1.14722759e-01
      9.82883722e-02 0. 1.11553609e-01 9.33794677e-02 1.55917138e-01 0.
      0. 0. 0. 2.84967273e-01 0. 1.10012136e-01 7.75201693e-02
      1.65418833e-01 1.76799506e-01 1.66449666e-01 2.01089785e-01
      2.37938032e-01 0. 0. 0. 1.53421760e-01 1.13886587e-01
      9.17914361e-02 7.93336779e-02 8.48492235e-02 1.10032283e-01
      1.57029718e-01 2.04782918e-01 1.57583997e-01 1.31582767e-01
      1.24823205e-01 1.35785535e-01 1.22209750e-01 8.21236894e-02 0.
      1.20177254e-01</_>
    <_>
      1.71198443e-01 1.22082442e-01 1.19366080e-01 1.88427404e-01
      1.75799608e-01 8.38328823e-02 0. 1.34941354e-01 8.28612149e-02 0.
      8.76779929e-02 1.57901570e-01 2.07399070e-01 1.13323405e-01
      4.31771800e-02 1.93900973e-01 1.84337497e-01 1.73418775e-01
      1.74916126e-02 1.27194151e-01 4.35126461e-02 5.10541797e-02
      1.06575437e-01 1.34536698e-01 1.01476379e-01 6.24947697e-02 0.
      1.06989942e-01 7.27252513e-02 1.55631244e-01 1.67288631e-01
      1.90012053e-01 8.05617273e-02 1.29517198e-01 8.60949084e-02 0.
      2.37501785e-01 0. 1.75702974e-01 1.70191079e-01 1.31810293e-01
      1.23135492e-01 6.48821443e-02 1.11613683e-01 2.39758134e-01 0.
      8.06601122e-02 0. 5.78362606e-02 0. 6.19745404e-02 5.73844947e-02
      1.09255694e-01 1.21391095e-01 1.64490417e-01 1.37125269e-01
      1.92167789e-01 1.80099934e-01 1.37994051e-01 9.23260748e-02
      6.59011751e-02 1.07592382e-01 9.27558988e-02 1.29457176e-01</_>
    <_>
      2.91547120e-01 1.47291124e-01 1.61111638e-01 6.93586245e-02
      1.76680416e-01 4.98499237e-02 1.34029970e-01 7.65519589e-02
      1.60599098e-01 1.37591988e-01 1.02708861e-01 1.46843821e-01
      1.53597206e-01 6.70475438e-02 1.24126807e-01 6.55901656e-02
      2.88566589e-01 1.01108044e-01 1.54536426e-01 7.70555660e-02
      1.17847674e-01 8.36673528e-02 7.52142072e-02 1.15215331e-01
      2.20267460e-01 1.43912628e-01 0. 0. 1.65869728e-01 1.19022891e-01
      1.14266373e-01 1.47070602e-01 0. 9.09944847e-02 9.04838368e-02
      5.34907132e-02 1.22032262e-01 1.25907108e-01 8.62061232e-02
      8.28975439e-02 2.29765475e-01 8.24589208e-02 8.64539519e-02
      9.35132951e-02 1.52158424e-01 9.04961973e-02 8.93397331e-02 0.
      1.67463496e-01 5.99097237e-02 6.16923012e-02 4.72506098e-02
      8.48299116e-02 0. 1.91994086e-01 1.50918216e-01 1.93635389e-01
      1.04470313e-01 9.53820273e-02 1.10464990e-01 0. 0. 7.52142072e-02
      1.10770598e-01</_>
    <_>
      2.73117542e-01 1.28670260e-01 1.49772480e-01 1.08353958e-01
      9.24341381e-02 9.42135602e-02 4.88622040e-02 1.00423150e-01
      2.02372551e-01 0. 9.87166539e-02 9.99281779e-02 1.55507386e-01
      1.10441662e-01 1.43521324e-01 8.85570943e-02 2.87285686e-01
      1.19831890e-01 4.88742217e-02 7.30660334e-02 8.12483579e-02
      4.73573543e-02 1.47314340e-01 1.03683755e-01 2.52242714e-01
      1.47452354e-01 0. 7.26068690e-02 9.16368812e-02 4.75150347e-02
      9.77244079e-02 1.45598769e-01 1.63712785e-01 0. 8.68906528e-02 0.
      1.41114548e-01 1.46583542e-01 1.69215187e-01 1.08408064e-01
      2.37936974e-01 1.73092373e-02 1.08705871e-01 1.02521501e-01
      1.42359436e-01 8.41975361e-02 8.60297531e-02 7.33013153e-02
      1.98956922e-01 0. 0. 7.24349469e-02 0. 0. 1.82541162e-01
      7.07366392e-02 2.14215666e-01 1.62570089e-01 0. 0. 7.30660334e-02
      8.07672441e-02 1.31185114e-01 1.45828545e-01</_>
    <_>
      2.62204021e-01 1.41752645e-01 1.11542031e-01 1.71438590e-01
      3.91790308e-02 0. 8.54262188e-02 7.16795251e-02 1.32719085e-01
      8.54262188e-02 6.87038749e-02 7.23992810e-02 7.18356594e-02 0.
      1.28711626e-01 9.96253267e-02 2.82163918e-01 1.47316694e-01 0. 0.
      0. 3.73227857e-02 5.38553707e-02 7.56843463e-02 1.69408217e-01
      1.15599841e-01 1.01468928e-01 7.25984871e-02 0. 7.33770132e-02
      9.99790207e-02 1.76992431e-01 1.12803124e-01 9.97188091e-02
      1.36658072e-01 1.19407140e-01 1.41824037e-01 9.90813300e-02
      2.21112430e-01 1.44329667e-01 1.99988246e-01 1.17305778e-01
      1.09695211e-01 1.39346734e-01 1.45075113e-01 8.50209147e-02
      5.57787642e-02 6.13121130e-02 1.59386352e-01 0. 8.19628239e-02
      1.04452051e-01 9.32728201e-02 4.85482067e-02 1.59615368e-01
      1.59367338e-01 2.64154792e-01 1.55302644e-01 1.76922262e-01
      1.04042329e-01 9.66571495e-02 0. 1.70039862e-01 1.35277212e-01</_>
    <_>
      1.41176015e-01 1.30483553e-01 1.76527455e-01 1.68195128e-01
      1.05447739e-01 8.21228176e-02 4.99593765e-02 1.75678968e-01
      7.80229419e-02 0. 8.09078589e-02 0. 2.47116670e-01 1.08833909e-01
      7.99727887e-02 1.98859170e-01 1.26373753e-01 1.24386653e-01
      4.78380397e-02 9.73844007e-02 7.02939704e-02 0. 6.38932809e-02
      4.64497767e-02 2.09591478e-01 1.42875597e-01 4.54756096e-02
      9.76395905e-02 9.06815305e-02 1.25803903e-01 9.23330709e-02
      3.14115316e-01 6.59457296e-02 1.26984537e-01 8.44790637e-02
      8.24014619e-02 1.07120067e-01 1.69576541e-01 1.34093240e-01
      1.83932185e-01 1.39642790e-01 1.27708077e-01 9.83463600e-02
      1.26056671e-01 1.13335095e-01 1.37814417e-01 9.88488346e-02
      6.37174621e-02 8.72854814e-02 0. 7.85784721e-02 5.62249087e-02
      1.20851032e-01 1.09917060e-01 9.73378047e-02 1.86344638e-01
      2.00577244e-01 1.68534920e-01 1.19471431e-01 1.14443265e-01
      4.04060669e-02 7.67226294e-02 1.50522634e-01 1.08601600e-01</_>
    <_>
      1.14106573e-01 8.23309347e-02 7.87358880e-02 1.00754499e-01
      1.52535886e-01 9.31315050e-02 1.68228745e-02 1.31053150e-01
      7.22116306e-02 1.16613731e-02 9.31613073e-02 7.00611100e-02
      1.10725410e-01 0. 0. 3.13243419e-01 1.98191091e-01 1.75322399e-01
      0. 0. 0. 0. 0. 1.32212624e-01 1.69747397e-01 1.46102056e-01
      8.82048085e-02 8.78293365e-02 5.67328446e-02 1.04124241e-01
      1.51857719e-01 3.08170587e-01 6.80696815e-02 9.20145735e-02 0.
      1.29900903e-01 1.30788431e-01 5.10625057e-02 8.11127201e-02
      2.78702587e-01 1.48269787e-01 1.33017257e-01 0. 0. 1.29381776e-01
      0. 9.16443542e-02 1.29640445e-01 1.04928851e-01 0. 0. 0. 0.
      4.13892977e-02 1.27976865e-01 3.09798479e-01 2.38500163e-01
      1.32129490e-01 8.82048011e-02 6.82948455e-02 6.92018569e-02
      9.97857004e-02 1.47985607e-01 1.89257905e-01</_>
    <_>
      2.13323310e-01 1.51013985e-01 1.81926429e-01 1.60957068e-01
      1.23129822e-01 1.61494240e-01 7.54123181e-02 8.20164233e-02
      1.33054212e-01 7.54123181e-02 6.24744296e-02 1.17756814e-01
      1.94961086e-01 7.43199289e-02 8.54677260e-02 6.22917749e-02
      3.14228296e-01 1.66115433e-01 0. 6.54477626e-02 7.36079663e-02 0.
      4.37675565e-02 1.15965337e-01 2.58547664e-01 1.31384104e-01
      1.13395326e-01 6.61115497e-02 6.48295209e-02 6.19004779e-02
      1.59890562e-01 1.48388281e-01 1.33338332e-01 7.75223970e-03
      1.32961214e-01 6.42101243e-02 1.53471962e-01 1.68403953e-01
      1.16591416e-01 9.67196226e-02 2.05747336e-01 1.55044794e-02
      9.64433700e-02 1.25058204e-01 1.10680342e-01 9.75903571e-02 0.
      6.66739941e-02 1.32687628e-01 4.37675565e-02 0. 6.54477626e-02 0.
      0. 1.64740801e-01 1.25319049e-01 2.58262932e-01 1.39812127e-01
      4.44590822e-02 6.48824722e-02 5.16421273e-02 8.38651732e-02
      1.58521011e-01 1.12459064e-01</_>
    <_>
      3.69491488e-01 8.90936404e-02 0. 1.15673438e-01 0. 0.
      8.90911743e-02 7.69159794e-02 1.44508362e-01 1.46953434e-01 0. 0.
      0. 0. 0. 0. 2.33223528e-01 1.88451827e-01 0. 0. 7.69159794e-02 0.
      0. 9.64758694e-02 8.65060613e-02 1.27729803e-01 0. 6.02176450e-02
      1.05401441e-01 7.22160712e-02 1.65275976e-01 1.53232545e-01
      9.82736871e-02 1.37657419e-01 1.05340376e-01 0. 1.43919989e-01
      1.02078766e-01 1.39026538e-01 1.33782819e-01 2.78650194e-01
      1.81640923e-01 9.14690271e-02 7.69159794e-02 7.69159794e-02
      9.14690271e-02 1.46953434e-01 7.69159794e-02 2.24383965e-01 0. 0.
      7.69159794e-02 1.05947860e-01 0. 1.47252709e-01 1.08948238e-01
      3.45122248e-01 1.89118311e-01 0. 1.32950544e-01 0. 8.81646350e-02
      1.54965878e-01 7.73978233e-02</_>
    <_>
      2.13323310e-01 1.51013985e-01 1.81926429e-01 1.60957068e-01
      1.23129822e-01 1.61494240e-01 7.54123181e-02 8.20164233e-02
      1.33054212e-01 7.54123181e-02 6.24744296e-02 1.17756814e-01
      1.94961086e-01 7.43199289e-02 8.54677260e-02 6.22917749e-02
      3.14228296e-01 1.66115433e-01 0. 6.54477626e-02 7.36079663e-02 0.
      4.37675565e-02 1.15965337e-01 2.58547664e-01 1.31384104e-01
      1.13395326e-01 6.61115497e-02 6.48295209e-02 6.19004779e-02
      1.59890562e-01 1.48388281e-01 1.33338332e-01 7.75223970e-03
      1.32961214e-01 6.42101243e-02 1.53471962e-01 1.68403953e-01
      1.16591416e-01 9.67196226e-02 2.05747336e-01 1.55044794e-02
      9.64433700e-02 1.25058204e-01 1.10680342e-01 9.75903571e-02 0.
      6.66739941e-02 1.32687628e-01 4.37675565e-02 0. 6.54477626e-02 0.
      0. 1.64740801e-01 1.25319049e-01 2.58262932e-01 1.39812127e-01
      4.44590822e-02 6.48824722e-02 5.16421273e-02 8.38651732e-02
      1.58521011e-01 1.12459064e-01</_>
    <_>
      1.41867608e-01 1.73490152e-01 1.32522866e-01 1.56682089e-01
      1.61885366e-01 9.34676379e-02 8.17773677e-03 6.92623034e-02
      1.05402812e-01 1.05252348e-01 1.32796317e-01 9.82667729e-02
      1.34317964e-01 1.04581878e-01 7.99684823e-02 2.13253379e-01
      1.88533038e-01 1.91212252e-01 7.67093599e-02 6.84436783e-02
      1.46024719e-01 7.75056183e-02 1.00288652e-01 1.68544903e-01
      7.26127774e-02 0. 0. 6.72856495e-02 1.25833139e-01 2.27715522e-01
      1.75865903e-01 1.22169003e-01 8.78715664e-02 7.95514733e-02 0.
      1.28293186e-01 1.52509078e-01 1.63613364e-01 1.39453456e-01
      2.05654055e-01 1.26150951e-01 1.51718438e-01 0. 5.64361475e-02
      1.23101234e-01 8.19757879e-02 1.39198408e-01 6.83878139e-02
      7.45408908e-02 4.55466956e-02 8.07352066e-02 1.16926678e-01
      7.76480809e-02 1.35141179e-01 1.36198655e-01 1.47853076e-01
      1.26255289e-01 2.54873306e-01 1.62934169e-01 0. 7.68784434e-02
      1.09320894e-01 9.19805691e-02 9.53713134e-02</_>
    <_>
      1.61423415e-01 8.18272680e-02 1.01626985e-01 1.14370197e-01 0.
      1.32549718e-01 0. 1.08006589e-01 1.11675836e-01 1.43897220e-01
      1.04367740e-01 0. 0. 0. 1.70753032e-01 2.94112921e-01
      1.79358229e-01 1.04668312e-01 0. 0. 7.98484832e-02 7.24643096e-02
      1.89739130e-02 8.23291838e-02 8.99906233e-02 1.14700720e-01 0. 0.
      1.09295167e-01 7.13224187e-02 1.06217876e-01 3.51119936e-01
      7.49232322e-02 1.42892361e-01 9.49563831e-02 0. 1.20847315e-01
      6.05008975e-02 1.69271588e-01 2.55745053e-01 1.83932811e-01
      1.79815933e-01 0. 0. 6.17339239e-02 9.19528157e-02 1.62653804e-01
      1.01267442e-01 1.59890711e-01 0. 4.77869026e-02 1.08260661e-01 0.
      5.36796339e-02 7.86018670e-02 2.56170571e-01 2.82273024e-01
      1.72192439e-01 5.35745844e-02 1.28458872e-01 6.23883717e-02
      5.27283587e-02 6.64489567e-02 5.97915016e-02</_>
    <_>
      1.73052117e-01 1.44276349e-02 1.33690462e-01 1.69802204e-01
      1.36991218e-01 8.14576969e-02 0. 1.32862613e-01 7.27161244e-02
      1.17801148e-02 9.40700769e-02 1.05522685e-01 7.90919214e-02 0.
      1.36659563e-01 2.30872437e-01 2.86055356e-01 1.48405209e-01 0. 0.
      1.05834603e-01 4.43282127e-02 8.09173062e-02 1.34835541e-01
      1.10998198e-01 7.96206370e-02 1.13402374e-01 6.98818341e-02
      9.87065434e-02 1.04050942e-01 6.91891983e-02 2.37973526e-01
      1.33702904e-01 8.10307041e-02 0. 9.61798877e-02 1.85742110e-01
      1.27632096e-01 9.22020152e-02 2.41880432e-01 1.80609941e-01
      1.34451777e-01 4.70745564e-02 6.89939186e-02 1.10830277e-01
      4.55799662e-02 9.40642357e-02 1.24124169e-01 1.58972353e-01
      6.70591667e-02 0. 0. 7.03237653e-02 0. 1.26654282e-01
      2.05416039e-01 3.26557726e-01 1.04503624e-01 6.60513639e-02
      9.84281972e-02 5.50565943e-02 9.15568247e-02 1.48406923e-01
      1.02571324e-01</_>
    <_>
      2.29045510e-01 1.99151430e-02 1.09729655e-01 8.31279755e-02
      1.05250634e-01 9.68734771e-02 1.09328777e-01 2.18622670e-01 0.
      5.53440265e-02 0. 0. 8.27510357e-02 1.07842289e-01 8.96156654e-02
      2.38399625e-01 1.67276412e-01 1.95591509e-01 0. 6.54788613e-02
      5.10534868e-02 0. 9.44534093e-02 1.37059122e-01 0. 0.
      9.06176791e-02 8.29315335e-02 1.35642871e-01 1.10690027e-01
      2.06434816e-01 2.42896661e-01 2.22012699e-01 1.24157749e-01 0.
      5.84109277e-02 1.23423472e-01 9.63522270e-02 1.56696916e-01
      2.84921408e-01 1.46845937e-01 9.38872918e-02 0. 7.69081861e-02 0.
      0. 0. 1.06905505e-01 0. 0. 9.27054361e-02 8.14770684e-02
      9.77344289e-02 1.09628640e-01 1.25568256e-01 1.65628642e-01
      2.60633051e-01 1.96763068e-01 1.63231105e-01 8.38686451e-02
      1.33247092e-01 0. 1.46362081e-01 8.82449746e-02</_>
    <_>
      2.46630907e-01 1.88581690e-01 8.30001459e-02 9.87043604e-02
      1.75523937e-01 0. 4.66744117e-02 0. 1.42392427e-01 1.04367159e-01
      0. 6.97945207e-02 1.58577666e-01 0. 1.32015169e-01 9.87043604e-02
      3.45489860e-01 1.51147515e-01 0. 0. 1.31128699e-01 0.
      9.33488235e-02 9.87043604e-02 1.56993374e-01 1.55939192e-01 0. 0.
      9.61384177e-02 0. 1.06047280e-01 1.39589041e-01 6.97945207e-02
      9.52235535e-02 0. 0. 2.16131747e-01 8.30001459e-02 1.99800044e-01
      9.87043604e-02 2.26018265e-01 1.32015169e-01 0. 9.87043604e-02
      1.80552110e-01 0. 9.33488235e-02 6.97945207e-02 1.52828231e-01
      8.08424503e-02 8.30001459e-02 0. 5.55055402e-02 0. 1.84639096e-01
      1.20887659e-01 3.08571339e-01 1.89516693e-01 0. 0. 5.55055402e-02
      0. 1.57068625e-01 9.87043604e-02</_>
    <_>
      1.49542019e-01 1.14441060e-01 1.65609092e-01 1.52608424e-01
      7.71092474e-02 1.54835120e-01 8.12098850e-03 1.40550882e-01
      1.46327734e-01 0. 9.30935219e-02 1.03357993e-01 1.97195306e-01
      1.28353029e-01 1.14203259e-01 2.19183713e-01 1.61480054e-01
      9.06214118e-02 4.53126654e-02 6.79132491e-02 1.28699705e-01
      7.77718872e-02 0. 1.76068082e-01 2.58158505e-01 1.13346256e-01
      8.82099569e-02 6.79687187e-02 1.54923275e-01 9.11127552e-02
      1.43816486e-01 2.86225915e-01 8.38901177e-02 1.13346256e-01
      4.51363288e-02 8.01057667e-02 1.28836080e-01 1.12179525e-01
      1.30447865e-01 2.35371396e-01 1.12893693e-01 8.91783908e-02
      4.80470210e-02 1.22126080e-01 1.09048955e-01 9.90303680e-02
      8.10207278e-02 6.57059774e-02 1.59455836e-01 9.06273052e-02 0. 0.
      0. 1.11159824e-01 1.21473044e-01 1.31872237e-01 1.67083919e-01
      1.38393894e-01 7.57872611e-02 7.68074691e-02 9.44391638e-02
      5.98615520e-02 1.46671981e-01 1.19157366e-01</_>
    <_>
      2.58431017e-01 4.77972589e-02 1.51310995e-01 1.51383251e-01
      1.13681681e-01 0. 8.32190290e-02 1.34098142e-01 7.21791685e-02
      8.46599229e-03 9.56021994e-02 7.17002377e-02 0. 0. 8.46599229e-03
      1.96814969e-01 2.45611370e-01 1.94134772e-01 0. 0. 7.14735687e-02
      0. 4.77972589e-02 0. 1.06817454e-01 1.17981292e-01 1.33338585e-01
      7.97774270e-02 1.26528949e-01 6.66160807e-02 1.98235571e-01
      1.71063781e-01 7.14735687e-02 8.27872828e-02 0. 0. 2.13540182e-01
      1.28154203e-01 9.55964997e-02 1.75096363e-01 2.42240310e-01
      1.37457728e-01 0. 0. 1.33739501e-01 0. 9.55945179e-02
      1.33739501e-01 1.58867508e-01 4.77972589e-02 0. 7.14735687e-02
      8.03850889e-02 4.55468707e-02 1.29766122e-01 1.88084900e-01
      3.50589037e-01 4.85412292e-02 1.25638381e-01 1.00447714e-01
      9.07925963e-02 1.35443449e-01 1.66574851e-01 9.94874015e-02</_>
    <_>
      2.72253394e-01 1.21907987e-01 1.75584108e-01 1.82681456e-01
      8.08299407e-02 0. 0. 0. 1.75438672e-01 9.42905098e-02 0.
      1.33571282e-01 7.23297521e-02 8.49430114e-02 1.42679438e-01 0.
      2.51918048e-01 1.91777855e-01 7.39264712e-02 0. 1.76483363e-01 0.
      1.25460789e-01 7.14174658e-02 1.70979425e-01 1.54673219e-01
      6.00502864e-02 8.35226029e-02 8.09459090e-02 7.59909675e-02
      2.19543740e-01 1.81659117e-01 1.13428526e-01 1.51382154e-02 0. 0.
      1.01189524e-01 1.49818763e-01 1.44194886e-01 7.65162259e-02
      2.96720117e-01 1.51382154e-02 0. 0. 0. 9.69043970e-02
      9.94809270e-02 7.43221641e-02 1.65995464e-01 6.15075491e-02
      9.45661217e-02 5.62664457e-02 0. 0. 1.56723067e-01 1.22916400e-01
      3.05162936e-01 1.93127498e-01 4.32743616e-02 8.19314942e-02
      5.71554005e-02 7.59909600e-02 1.18897021e-01 6.47526234e-02</_>
    <_>
      2.45723307e-01 1.51896998e-01 2.52271056e-01 8.45607743e-02
      1.46140993e-01 1.67360768e-01 9.42610353e-02 5.11438400e-02
      1.22506350e-01 0. 4.07909118e-02 1.33806214e-01 2.31671110e-01 0.
      1.28129497e-01 9.65315029e-02 3.03138584e-01 1.26303256e-01
      8.10678080e-02 7.43234754e-02 7.43120834e-02 8.27717707e-02
      5.17194010e-02 7.78411031e-02 2.22050831e-01 1.51278153e-01
      5.06080240e-02 4.22340669e-02 8.80722106e-02 0. 1.73549190e-01
      1.75949141e-01 0. 0. 5.32655865e-02 0. 2.02825204e-01
      1.32119417e-01 1.12429254e-01 5.18154018e-02 2.42815286e-01
      9.56754088e-02 1.21677712e-01 0. 1.19323626e-01 5.25740460e-02 0.
      6.01315089e-02 6.98972940e-02 0. 0. 0. 1.57231867e-01
      8.55618641e-02 1.59574240e-01 1.30755171e-01 2.05632672e-01
      1.10572822e-01 1.33684769e-01 1.05933547e-01 1.26649931e-01 0.
      1.47038653e-01 5.86416945e-02</_>
    <_>
      2.04546586e-01 1.40326545e-01 1.32988080e-01 1.34610683e-01
      1.23267315e-01 5.37551120e-02 7.18893483e-02 2.18644768e-01
      8.13132897e-02 6.89737275e-02 7.61251450e-02 0. 1.29947215e-01
      5.85906431e-02 4.45215963e-02 2.52038211e-01 1.30120143e-01
      1.44319862e-01 6.88981041e-02 0. 0. 4.55408283e-02 5.65697737e-02
      1.66895598e-01 1.80444345e-01 4.40456644e-02 7.90166706e-02
      8.22658390e-02 7.57011771e-02 1.32611826e-01 9.04596001e-02
      3.23827147e-01 1.12377964e-01 7.71725625e-02 0. 7.53841102e-02
      2.14890674e-01 1.35586008e-01 1.16873585e-01 2.33133689e-01
      1.35287344e-01 3.22336294e-02 1.10674150e-01 1.27026811e-01
      1.95520714e-01 0. 9.34619084e-02 8.13840553e-02 9.54711065e-02 0.
      9.66658667e-02 1.01084158e-01 6.84686154e-02 7.12724701e-02
      9.08118486e-02 2.35082015e-01 2.09810957e-01 9.84938964e-02
      1.03058517e-01 1.13777265e-01 8.23426321e-02 1.04320288e-01
      8.92345607e-02 7.80064091e-02</_>
    <_>
      2.42381290e-01 1.41575634e-01 0. 1.68185636e-01 1.44003481e-01
      1.32211924e-01 1.08824424e-01 0. 0. 0. 8.72902721e-02
      1.47846550e-01 2.22409129e-01 6.06662631e-02 1.51194438e-01
      1.33532181e-01 2.02408686e-01 1.71487063e-01 8.22593942e-02
      6.90283030e-02 6.38002530e-02 0. 8.82757604e-02 8.13724697e-02
      1.42928839e-01 6.55684173e-02 0. 8.91762897e-02 1.41254961e-01
      1.64108530e-01 1.86179727e-01 8.76558498e-02 0. 0. 9.34657976e-02
      0. 2.49995813e-01 1.41895130e-01 1.12684190e-01 3.70904170e-02
      2.61705935e-01 1.21457107e-01 9.77794006e-02 1.48384944e-01
      1.79060340e-01 1.46620408e-01 1.04907043e-01 0. 8.86868313e-02
      2.23999545e-02 0. 8.07881802e-02 0. 5.45505732e-02 2.09308416e-01
      1.52715236e-01 1.68661863e-01 2.01453179e-01 5.53580634e-02
      1.18664578e-01 8.02172199e-02 1.05204903e-01 1.54057130e-01 0.</_>
    <_>
      1.42012939e-01 1.08030356e-01 1.27004325e-01 7.52807707e-02
      1.72173560e-01 1.34990826e-01 1.17038824e-02 0. 8.86628777e-02 0.
      4.89635058e-02 9.96058583e-02 1.75710440e-01 1.13495402e-01
      8.84781182e-02 2.38055244e-01 1.95821255e-01 1.61405668e-01
      4.82094735e-02 1.25073373e-01 6.94541186e-02 4.82094735e-02 0. 0.
      7.60748982e-02 0. 4.82094735e-02 6.94541186e-02 1.64323837e-01
      7.26142973e-02 1.25390947e-01 2.25988716e-01 6.71876371e-02
      9.16155279e-02 0. 1.29676744e-01 2.69746363e-01 5.50602600e-02
      1.14962220e-01 2.51086563e-01 1.25665545e-01 1.31293952e-01
      8.20620656e-02 7.88876489e-02 2.44851589e-01 0. 9.16053504e-02
      6.69593066e-02 9.41419080e-02 1.17038824e-02 0. 1.02479562e-01
      5.08440062e-02 1.14256300e-01 1.58834681e-01 2.38498271e-01
      2.05950573e-01 1.85638711e-01 1.13552801e-01 1.17008910e-01
      8.14746246e-02 0. 1.64119914e-01 1.16310686e-01</_>
    <_>
      1.24889970e-01 1.10609673e-01 1.48731872e-01 1.84454739e-01
      1.39881581e-01 8.27588290e-02 1.51252411e-02 1.35225236e-01
      7.51429945e-02 1.47320414e-02 9.61404070e-02 7.25049302e-02
      1.62076280e-01 1.01656325e-01 2.84170322e-02 2.41984621e-01
      1.59296677e-01 1.32910565e-01 0. 0. 7.20352456e-02 9.28224474e-02
      0. 1.48009345e-01 1.32377371e-01 7.04779550e-02 8.92249644e-02 0.
      1.28635660e-01 1.32115722e-01 1.15246698e-01 2.83198625e-01
      7.68662691e-02 4.32655774e-02 8.18613842e-02 1.04887135e-01
      2.29926258e-01 9.99572724e-02 1.72835112e-01 1.45544246e-01
      1.38764918e-01 1.73335746e-01 1.21011443e-01 1.04334943e-01
      1.49480283e-01 1.17505230e-01 1.16022065e-01 0. 1.00441508e-01
      4.78572808e-02 0. 1.07531615e-01 9.17014927e-02 0. 1.85262024e-01
      2.48888358e-01 1.54680938e-01 1.39273256e-01 1.31903797e-01
      9.02049467e-02 1.32793069e-01 0. 1.71291083e-01 9.89035591e-02</_>
    <_>
      2.30727479e-01 1.08350277e-01 1.32085964e-01 7.20978379e-02 0.
      9.95886400e-02 2.17494592e-02 1.82661638e-01 9.73173678e-02 0.
      1.12232767e-01 7.54423440e-02 1.38563231e-01 9.68538821e-02
      7.62866661e-02 2.42961779e-01 1.63839027e-01 1.82445198e-01
      8.59174058e-02 1.30825728e-01 7.47330338e-02 6.80289418e-02
      6.47480264e-02 9.14246365e-02 1.72242403e-01 1.16784178e-01
      1.07318558e-01 0. 1.05846725e-01 1.64218754e-01 1.20367922e-01
      2.50074267e-01 1.07024193e-01 1.23306863e-01 4.85861301e-02 0.
      1.27655685e-01 5.49844988e-02 1.74932167e-01 2.55789906e-01
      1.35220692e-01 1.12147130e-01 1.14091352e-01 9.42177102e-02
      9.35427696e-02 0. 8.59247595e-02 1.09009288e-01 1.80832252e-01
      4.93374094e-02 0. 9.36429352e-02 0. 1.12169407e-01 8.54720399e-02
      2.06991509e-01 2.12236673e-01 2.47839123e-01 8.08039084e-02 0. 0.
      0. 1.05022423e-01 1.19248308e-01</_>
    <_>
      2.49245539e-01 1.72180951e-01 1.18624322e-01 1.22169241e-01
      7.05344453e-02 8.38800594e-02 1.05473593e-01 0. 1.37401626e-01
      1.15540534e-01 8.38800594e-02 9.97507647e-02 0. 0. 1.36094093e-01
      9.97507647e-02 1.78818226e-01 1.58733770e-01 0. 7.05344453e-02
      9.01201516e-02 0. 1.57592356e-01 0. 7.93288648e-02 6.67073578e-02
      0. 0. 1.83860078e-01 1.18624322e-01 1.89631298e-01 1.22169241e-01
      1.06151670e-01 1.42777726e-01 8.38800594e-02 7.05344453e-02
      1.78818226e-01 1.18624322e-01 1.89631298e-01 9.97507647e-02
      2.35201314e-01 1.57592356e-01 0. 0. 2.25510895e-01 0.
      9.43384543e-02 7.05344453e-02 9.01201516e-02 1.44036576e-01 0.
      7.05344453e-02 1.32518858e-01 0. 1.72180951e-01 1.22169241e-01
      2.42851406e-01 2.58356482e-01 0. 0. 1.43901974e-01 0.
      1.89631298e-01 1.22169241e-01</_>
    <_>
      3.69491488e-01 8.90936404e-02 0. 1.15673445e-01 0. 0.
      8.90911743e-02 7.69159794e-02 1.44508362e-01 1.46953434e-01 0. 0.
      0. 0. 0. 0. 2.33223528e-01 1.88451827e-01 0. 0. 7.69159794e-02 0.
      0. 9.64758694e-02 8.65060613e-02 1.27729803e-01 0. 6.02176450e-02
      1.05401441e-01 7.22160712e-02 1.65275976e-01 1.53232545e-01
      9.82736871e-02 1.37657419e-01 1.05340376e-01 0. 1.43919989e-01
      1.02078766e-01 1.39026538e-01 1.33782819e-01 2.78650194e-01
      1.81640923e-01 9.14690271e-02 7.69159794e-02 7.69159794e-02
      9.14690271e-02 1.46953434e-01 7.69159794e-02 2.24383965e-01 0. 0.
      7.69159794e-02 1.05947860e-01 0. 1.47252709e-01 1.08948238e-01
      3.45122248e-01 1.89118311e-01 0. 1.32950544e-01 0. 8.81646350e-02
      1.54965878e-01 7.73978233e-02</_>
    <_>
      1.71670794e-01 1.24379784e-01 1.45642385e-01 1.65827647e-01
      1.63090736e-01 9.38990340e-02 2.33249087e-02 1.30005017e-01
      1.08531110e-01 1.42835304e-02 1.05159789e-01 9.83526036e-02
      1.70177430e-01 9.31720883e-02 1.07496172e-01 2.05860689e-01
      2.21634373e-01 1.44036606e-01 0. 5.46205677e-02 1.25804245e-01
      6.33294806e-02 6.22428693e-02 1.64110392e-01 2.16449305e-01
      7.52583519e-02 7.73553252e-02 6.83048069e-02 1.14340506e-01
      1.14754595e-01 9.38502327e-02 2.81042606e-01 8.80946368e-02
      8.02213624e-02 4.25012410e-02 6.76337555e-02 1.46290943e-01
      1.25300974e-01 1.60703048e-01 1.95750460e-01 1.48771361e-01
      1.63076043e-01 0. 0. 9.61216688e-02 4.44325916e-02 9.09018144e-02
      1.37751743e-01 1.43688425e-01 4.58224639e-02 0. 0. 0. 0.
      1.23856276e-01 2.50893325e-01 1.95180237e-01 1.32938892e-01
      4.67408411e-02 9.72928554e-02 5.36626279e-02 1.17869973e-01
      1.23513438e-01 1.37915194e-01</_>
    <_>
      3.32428157e-01 1.51936024e-01 4.99694049e-02 1.04439043e-01
      1.45980135e-01 9.60434973e-02 8.64645764e-02 1.01870380e-01
      1.50308087e-01 9.98406857e-02 0. 1.39680013e-01 0. 0. 0. 0.
      3.84899825e-01 8.84203985e-03 0. 0. 1.12342902e-01 0.
      4.99203429e-02 0. 2.89357841e-01 5.06973602e-02 9.74784270e-02 0.
      8.33210200e-02 9.67658088e-02 5.16411029e-02 1.33588493e-01
      1.40054584e-01 8.73640999e-02 6.65647462e-02 5.84422983e-02
      1.04924947e-01 7.17391074e-02 1.57434806e-01 1.06908068e-01
      2.84742892e-01 8.84203985e-03 0. 0. 7.48850629e-02 9.98487100e-02
      0. 7.46483281e-02 2.29297936e-01 4.99203429e-02 4.84502241e-02
      7.46483281e-02 0. 0. 1.33894563e-01 7.34680369e-02 3.62213492e-01
      9.98548269e-02 0. 7.44204372e-02 5.93656264e-02 8.38016495e-02
      1.32655501e-01 7.51411915e-02</_>
    <_>
      7.27367103e-02 8.14285278e-02 1.39315695e-01 1.63463593e-01 0. 0.
      0. 1.19214259e-01 7.98947811e-02 1.30172931e-02 5.36195450e-02 0.
      0. 0. 0. 3.27087611e-01 1.47437811e-01 1.48987576e-01 0. 0. 0.
      5.27884588e-02 0. 0. 5.67462817e-02 0. 0. 1.15376055e-01
      7.66605511e-02 1.14818439e-01 1.50875434e-01 2.75604606e-01
      1.13528274e-01 1.01461969e-01 9.00642648e-02 1.14757925e-01
      1.75476104e-01 1.66069135e-01 1.82320714e-01 2.50972122e-01
      1.75370470e-01 1.48558170e-01 8.81729797e-02 7.72482678e-02
      7.62357935e-02 1.27913117e-01 1.28588095e-01 7.64806643e-02
      9.40035358e-02 5.11457063e-02 0. 1.16206691e-01 7.79557973e-02
      6.07200600e-02 1.92808062e-01 2.49331340e-01 2.27100164e-01
      2.09520251e-01 1.02667600e-01 1.15194015e-01 7.47403353e-02
      1.72893345e-01 1.33219481e-01 1.16321616e-01</_>
    <_>
      2.49245539e-01 1.72180951e-01 1.18624322e-01 1.22169241e-01
      7.05344453e-02 8.38800594e-02 1.05473593e-01 0. 1.37401626e-01
      1.15540534e-01 8.38800594e-02 9.97507647e-02 0. 0. 1.36094093e-01
      9.97507647e-02 1.78818226e-01 1.58733770e-01 0. 7.05344453e-02
      9.01201516e-02 0. 1.57592356e-01 0. 7.93288648e-02 6.67073578e-02
      0. 0. 1.83860078e-01 1.18624322e-01 1.89631298e-01 1.22169241e-01
      1.06151670e-01 1.42777726e-01 8.38800594e-02 7.05344453e-02
      1.78818226e-01 1.18624322e-01 1.89631298e-01 9.97507647e-02
      2.35201314e-01 1.57592356e-01 0. 0. 2.25510895e-01 0.
      9.43384543e-02 7.05344453e-02 9.01201516e-02 1.44036576e-01 0.
      7.05344453e-02 1.32518858e-01 0. 1.72180951e-01 1.22169241e-01
      2.42851406e-01 2.58356482e-01 0. 0. 1.43901974e-01 0.
      1.89631298e-01 1.22169241e-01</_>
    <_>
      2.38905579e-01 1.15595967e-01 1.44069687e-01 1.62862957e-01
      1.83080420e-01 0. 2.44690385e-02 0. 1.53420657e-01 9.43514109e-02
      0. 1.24559909e-01 2.15846688e-01 1.14877410e-01 8.37025419e-02
      4.43225540e-02 2.76835084e-01 9.72792879e-02 7.78827220e-02
      6.86237440e-02 1.69094920e-01 6.59576207e-02 8.06091204e-02
      6.68935403e-02 1.74510255e-01 6.77070096e-02 7.48200417e-02 0.
      7.94629231e-02 1.12659767e-01 1.27281576e-01 1.60538405e-01 0.
      1.15734987e-01 0. 0. 2.54449278e-01 1.38733849e-01 1.30491838e-01
      9.78505760e-02 2.10993052e-01 9.29163545e-02 8.43738914e-02
      1.03175044e-01 1.88142940e-01 9.52671096e-02 1.02332197e-01
      7.12261051e-02 1.00098588e-01 4.22833972e-02 1.23289183e-01
      1.12937294e-01 0. 8.05250853e-02 1.42772451e-01 1.67142168e-01
      2.55242437e-01 1.22288235e-01 1.48220479e-01 7.81460181e-02
      4.68977764e-02 5.04092984e-02 8.11362341e-02 1.41598895e-01</_>
    <_>
      2.37771749e-01 1.33623719e-01 1.77694753e-01 1.78242043e-01
      1.85164586e-01 8.05183202e-02 9.35904756e-02 7.02512413e-02
      1.53190389e-01 9.35904756e-02 8.32840875e-02 1.05729088e-01
      2.01320425e-01 8.32840875e-02 1.24019586e-01 6.91404790e-02
      2.90018380e-01 1.65936932e-01 4.47679311e-02 0. 1.31986767e-01 0.
      9.55035537e-02 7.02512413e-02 2.43330777e-01 1.23933978e-01 0.
      7.02512413e-02 5.58687560e-02 8.01058710e-02 1.95730835e-01
      1.50853753e-01 1.31986767e-01 8.17958266e-02 0. 0. 2.14193285e-01
      1.25649244e-01 8.32120795e-03 1.13933191e-01 2.44230896e-01
      4.98404950e-02 1.16438463e-01 0. 1.31989688e-01 0. 9.39596742e-02
      7.02512413e-02 1.46317333e-01 4.77110818e-02 4.55963127e-02
      7.02512413e-02 0. 0. 1.26267895e-01 7.02512413e-02 3.04518163e-01
      1.16936922e-01 4.55329567e-02 0. 7.90103525e-02 6.48749694e-02
      1.16094254e-01 7.00332895e-02</_>
    <_>
      2.41415083e-01 1.45857319e-01 1.77749962e-01 1.73787326e-01
      8.21894556e-02 9.88560989e-02 8.37557092e-02 5.48374988e-02
      1.00406684e-01 4.48737890e-02 1.28435746e-01 7.16921762e-02
      1.41551599e-01 0. 1.27301127e-01 6.78477734e-02 2.52163976e-01
      1.53216958e-01 0. 7.22623840e-02 7.23875910e-02 8.15300271e-02
      7.96732455e-02 1.09123535e-01 1.18434697e-01 8.45876262e-02
      8.05665180e-02 8.21463764e-02 1.09280817e-01 1.26923978e-01
      1.78632751e-01 1.41710803e-01 1.40665457e-01 1.93554610e-02
      8.42112154e-02 6.15745187e-02 2.22403154e-01 1.53338432e-01
      8.59802663e-02 9.71789882e-02 2.66202897e-01 1.93554591e-02
      1.32705867e-01 1.15794718e-01 1.60232261e-01 9.77813005e-02 0.
      7.33132213e-02 1.87009841e-01 7.16789886e-02 6.71668276e-02
      7.33096600e-02 8.18677843e-02 0. 1.29796579e-01 7.02737123e-02
      3.40979487e-01 1.43921942e-01 6.61173910e-02 9.97776240e-02
      4.48271185e-02 4.81100529e-02 1.33599743e-01 7.02858418e-02</_>
    <_>
      2.24106207e-01 1.21523991e-01 1.97560236e-01 1.74876332e-01
      7.94404596e-02 9.51038674e-02 8.05231780e-02 5.01629896e-02
      9.71165597e-02 3.91307510e-02 1.21688984e-01 6.79349899e-02
      1.65863469e-01 8.46649706e-02 4.49578092e-02 6.61380813e-02
      2.22328112e-01 1.76443294e-01 0. 6.91567361e-02 6.99664354e-02
      9.16110426e-02 4.64887246e-02 1.04616225e-01 1.02134027e-01
      7.99043328e-02 7.32399225e-02 6.95287064e-02 1.26888007e-01
      1.02989689e-01 1.72874197e-01 1.34282008e-01 1.21303990e-01
      2.77485624e-02 1.42333880e-01 0. 2.47389182e-01 1.60205022e-01
      1.33368924e-01 9.82402489e-02 2.18609899e-01 6.04247078e-02
      1.31181940e-01 1.38361707e-01 1.74251556e-01 1.26923293e-01
      5.15255705e-02 0. 1.70717388e-01 7.83993751e-02 4.72471975e-02
      7.08576739e-02 7.91295469e-02 0. 1.73154369e-01 7.68430084e-02
      2.89624095e-01 2.02490941e-01 9.91563052e-02 1.09472565e-01
      5.39601743e-02 6.94055408e-02 1.41579092e-01 1.00321472e-01</_>
    <_>
      2.28555053e-01 1.47337988e-01 1.13220558e-01 1.34157091e-01
      2.01225325e-01 4.09995914e-02 7.32699335e-02 6.32568672e-02
      7.93345571e-02 1.28046259e-01 7.52255097e-02 6.32568672e-02
      1.88127339e-01 0. 1.11174017e-01 6.22566938e-02 2.79117316e-01
      1.35105506e-01 8.36285353e-02 6.32568672e-02 1.67955756e-01 0.
      8.42741504e-02 9.39439833e-02 1.66351780e-01 1.13971904e-01 0. 0.
      1.34631976e-01 7.52255097e-02 1.91379234e-01 1.46887422e-01
      1.18845865e-01 7.32699335e-02 0. 0. 2.28981674e-01 1.14659250e-01
      1.84874296e-01 1.02589741e-01 1.67322412e-01 6.16729483e-02
      1.13309681e-01 8.96006823e-02 1.85391903e-01 0. 7.32699335e-02
      6.32568672e-02 7.05837011e-02 4.23024148e-02 7.32719302e-02
      8.94587114e-02 1.38369992e-01 4.23128195e-02 1.47973672e-01
      1.25918522e-01 3.00869018e-01 1.40102088e-01 4.09995914e-02
      8.94587114e-02 1.42287791e-01 1.19200647e-01 1.36361748e-01
      8.87552053e-02</_>
    <_>
      2.42309526e-01 9.15424004e-02 1.26393408e-01 1.29228890e-01
      1.65861443e-01 0. 8.00316632e-02 6.66906536e-02 6.55342489e-02
      8.04510042e-02 4.23175693e-02 1.29942104e-01 1.36000186e-01
      8.29027370e-02 1.66927785e-01 6.87167123e-02 2.07874164e-01
      1.36350453e-01 1.23296693e-01 1.14152454e-01 2.00203031e-01 0.
      8.04510042e-02 6.74055442e-02 1.60120964e-01 0. 0. 1.40737548e-01
      7.92230144e-02 1.46186665e-01 1.43583551e-01 6.84966967e-02
      7.02816620e-02 1.47067392e-02 8.04689601e-02 0. 2.26435959e-01
      1.56475306e-01 1.31741345e-01 7.28253275e-02 2.29612499e-01
      9.51972306e-02 1.16238028e-01 1.39548078e-01 1.96742535e-01
      9.34229717e-02 0. 7.17842430e-02 1.01752423e-01 0. 4.30066064e-02
      7.00420886e-02 2.42204279e-01 9.51528698e-02 1.61651015e-01
      9.79638249e-02 2.61782676e-01 1.11960210e-01 8.22468922e-02
      1.48981333e-01 0. 9.19630527e-02 1.55869663e-01 1.19154043e-01</_>
    <_>
      2.12136671e-01 1.35957614e-01 1.07917309e-01 1.84169829e-01
      2.77812421e-01 0. 7.49651417e-02 6.31202310e-02 6.54738396e-02
      8.62922817e-02 0. 1.21856406e-01 2.66853213e-01 9.14708227e-02
      7.72597939e-02 4.70107011e-02 2.42685467e-01 2.04103798e-01
      6.24165870e-02 6.30360767e-02 1.23151287e-01 5.52778803e-02
      8.76402408e-02 4.79766391e-02 1.61407307e-01 1.08557060e-01
      4.12961692e-02 4.31416184e-02 1.18574895e-01 1.26064241e-01
      1.23644188e-01 1.40913770e-01 0. 6.70008212e-02 7.58204833e-02 0.
      2.53558487e-01 1.58344284e-01 1.38624191e-01 8.36547837e-02
      1.73318446e-01 7.70993084e-02 9.12593380e-02 6.96325451e-02
      2.20630363e-01 8.85344744e-02 0. 6.65229112e-02 1.15582295e-01 0.
      6.99578300e-02 6.65101558e-02 6.43685982e-02 4.59279083e-02
      1.96178809e-01 1.58671260e-01 2.20605120e-01 1.45939991e-01
      1.03169747e-01 1.14078119e-01 4.47575450e-02 4.90054674e-02
      8.93424898e-02 1.10344715e-01</_>
    <_>
      2.04031408e-01 1.24769710e-01 1.37172654e-01 1.92249537e-01
      2.25144193e-01 0. 8.61697942e-02 6.29061162e-02 6.27059489e-02
      8.43351111e-02 0. 1.18452698e-01 2.63520509e-01 6.21957257e-02
      4.02924940e-02 6.21068440e-02 2.85463214e-01 9.89703387e-02
      8.46886262e-02 8.03182125e-02 1.55328229e-01 1.04015328e-01
      8.49991739e-02 0. 1.47910371e-01 1.33317500e-01 0. 0.
      1.34307221e-01 7.51649886e-02 1.26642153e-01 1.63200662e-01
      6.35077879e-02 8.62666517e-02 0. 0. 2.49955952e-01 1.76959351e-01
      6.43938109e-02 6.44900054e-02 1.95415348e-01 6.39781728e-02
      4.43629809e-02 9.03947800e-02 2.44523510e-01 8.46745968e-02 0.
      6.33039400e-02 9.95109603e-02 8.46677944e-02 1.04834288e-01
      6.29061162e-02 1.28714591e-01 4.18382809e-02 1.47034451e-01
      1.07679129e-01 2.81254083e-01 1.32582933e-01 1.12117857e-01
      1.14030138e-01 8.91703833e-03 8.13745484e-02 1.04446352e-01
      8.72874111e-02</_>
    <_>
      2.20508084e-01 1.41498342e-01 1.04019798e-01 1.69193313e-01
      2.72108942e-01 0. 7.43020624e-02 6.33947402e-02 6.30814582e-02
      8.35195854e-02 0. 1.18332081e-01 2.80635536e-01 8.75777155e-02
      7.07193390e-02 3.40665020e-02 3.07168603e-01 7.68285096e-02
      9.98312086e-02 6.77294061e-02 1.54688150e-01 5.90315610e-02
      7.12596029e-02 0. 2.09404752e-01 1.07480787e-01 7.15466887e-02 0.
      1.35606125e-01 1.30227268e-01 8.86623412e-02 1.37863100e-01 0.
      6.61624074e-02 1.19865425e-01 1.00777470e-01 1.95909902e-01
      1.05846703e-01 1.07216917e-01 1.34615421e-01 2.00653285e-01
      5.24482466e-02 1.28281191e-01 7.32785687e-02 1.62128195e-01
      1.02554440e-01 0. 6.54169470e-02 1.41150519e-01 0. 7.62366280e-02
      1.14220746e-01 5.42630702e-02 9.42916796e-02 1.54456198e-01
      1.72851443e-01 2.09743351e-01 1.01563044e-01 8.89265761e-02
      1.56647831e-01 0. 0. 1.05106838e-01 6.75805658e-02</_>
    <_>
      2.37390295e-01 1.72217563e-01 1.47582725e-01 1.17046379e-01
      1.43123642e-01 0. 1.00405313e-01 7.13742673e-02 1.34469107e-01
      8.46580416e-02 0. 1.35742843e-01 1.93145022e-01 5.22866175e-02
      9.56110060e-02 6.69606775e-02 2.33049110e-01 1.92751274e-01
      9.58128422e-02 7.28372186e-02 9.21220332e-02 1.28509477e-01
      1.17085695e-01 0. 7.86478072e-02 1.18850522e-01 6.26107454e-02 0.
      1.55876413e-01 9.82750207e-02 1.34724736e-01 1.94239184e-01
      1.37285993e-01 1.00876391e-01 0. 0. 1.86230049e-01 1.48171455e-01
      1.56937957e-01 1.12977482e-01 2.20300391e-01 9.01346505e-02
      1.19305201e-01 0. 1.61095947e-01 1.31732583e-01 5.14043048e-02 0.
      1.04438953e-01 0. 8.51041526e-02 7.21789226e-02 1.22762538e-01
      9.77291614e-02 1.33658558e-01 1.07280105e-01 2.71358967e-01
      1.78835467e-01 1.56155497e-01 1.03717588e-01 5.71291745e-02
      6.04605004e-02 1.28900677e-01 7.23858625e-02</_>
    <_>
      2.45106757e-01 1.15844227e-01 1.28150970e-01 1.63799569e-01
      2.37486854e-01 1.17787912e-01 8.36312100e-02 6.49382994e-02
      1.07179530e-01 1.11578263e-01 1.08721443e-01 1.23597592e-01
      2.09400713e-01 7.85469636e-02 1.21363528e-01 5.48725165e-02
      2.92500108e-01 1.09596208e-01 1.08969279e-01 0. 1.63425386e-01
      7.03148618e-02 4.39986996e-02 0. 1.67566240e-01 5.28740808e-02
      7.75109008e-02 0. 9.80428085e-02 1.24546841e-01 1.26545265e-01
      1.15924902e-01 6.75284043e-02 1.60786137e-02 7.70607367e-02 0.
      2.77500123e-01 9.16061103e-02 9.66821387e-02 6.50036633e-02
      2.17254400e-01 5.59903458e-02 1.24686621e-01 7.73071125e-02
      1.50370955e-01 9.08957496e-02 9.37151909e-02 7.01770186e-02
      1.30427554e-01 6.11486435e-02 4.47165482e-02 6.70624003e-02
      6.29905760e-02 1.01724438e-01 1.53804004e-01 1.08024657e-01
      2.91781425e-01 1.37025744e-01 7.98863918e-02 7.79193193e-02
      7.02219456e-02 7.30048493e-02 1.26289338e-01 5.34209609e-02</_>
    <_>
      2.43145123e-01 1.17097266e-01 1.06721520e-01 1.57612354e-01
      2.08671749e-01 1.24523535e-01 1.04657434e-01 0. 0. 5.19067235e-02
      8.26323554e-02 1.40631139e-01 2.06994817e-01 1.92942962e-01
      1.61992073e-01 1.11123741e-01 3.04240346e-01 1.44624114e-01
      7.28476718e-02 0. 6.08154796e-02 0. 6.57523423e-02 8.02704692e-02
      2.51961619e-01 1.08291321e-01 1.23928152e-01 7.23706260e-02
      1.28466859e-01 1.14822060e-01 1.42075300e-01 8.34894925e-02
      8.73178318e-02 7.86924362e-02 5.43946363e-02 0. 9.04446915e-02
      1.02726251e-01 1.89394102e-01 1.18402630e-01 2.27862954e-01
      9.84420404e-02 1.38039961e-01 1.31773651e-01 1.54792815e-01 0.
      7.86924362e-02 0. 8.60060751e-02 6.64281696e-02 4.82451729e-02 0.
      6.08154796e-02 0. 1.77119255e-01 1.52913913e-01 1.00976288e-01
      1.60968766e-01 1.31682396e-01 9.60492417e-02 7.56721050e-02
      5.25215454e-02 1.32830679e-01 1.09977722e-01</_>
    <_>
      1.20283842e-01 1.55224398e-01 1.80713728e-01 2.12455705e-01
      1.49175093e-01 0. 0. 0. 7.88245201e-02 0. 1.02493204e-01
      7.73220435e-02 1.70192152e-01 1.44062653e-01 5.90769872e-02
      1.19266637e-01 2.35473603e-01 1.44561142e-01 0. 0. 1.21521011e-01
      8.87218565e-02 6.13704436e-02 1.18266448e-01 8.24409872e-02 0.
      8.20805654e-02 0. 1.14392594e-01 1.60471573e-01 1.60465032e-01
      2.05449149e-01 0. 3.94077450e-02 0. 0. 2.68847317e-01
      1.92872718e-01 1.35741279e-01 1.92081332e-01 5.71199618e-02
      1.28076926e-01 0. 8.32831338e-02 2.24041671e-01 0. 1.01615503e-01
      7.43920654e-02 1.05904393e-01 1.05166115e-01 0. 1.32276058e-01
      8.61262828e-02 1.20979190e-01 1.18110262e-01 2.36032099e-01
      2.24188179e-01 1.63851395e-01 1.56259045e-01 9.75989625e-02 0.
      1.14386573e-01 6.95037469e-02 1.21362351e-01</_>
    <_>
      1.60024717e-01 2.07500786e-01 1.72006324e-01 1.59812912e-01
      1.90626800e-01 9.47349146e-02 2.53827143e-02 6.76656365e-02
      1.04361795e-01 1.12604965e-02 1.57171294e-01 1.45623565e-01
      1.73468918e-01 1.37397721e-01 7.30448738e-02 1.38090417e-01
      2.00177655e-01 1.74441248e-01 4.63831238e-02 1.20707490e-01
      1.37755528e-01 7.56380484e-02 0. 1.55385122e-01 1.37035385e-01
      1.01158462e-01 8.24301988e-02 5.14129549e-02 1.52648464e-01
      7.96765685e-02 1.36844710e-01 2.19202250e-01 5.17552011e-02
      8.81292671e-02 0. 0. 2.44631961e-01 1.13419607e-01 8.74813944e-02
      2.31861874e-01 9.72582102e-02 1.21042840e-01 7.91475251e-02
      7.57700652e-02 1.30948573e-01 0. 9.79647040e-02 7.47096539e-02
      1.04319297e-01 4.42431495e-02 0. 0. 0. 3.97762358e-02
      1.79514229e-01 2.54721999e-01 1.77613616e-01 1.01722643e-01
      4.67168503e-02 7.42372125e-02 0. 8.24675858e-02 1.45374045e-01
      1.49561659e-01</_>
    <_>
      1.53410777e-01 1.90993980e-01 1.81279182e-01 1.64314270e-01
      8.05445462e-02 8.63977447e-02 7.95750320e-02 0. 9.12754089e-02
      1.78398620e-02 1.00885391e-01 7.62907416e-02 1.40771806e-01
      1.29602775e-01 5.58472835e-02 2.25438058e-01 2.16070339e-01
      1.77655548e-01 5.04712574e-02 1.01954177e-01 7.57885873e-02
      5.19611724e-02 0. 8.95413011e-02 6.50664717e-02 1.18881866e-01 0.
      1.31651610e-01 5.99474497e-02 1.38985932e-01 4.90678623e-02
      2.55794227e-01 7.19257519e-02 8.54230821e-02 0. 0. 2.36087084e-01
      1.26293391e-01 1.88577980e-01 2.28677675e-01 1.10330664e-01
      1.22937717e-01 1.44466579e-01 0. 7.24287257e-02 0. 9.83304009e-02
      7.14293718e-02 8.46952572e-02 4.87545840e-02 0. 7.38779381e-02 0.
      0. 2.30349109e-01 2.35745013e-01 1.95266038e-01 1.92818552e-01
      8.25591832e-02 9.22638774e-02 8.56984556e-02 1.40859097e-01
      1.34832963e-01 1.03468686e-01</_>
    <_>
      1.27994865e-01 1.02933846e-01 1.49523482e-01 2.16964900e-01
      2.32776910e-01 8.92926902e-02 8.69344622e-02 6.45953342e-02
      1.02007151e-01 0. 8.58643353e-02 6.45829439e-02 3.25518847e-01
      4.77721915e-02 6.67317659e-02 1.69519842e-01 1.91911459e-01
      1.15188427e-01 7.63133615e-02 8.77056122e-02 7.21727237e-02
      1.41482934e-01 6.50593936e-02 2.11367875e-01 2.13992417e-01
      1.38615668e-01 5.65615259e-02 8.94663334e-02 7.21771643e-02
      7.24151656e-02 9.02916342e-02 3.06721121e-01 6.17198534e-02
      7.58452713e-02 0. 0. 2.34000951e-01 8.85076672e-02 3.71404514e-02
      2.15460330e-01 4.41676900e-02 1.03711329e-01 7.54617378e-02
      8.83750319e-02 1.39964327e-01 3.67809795e-02 7.39419013e-02
      5.97977005e-02 9.70810801e-02 7.39419013e-02 6.15854189e-02
      3.12929451e-02 0. 1.40351534e-01 1.16336375e-01 1.38169423e-01
      1.08041830e-01 1.32327765e-01 1.13347501e-01 6.48224801e-02
      9.25084129e-02 0. 1.05959177e-01 1.59737632e-01</_>
    <_>
      1.13801464e-01 1.45640805e-01 1.64059579e-01 1.18365347e-01
      2.15828776e-01 7.79943839e-02 3.87453660e-02 8.41766149e-02 0.
      6.10530153e-02 1.17592141e-01 8.99786279e-02 1.90225810e-01
      9.87210199e-02 7.28733093e-02 1.50308609e-01 1.94277614e-01
      2.50007182e-01 7.75316134e-02 0. 9.88415703e-02 8.61820281e-02
      6.39429837e-02 0. 1.06549971e-01 1.26960650e-01 7.60414749e-02
      9.63778198e-02 1.35658860e-01 1.39989376e-01 1.32725254e-01
      1.13633960e-01 7.50877485e-02 7.51767755e-02 0. 1.09613203e-01
      2.89137423e-01 7.35855401e-02 1.37283802e-01 1.70523256e-01
      1.19987376e-01 1.05184264e-01 0. 1.33792803e-01 2.30184510e-01 0.
      8.66826400e-02 6.39186427e-02 1.10948145e-01 8.60123709e-02 0.
      9.80762094e-02 1.05315410e-01 1.29006326e-01 9.59341303e-02
      2.31402054e-01 1.92391768e-01 1.49208397e-01 1.48227543e-01
      9.77243707e-02 1.06196828e-01 0. 1.48288608e-01 1.16143331e-01</_>
    <_>
      2.00098589e-01 4.19919081e-02 7.56481886e-02 1.22613713e-01
      1.90452754e-01 1.18721470e-01 1.00177228e-01 6.74078092e-02
      9.74915773e-02 7.81456195e-03 8.82514045e-02 6.61831349e-02
      2.43452966e-01 1.41475007e-01 1.56291239e-02 2.13652447e-01
      2.64743418e-01 1.93394706e-01 0. 6.53506964e-02 6.64257854e-02
      7.52285346e-02 0. 1.88921332e-01 1.88199401e-01 7.67151564e-02
      1.51711673e-01 6.55824617e-02 1.39544368e-01 7.84566402e-02
      1.70507476e-01 1.77032858e-01 1.22696683e-01 8.75458643e-02 0.
      6.53506964e-02 1.74857765e-01 4.62340787e-02 7.68240839e-02
      2.03405067e-01 1.69747233e-01 1.52147204e-01 7.81024173e-02
      7.42179602e-02 1.44178733e-01 0. 8.75458643e-02 6.49307817e-02
      1.12048745e-01 0. 0. 0. 6.49477988e-02 1.14372566e-01
      1.27885297e-01 1.70931727e-01 2.03163922e-01 1.40181392e-01
      1.17622226e-01 9.30248126e-02 6.47228882e-02 8.78453627e-02
      1.46697491e-01 1.33834541e-01</_>
    <_>
      2.16499284e-01 9.43109393e-02 0. 1.52252734e-01 3.04007798e-01
      4.80242744e-02 7.78046027e-02 6.15108274e-02 5.89578785e-02
      9.40934122e-02 1.07810371e-01 8.25744569e-02 2.88173825e-01
      1.24536626e-01 1.40706539e-01 8.40307623e-02 2.78651983e-01
      8.73183832e-02 8.61457959e-02 6.57219589e-02 7.19004795e-02 0.
      1.21669449e-01 6.05736040e-02 2.73995578e-01 8.88925716e-02
      1.19187608e-01 9.11838338e-02 1.61974847e-01 1.59079850e-01
      1.68474466e-01 3.61901186e-02 8.52832124e-02 0. 4.58600149e-02
      9.92331505e-02 1.46146163e-01 8.92920643e-02 7.03334957e-02
      2.78670918e-02 2.38730058e-01 7.57062659e-02 9.04347524e-02
      6.90037310e-02 1.83100685e-01 0. 1.04288794e-01 0. 1.57197461e-01
      6.76382706e-02 7.40959719e-02 0. 0. 7.84614757e-02 1.44840211e-01
      6.34865984e-02 2.05732584e-01 1.17311262e-01 1.18956149e-01
      7.47551396e-02 7.21709728e-02 6.78692535e-02 1.45082101e-01
      7.70860910e-02</_>
    <_>
      2.18047053e-01 1.22714750e-01 1.48521543e-01 2.03168735e-01
      2.07250521e-01 6.94889650e-02 8.40937942e-02 6.37653396e-02
      9.02935416e-02 8.61905292e-02 0. 1.21366583e-01 2.48137876e-01
      4.64090891e-02 8.45111161e-02 5.87554723e-02 2.81437635e-01
      1.78507775e-01 7.17194304e-02 3.24058905e-02 1.42368019e-01 0.
      8.55240598e-02 5.78988269e-02 2.53732264e-01 1.37729809e-01
      1.06812738e-01 0. 8.89247656e-02 1.40706375e-01 1.59870446e-01
      1.01425059e-01 6.56434298e-02 0. 7.51584247e-02 0. 2.25613683e-01
      1.38011009e-01 1.12726510e-01 9.77493599e-02 1.91717967e-01
      8.03746656e-02 8.76549557e-02 9.07819793e-02 1.60700470e-01
      8.72575343e-02 0. 6.54228479e-02 1.96228489e-01 5.84748350e-02
      4.36211936e-02 6.54196665e-02 5.28629720e-02 0. 1.67708695e-01
      1.08493991e-01 2.50816107e-01 8.52142051e-02 1.06551081e-01
      1.10289067e-01 8.20733458e-02 7.34529719e-02 6.66249245e-02
      6.25556111e-02</_>
    <_>
      1.66724339e-01 1.10824421e-01 1.28784761e-01 1.52142897e-01
      1.47628784e-01 9.19909850e-02 7.36855939e-02 0. 0. 7.21809119e-02
      1.52559876e-01 7.33723044e-02 9.12285671e-02 9.90942866e-02
      4.35017012e-02 1.91127464e-01 2.60164022e-01 1.43502906e-01
      1.17275938e-01 7.47331381e-02 7.20979795e-02 4.77211513e-02 0. 0.
      1.18295163e-01 0. 9.70957056e-02 9.75391865e-02 1.02530561e-01
      5.89389056e-02 1.12181440e-01 1.80514857e-01 9.48411599e-02
      1.03284858e-01 0. 7.71274492e-02 2.85728484e-01 1.56547561e-01
      1.27022982e-01 1.22824565e-01 2.05389023e-01 7.45732933e-02
      6.18203171e-02 1.26528040e-01 2.49342486e-01 6.39994219e-02
      8.91638324e-02 6.14116974e-02 8.40363801e-02 7.32214227e-02 0.
      1.03338704e-01 7.97708482e-02 5.19276671e-02 2.09458858e-01
      2.18270034e-01 2.20666409e-01 1.53790906e-01 1.63336053e-01
      4.52795438e-02 8.41304436e-02 8.50141943e-02 1.07499160e-01
      1.66511461e-01</_>
    <_>
      1.72773898e-01 1.43610939e-01 1.29744083e-01 1.29807889e-01
      7.78394565e-02 0. 0. 1.66129023e-01 1.51457191e-01 1.19575404e-01
      4.77550887e-02 8.56015980e-02 8.82412642e-02 9.10723209e-02
      1.12804018e-01 2.39154935e-01 2.19886109e-01 1.94733545e-01
      8.89376178e-02 0. 8.39789733e-02 4.70148958e-02 0. 5.16949855e-02
      1.29832208e-01 7.54139200e-02 7.03347176e-02 5.82199879e-02
      9.72454473e-02 4.70148958e-02 1.13389254e-01 1.80606008e-01
      1.19352259e-01 1.23515338e-01 1.24120288e-01 1.01550981e-01
      1.73710644e-01 7.97542110e-02 1.53739184e-01 2.71959096e-01
      1.26872495e-01 7.76966438e-02 7.93431625e-02 1.03321560e-01
      2.02169940e-01 1.21363297e-01 4.48080599e-02 9.58794057e-02
      1.12498127e-01 4.55518141e-02 0. 1.03496969e-01 7.87287205e-02 0.
      1.61389783e-01 2.42575720e-01 1.86090484e-01 2.05930144e-01
      8.99563506e-02 7.59561732e-02 8.74288455e-02 8.06422457e-02
      1.31082565e-01 1.45534515e-01</_>
    <_>
      2.89008707e-01 1.57511100e-01 1.31905153e-01 7.41849542e-02
      1.36378706e-01 8.67341980e-02 1.46371588e-01 6.64554834e-02
      6.59439117e-02 8.94458815e-02 0. 1.33399919e-01 1.63219407e-01
      1.01211213e-01 1.50081903e-01 1.50940135e-01 2.77441502e-01
      1.68608218e-01 6.80562705e-02 5.72648682e-02 4.85422015e-02 0.
      1.17795117e-01 3.58818695e-02 1.86993793e-01 1.36207089e-01
      8.70230049e-02 1.91762939e-01 1.63746744e-01 1.47920281e-01
      1.70894325e-01 1.00444868e-01 6.70141354e-02 2.46147607e-02
      5.49887381e-02 0. 0. 0. 1.63083583e-01 8.52140859e-02
      2.88268596e-01 1.37070954e-01 1.39210358e-01 1.08268686e-01 0. 0.
      6.50783256e-02 0. 7.29969442e-02 0. 0. 0. 0. 0. 2.40488350e-01
      1.43939912e-01 2.08396405e-01 1.38318807e-01 7.10782483e-02
      7.86739662e-02 9.02329013e-02 8.54344070e-02 1.37025699e-01
      1.29122436e-01</_>
    <_>
      1.89468831e-01 1.39817253e-01 1.53058633e-01 1.99303746e-01
      1.57967508e-01 1.48429751e-01 7.19239041e-02 0. 1.37489110e-01
      4.62833680e-02 9.42368731e-02 1.65962860e-01 1.86119974e-01
      9.50495005e-02 1.16408475e-01 1.36027485e-01 2.73474038e-01
      1.90162227e-01 1.10621318e-01 7.02275857e-02 1.83262229e-01 0.
      1.19720489e-01 8.77351612e-02 2.50122935e-01 8.73210579e-02
      6.72656298e-02 0. 1.02995805e-01 8.93577635e-02 1.77073881e-01
      1.34520099e-01 7.83667937e-02 0. 0. 0. 2.20265567e-01
      1.56183124e-01 1.28105864e-01 7.91555867e-02 1.60342574e-01
      8.89173821e-02 9.46830288e-02 9.72920954e-02 1.36803880e-01
      4.70101759e-02 0. 6.91353232e-02 1.11194521e-01 4.46993448e-02 0.
      7.09415302e-02 0. 9.57414731e-02 1.59919202e-01 8.25839117e-02
      2.51392752e-01 9.54859182e-02 1.35145247e-01 8.03096965e-02
      6.93214461e-02 0. 1.34523675e-01 9.58641246e-02</_>
    <_>
      1.67441219e-01 9.92037356e-02 1.47864074e-01 1.80493459e-01
      2.37049744e-01 5.23216389e-02 1.25009939e-01 4.87325303e-02 0.
      3.47225033e-02 6.28956854e-02 7.37284943e-02 2.90416837e-01
      8.94519538e-02 7.15822726e-02 0. 2.37684891e-01 1.47894457e-01 0.
      1.45506993e-01 8.45080838e-02 6.52193874e-02 1.07119597e-01
      1.31408215e-01 1.55438676e-01 8.63064677e-02 4.21807617e-02
      9.44464952e-02 1.24718331e-01 6.50241375e-02 1.91970631e-01
      2.08463892e-01 8.37801993e-02 5.06163090e-02 0. 7.50352964e-02
      2.01800525e-01 6.51845187e-02 1.06974997e-01 7.35282004e-02
      1.65645897e-01 9.46702063e-02 8.30218717e-02 1.39278784e-01
      2.05023929e-01 5.22255301e-02 0. 0. 1.39904484e-01 5.81472255e-02
      1.22781210e-01 0. 0. 0. 1.57399386e-01 2.74092227e-01
      2.02867299e-01 1.40255406e-01 8.37651268e-02 1.08444698e-01
      3.51590812e-02 1.18720733e-01 1.05163924e-01 1.10410847e-01</_>
    <_>
      1.49601817e-01 2.13746503e-02 1.77320927e-01 1.88566461e-01
      1.81527168e-01 0. 9.55903437e-03 9.04083550e-02 0. 0.
      9.29884762e-02 8.09574351e-02 2.36786872e-01 1.20444834e-01
      1.91180687e-02 1.96279243e-01 1.98155463e-01 2.13481501e-01 0.
      6.32309392e-02 9.00489017e-02 5.08697666e-02 9.44483876e-02 0.
      1.09597087e-01 0. 4.76803519e-02 8.32077265e-02 0. 1.42671287e-01
      1.28698185e-01 1.44569531e-01 9.00488943e-02 0. 0. 0.
      2.77012438e-01 1.61659464e-01 1.61610812e-01 1.80408821e-01
      1.43564716e-01 1.05387464e-01 0. 1.49190769e-01 2.35778794e-01
      1.32951081e-01 9.55903437e-03 6.41953275e-02 0. 9.34759229e-02
      9.59708020e-02 7.96856508e-02 1.64721668e-01 1.30373150e-01
      9.17552933e-02 1.88489124e-01 2.25527734e-01 1.21054903e-01
      1.63347647e-01 1.21456884e-01 1.19934268e-01 4.64856140e-02
      9.22463089e-02 1.06373556e-01</_>
    <_>
      1.65861040e-01 1.30259633e-01 1.15697525e-01 1.63994670e-01
      2.58568257e-01 8.88839290e-02 0. 8.72221664e-02 0. 0.
      8.79947916e-02 7.85106197e-02 3.00054520e-01 1.04633369e-01
      1.50661409e-01 2.47572467e-01 2.02561155e-01 1.77407101e-01 0.
      7.55536407e-02 5.77085987e-02 0. 1.10143043e-01 1.62180215e-01
      1.82198852e-01 1.24961726e-01 8.76363739e-02 0. 0. 1.01755179e-01
      2.01112643e-01 2.42791533e-01 0. 0. 0. 0. 1.41782239e-01 0.
      1.00890845e-01 2.84336507e-01 1.40060291e-01 9.66971368e-02 0.
      1.39507607e-01 1.23262420e-01 0. 0. 0. 5.44448942e-02
      7.43069202e-02 0. 0. 0. 1.49164364e-01 1.16308026e-01
      1.90125793e-01 1.86282814e-01 1.21061228e-01 9.18788090e-02
      1.09090388e-01 0. 0. 9.46965814e-02 1.18114308e-01</_>
    <_>
      2.51886874e-01 1.09656021e-01 1.10570185e-01 1.57200053e-01
      1.82796642e-01 0. 7.61536509e-02 6.38990849e-02 1.20887972e-01
      7.61536509e-02 3.80796604e-02 1.23476326e-01 1.49499431e-01
      7.83254728e-02 1.20900303e-01 0. 2.36092851e-01 1.36997879e-01
      1.15706205e-01 0. 1.10174313e-01 0. 7.49356002e-02 3.96049768e-02
      1.90018877e-01 7.46900663e-02 6.99170083e-02 7.35913739e-02
      1.01975083e-01 1.39360994e-01 1.65512815e-01 9.62951630e-02
      1.23827368e-01 0. 7.65697658e-02 0. 2.63220310e-01 1.46920219e-01
      1.46075234e-01 7.56141767e-02 2.07827494e-01 8.26975778e-02
      8.92074704e-02 9.23312902e-02 2.33922631e-01 7.87084252e-02 0.
      6.68760911e-02 1.16865151e-01 7.83535913e-02 9.67769399e-02 0.
      9.94899347e-02 7.86511600e-02 1.95028812e-01 1.36983857e-01
      2.34953836e-01 1.76090106e-01 8.95743966e-02 6.32526800e-02
      1.40411794e-01 1.20001726e-01 1.47807807e-01 1.05434619e-01</_>
    <_>
      2.46282205e-01 1.21711023e-01 0. 9.10002142e-02 2.60933042e-01
      7.65217543e-02 1.30252674e-01 6.43468648e-02 8.22144374e-02
      8.60626921e-02 0. 6.43468648e-02 2.96544671e-01 0. 8.60626921e-02
      6.43468648e-02 3.01632881e-01 1.51067331e-01 0. 0. 1.20893739e-01
      0. 8.60626921e-02 6.43468648e-02 2.51542479e-01 1.44808978e-01 0.
      6.43468648e-02 1.27031967e-01 7.65217543e-02 1.56117082e-01
      1.28693730e-01 1.20893739e-01 7.45324716e-02 0. 6.43468648e-02
      1.74147815e-01 1.08218096e-01 1.50069475e-01 6.43468648e-02
      2.23058715e-01 1.13850236e-01 7.65217543e-02 0. 1.36951879e-01
      1.08218096e-01 9.62210074e-02 6.43468648e-02 1.67731106e-01
      4.30313423e-02 0. 9.10002142e-02 0. 0. 1.63784057e-01
      9.10002142e-02 2.41787478e-01 1.67558759e-01 7.65217543e-02
      6.43468648e-02 9.68395993e-02 0. 1.38267651e-01 9.10002142e-02</_>
    <_>
      1.01889350e-01 1.58372581e-01 1.65219545e-01 1.59260750e-01
      1.40387520e-01 0. 0. 0. 1.43563086e-02 1.20721683e-02 0. 0.
      1.41604722e-01 1.35608494e-01 1.30235627e-01 1.22444972e-01
      1.82046756e-01 1.93747014e-01 1.09253541e-01 6.57554120e-02 0. 0.
      3.70863229e-02 0. 4.17013094e-02 2.06906553e-02 0. 0.
      1.52869582e-01 8.20032358e-02 9.71415862e-02 1.76420093e-01
      1.15074567e-01 7.81944543e-02 9.42337513e-02 1.30889669e-01
      2.48150423e-01 2.10272670e-01 1.48304492e-01 1.34083107e-01
      1.45887971e-01 1.45036682e-01 4.97264825e-02 1.02245614e-01
      2.65098095e-01 4.23230790e-02 4.66578007e-02 7.20672384e-02
      1.12456523e-01 1.27411917e-01 1.00888707e-01 1.63776532e-01
      1.90883532e-01 1.75724074e-01 4.50689793e-02 1.73819825e-01
      1.80954978e-01 1.88052624e-01 1.29745573e-01 1.49259433e-01
      1.02353528e-01 1.39101401e-01 1.39553383e-01 1.11808449e-01</_>
    <_>
      2.53046572e-01 1.11423679e-01 8.71289372e-02 1.58410147e-01
      3.29007536e-01 8.41650367e-02 0. 0. 1.21409751e-01 5.10393418e-02
      8.12515393e-02 1.57945126e-01 2.20575154e-01 8.62719342e-02
      1.15095429e-01 1.07390150e-01 3.34713489e-01 7.94617981e-02
      8.79721045e-02 8.55136067e-02 0. 0. 1.35795638e-01 7.68107995e-02
      2.74327785e-01 1.40452519e-01 9.92252082e-02 0. 1.21602364e-01 0.
      1.46349654e-01 1.08315259e-01 1.21400163e-01 7.73774534e-02 0.
      2.02145912e-02 1.18370004e-01 1.05159894e-01 1.07104659e-01
      1.15695879e-01 2.35855088e-01 9.09633860e-02 1.37312993e-01 0.
      3.25950496e-02 0. 7.73774534e-02 0. 1.93105027e-01 6.57425299e-02
      4.74389754e-02 0. 5.97992279e-02 0. 1.67056397e-01 1.50603756e-01
      2.04322204e-01 8.61557201e-02 5.18457592e-02 0. 0. 7.99562782e-02
      1.15704611e-01 6.87642395e-02</_>
    <_>
      2.65694201e-01 1.24350257e-01 1.66053817e-01 1.26556069e-01
      1.74915314e-01 0. 8.81559700e-02 7.12785572e-02 6.47501722e-02
      1.14888817e-01 1.25169352e-01 7.28385895e-02 1.57337576e-01
      9.08405855e-02 1.27287596e-01 0. 1.96753263e-01 9.34658051e-02
      6.85058981e-02 6.65522516e-02 1.28689975e-01 0. 0. 0.
      5.79677857e-02 0. 0. 9.47381109e-02 9.24560353e-02 1.32182285e-01
      2.10572377e-01 1.73866034e-01 1.39171332e-01 8.33293870e-02
      8.96600261e-02 1.07837692e-01 2.15433404e-01 1.64643213e-01
      1.52271137e-01 9.23044309e-02 2.84292787e-01 5.40786162e-02
      1.36775121e-01 1.50318086e-01 1.60442740e-01 1.05070628e-01
      7.95011669e-02 3.44895124e-02 9.12818760e-02 0. 5.22937067e-02
      9.35859308e-02 8.78608376e-02 6.95268959e-02 8.94883722e-02
      1.33092269e-01 2.21291348e-01 2.56854653e-01 1.71574682e-01
      1.07617445e-01 3.94846983e-02 6.64618313e-02 8.30419287e-02
      7.60970265e-02</_>
    <_>
      1.28304943e-01 9.58947092e-02 1.69331789e-01 1.51340559e-01
      2.23467648e-01 9.30607840e-02 0. 9.14286003e-02 1.56453010e-02 0.
      9.12396684e-02 1.14402913e-01 2.27652967e-01 9.64641497e-02
      9.34737548e-02 1.87280983e-01 2.15832099e-01 1.66080922e-01
      5.59623688e-02 0. 1.42630681e-01 0. 0. 1.41460955e-01
      8.25075284e-02 7.72044510e-02 0. 7.92042464e-02 8.26293081e-02
      9.40787569e-02 1.85410574e-01 2.25171953e-01 0. 0. 9.09692124e-02
      8.98786187e-02 2.49283433e-01 1.18603595e-01 1.23664223e-01
      1.84474796e-01 1.45605072e-01 7.95358643e-02 9.64641497e-02
      8.60711932e-02 2.15172276e-01 8.47760811e-02 0. 9.14286003e-02
      6.45072311e-02 0. 0. 1.20862186e-01 8.75502974e-02 9.12396684e-02
      1.41743660e-01 2.46900499e-01 2.11602449e-01 1.43809006e-01
      9.43242386e-02 1.06532812e-01 1.14081942e-01 1.02984831e-01
      9.26161408e-02 1.00359626e-01</_>
    <_>
      2.22040758e-01 7.95362070e-02 1.43777341e-01 1.33395538e-01
      1.18803509e-01 1.02433935e-01 1.13670617e-01 1.10980667e-01 0.
      7.69359246e-02 9.55761522e-02 7.75483400e-02 2.04824880e-01
      1.47678420e-01 7.46739209e-02 1.94895208e-01 2.25059092e-01
      1.53650373e-01 0. 1.14717700e-01 7.11466745e-02 8.96937624e-02 0.
      9.51583833e-02 1.52156755e-01 1.09406598e-01 9.09197256e-02 0.
      7.46645555e-02 1.43067867e-01 1.28897190e-01 2.34438643e-01
      2.93606110e-02 1.50654987e-01 0. 3.99870910e-02 1.62350327e-01
      1.40542001e-01 1.51408151e-01 2.00620502e-01 1.67688921e-01
      1.10830098e-01 1.19337507e-01 7.35897422e-02 1.45503983e-01
      1.34752467e-01 1.76948402e-02 1.02816239e-01 8.30958709e-02
      4.75420207e-02 7.45899230e-02 0. 0. 9.42761973e-02 1.69494420e-01
      2.10432217e-01 2.39491180e-01 1.17960379e-01 9.86889303e-02
      1.15110233e-01 8.87562558e-02 5.72160669e-02 1.05174661e-01
      1.38803855e-01</_>
    <_>
      1.73805892e-01 1.46958455e-01 1.02868758e-01 1.23622380e-01
      1.63932085e-01 1.09456368e-01 4.78730015e-02 9.54339057e-02
      5.71179427e-02 6.37094826e-02 5.28576970e-02 1.19259283e-01
      1.51331499e-01 0. 1.33268058e-01 1.86257198e-01 1.47775173e-01
      1.24169536e-01 7.15017468e-02 4.55121882e-02 0. 7.00155944e-02
      9.47386324e-02 1.72078088e-01 1.42442912e-01 9.42393914e-02
      7.53207207e-02 7.68327042e-02 1.22841872e-01 1.46516874e-01
      8.11751187e-02 2.27468848e-01 5.86227737e-02 8.49045441e-02 0.
      1.22732259e-01 2.92232513e-01 1.32160619e-01 8.16848353e-02
      2.05625355e-01 1.66158989e-01 5.23815788e-02 6.74491301e-02
      1.19498424e-01 2.14901626e-01 6.13675229e-02 8.47875401e-02
      5.78756519e-02 0. 0. 7.76752010e-02 0. 7.42956921e-02
      1.25265554e-01 1.20999284e-01 1.89004034e-01 1.52791485e-01
      1.76811934e-01 1.36892870e-01 9.90330577e-02 1.24955855e-01
      1.15500309e-01 1.70168206e-01 2.07238615e-01</_>
    <_>
      2.25803778e-01 8.10494926e-03 1.51060164e-01 1.60266191e-01
      1.72080994e-01 0. 7.92567134e-02 1.28379345e-01 6.84254915e-02 0.
      9.15251225e-02 6.86424896e-02 1.72080994e-01 1.13412358e-01
      4.85451967e-02 1.52884662e-01 2.46940479e-01 1.89352810e-01
      6.26541227e-02 8.69290084e-02 9.42526460e-02 7.80240148e-02 0.
      8.60019997e-02 1.83012202e-01 9.24985632e-02 7.80240148e-02 0.
      1.40777677e-01 1.39495924e-01 1.20796464e-01 1.17146797e-01 0.
      7.92567134e-02 0. 0. 2.72665590e-01 9.15695727e-02 1.44704700e-01
      1.43977910e-01 1.72057137e-01 1.02020353e-01 4.64818738e-02
      1.23100094e-01 2.27752045e-01 7.84257427e-02 8.10494926e-03
      7.66557753e-02 1.80905819e-01 7.88434073e-02 0. 6.84254915e-02
      1.08833581e-01 1.19763352e-01 1.22808650e-01 1.90583348e-01
      2.56964743e-01 1.11792490e-01 1.10631801e-01 6.84254915e-02
      1.28988221e-01 4.36044633e-02 1.39496163e-01 9.50859487e-02</_>
    <_>
      2.55575299e-01 1.26303613e-01 0. 9.44339707e-02 2.09617659e-01 0.
      8.93101394e-02 6.67749047e-02 1.25455484e-01 1.27578199e-01
      7.94091895e-02 0. 2.22664908e-01 0. 8.93101394e-02 6.67749047e-02
      3.15621525e-01 1.69964209e-01 0. 0. 1.00493699e-01 0.
      8.93101394e-02 0. 1.46216199e-01 1.43484980e-01 0. 0.
      1.00493699e-01 0. 1.41211733e-01 1.33549809e-01 1.25455484e-01
      8.93101394e-02 0. 6.67749047e-02 2.19996482e-01 0. 1.80422813e-01
      1.33549809e-01 1.95702493e-01 8.93101394e-02 0. 6.67749047e-02
      2.12416500e-01 7.94091895e-02 1.27578199e-01 6.67749047e-02
      1.25455484e-01 8.93101394e-02 0. 6.67749047e-02 7.51005709e-02
      7.94091895e-02 1.75732493e-01 9.44339707e-02 3.18207145e-01
      1.73881337e-01 7.94091895e-02 6.67749047e-02 7.51005784e-02 0.
      1.85866803e-01 6.67749047e-02</_>
    <_>
      2.02169880e-01 1.21163979e-01 1.18329510e-01 1.94797143e-01
      2.47964546e-01 8.56811330e-02 0. 0. 1.33125186e-01 7.54904598e-02
      3.69391479e-02 1.19942367e-01 3.03916544e-01 6.21149763e-02
      3.80733125e-02 6.15875497e-02 3.01375657e-01 1.37978092e-01
      6.98151812e-02 0. 1.88772991e-01 6.98482171e-02 8.58605132e-02
      6.38388023e-02 2.40848780e-01 1.13566808e-01 6.14104345e-02 0.
      9.51388031e-02 7.38833249e-02 9.43085626e-02 1.21036701e-01
      1.01715408e-01 0. 0. 0. 2.65480131e-01 9.87945423e-02
      6.70767426e-02 8.73932093e-02 1.79360330e-01 6.06091022e-02
      8.88215005e-02 9.99541506e-02 1.89023018e-01 8.62335861e-02 0.
      6.46551251e-02 1.79277375e-01 5.35477623e-02 8.51849988e-02
      7.52250552e-02 0. 0. 1.60574704e-01 1.05629526e-01 2.74288744e-01
      4.71890792e-02 7.08778128e-02 6.38909489e-02 6.24627508e-02
      7.10707530e-02 1.22190729e-01 6.70335516e-02</_>
    <_>
      2.99415261e-01 8.23880881e-02 8.57891366e-02 1.30219460e-01
      2.31973484e-01 9.34257209e-02 1.00163616e-01 4.99286503e-02
      8.41998756e-02 0. 3.99243534e-02 1.47061124e-01 2.21642300e-01
      8.20134208e-02 8.55473503e-02 0. 3.08263302e-01 1.27103135e-01 0.
      6.88785315e-02 0. 7.77122006e-02 7.95262456e-02 0. 2.43455037e-01
      1.24303803e-01 1.11626096e-01 1.01841792e-01 1.24596678e-01
      6.86098710e-02 1.48172751e-01 1.55485615e-01 6.94708824e-02 0. 0.
      9.89803001e-02 1.86797500e-01 1.40349403e-01 1.20776162e-01
      1.14488289e-01 2.12575048e-01 1.05873853e-01 5.10925464e-02
      1.42934293e-01 1.52729020e-01 1.24890730e-01 0. 0. 1.63281932e-01
      6.01649806e-02 0. 0. 0. 0. 2.03202292e-01 1.44979730e-01
      1.73932314e-01 1.51879475e-01 1.40037388e-01 7.03090653e-02
      7.82895684e-02 8.07369426e-02 1.22158296e-01 7.20251575e-02</_>
    <_>
      2.71565169e-01 1.57533899e-01 1.21148661e-01 1.58430323e-01
      1.98027775e-01 1.21076979e-01 1.00622483e-01 5.34323305e-02
      1.29657492e-01 4.45687696e-02 1.20400049e-01 1.26709431e-01
      2.12643802e-01 1.11953214e-01 8.87778774e-02 0. 3.61336410e-01
      1.22574076e-01 0. 6.77165389e-02 1.27224624e-01 0. 4.52847779e-02
      9.36647877e-02 2.80491382e-01 9.07430425e-02 6.31143898e-02 0.
      7.55838975e-02 0. 1.29380077e-01 1.13964573e-01 1.14872493e-01
      8.02097470e-03 9.19801667e-02 0. 1.20058574e-01 1.64339796e-01
      1.38439491e-01 9.84424874e-02 2.12631077e-01 4.81507629e-02
      9.05918404e-02 9.53144059e-02 1.31912336e-01 4.60002795e-02 0.
      6.77165389e-02 9.22955126e-02 4.59896438e-02 4.46735956e-02 0.
      7.58818537e-02 0. 2.19115660e-01 1.16056249e-01 1.95245892e-01
      1.72311917e-01 4.39511761e-02 5.44316061e-02 9.30494443e-02
      4.31139991e-02 1.37503177e-01 1.15685433e-01</_>
    <_>
      2.38590330e-01 1.74751014e-01 0. 1.10800400e-01 1.99021444e-01
      5.29443398e-02 1.00269273e-01 1.06121778e-01 1.32231042e-01
      8.88919458e-02 8.78921896e-02 1.11809328e-01 1.23739704e-01 0.
      1.46629408e-01 7.43546188e-02 3.23642641e-01 1.51168510e-01
      1.02235042e-01 8.29869509e-02 0. 5.07205017e-02 1.78974830e-02
      7.63445795e-02 1.17160432e-01 2.19198503e-02 5.06342724e-02 0.
      1.37395844e-01 8.54476243e-02 1.74353197e-01 7.78832585e-02
      9.69412923e-02 4.80864756e-02 5.21290042e-02 1.55043408e-01
      2.37478077e-01 1.01239227e-01 1.78974830e-02 1.15296237e-01
      2.68671989e-01 2.19198503e-02 5.54152615e-02 7.70592093e-02
      1.20164052e-01 8.62145796e-02 1.04120217e-01 1.07385807e-01
      1.53973922e-01 0. 0. 0. 1.13375440e-01 5.13210185e-02
      1.67623550e-01 1.27529353e-01 3.33647788e-01 1.35110259e-01
      1.13383166e-01 1.12837568e-01 1.34632617e-01 9.70139056e-02 0.
      6.78550303e-02</_>
    <_>
      1.73644036e-01 1.30546808e-01 1.31229371e-01 2.11639047e-01
      2.16338769e-01 4.94264625e-02 3.66754681e-02 0. 1.22490667e-01
      8.22543651e-02 0. 7.76199996e-02 2.80003339e-01 6.12513274e-02
      8.33662450e-02 5.37334383e-02 2.89606154e-01 1.94668174e-01
      9.28831995e-02 4.79278751e-02 1.84989259e-01 0. 9.21681672e-02
      1.35345265e-01 1.34058237e-01 7.55391121e-02 0. 7.84193799e-02
      1.00519858e-01 8.84397775e-02 1.10600844e-01 8.97721648e-02 0.
      4.34339717e-02 0. 6.67992309e-02 2.42124736e-01 1.76399246e-01
      1.12670131e-01 5.27990609e-02 1.21138789e-01 1.02773346e-01
      1.03936471e-01 7.23705888e-02 2.20935091e-01 1.14596687e-01
      9.14926380e-02 0. 1.18996799e-01 0. 1.07251793e-01 8.43490735e-02
      1.34680048e-01 0. 1.92417949e-01 2.08636448e-01 2.20616624e-01
      1.10247754e-01 7.73731396e-02 1.05087169e-01 4.58641574e-02
      6.25986159e-02 8.85655880e-02 1.10853262e-01</_>
    <_>
      1.30195394e-01 1.76373884e-01 1.90403044e-01 1.48554310e-01
      1.58158302e-01 8.14332739e-02 1.44233098e-02 7.05290660e-02
      7.32539073e-02 9.59546790e-02 1.34009153e-01 7.00880662e-02
      1.86380789e-01 9.41474810e-02 1.07042551e-01 1.51641816e-01
      1.58808649e-01 1.62895635e-01 9.25557315e-02 1.05727755e-01
      1.17669769e-01 0. 4.70142402e-02 9.42849666e-02 6.57648593e-02 0.
      7.89944902e-02 8.86240155e-02 1.91322818e-01 1.23615064e-01
      1.43279836e-01 2.19340831e-01 6.96385801e-02 8.10064152e-02 0.
      7.87587538e-02 2.16657564e-01 1.52404994e-01 1.62002355e-01
      2.15044320e-01 1.02151237e-01 9.25599635e-02 4.85089384e-02
      1.25286669e-01 1.53638795e-01 9.43717062e-02 1.33460671e-01
      6.85162544e-02 7.32746720e-02 4.70142402e-02 0. 7.03026876e-02
      9.60779637e-02 1.16144963e-01 1.37811899e-01 2.14182600e-01
      2.53463358e-01 1.15463145e-01 9.41474810e-02 1.39600664e-01
      1.03782199e-01 9.24886391e-02 1.13560520e-01 1.23712152e-01</_>
    <_>
      1.40749037e-01 1.08792990e-01 1.23219036e-01 1.37984157e-01
      1.36212096e-01 8.73237401e-02 7.78102949e-02 0. 7.85944834e-02
      1.04299575e-01 8.86223912e-02 0. 1.50234178e-01 1.11383803e-01
      9.58071426e-02 2.52179235e-01 2.16692537e-01 1.70010924e-01
      7.83397630e-02 8.76280367e-02 5.98677546e-02 9.82837677e-02
      1.03616379e-01 9.95242223e-02 1.12184703e-01 0. 0. 6.92995489e-02
      1.65077612e-01 1.75812289e-01 1.51413321e-01 1.34639129e-01 0. 0.
      1.00859225e-01 1.59589767e-01 1.89276978e-01 1.58122629e-01
      1.43573627e-01 2.00469464e-01 1.44248322e-01 1.40826896e-01
      4.66753878e-02 1.21361375e-01 1.48942798e-01 1.18417919e-01
      1.02131538e-01 0. 1.05178788e-01 6.96602017e-02 9.94834974e-02 0.
      0. 1.02428608e-01 1.91704497e-01 1.60625592e-01 1.89157903e-01
      2.03795329e-01 1.55370712e-01 1.31391540e-01 5.59031889e-02
      9.09031555e-02 1.66220367e-01 1.05022550e-01</_>
    <_>
      2.09441662e-01 1.32368311e-01 0. 9.89683941e-02 2.97533810e-01 0.
      8.10587034e-02 0. 9.63955894e-02 8.10587034e-02 0. 6.99812248e-02
      3.22510779e-01 0. 1.04646340e-01 9.89683941e-02 3.51571739e-01
      1.58613145e-01 0. 0. 1.63030550e-01 0. 1.26657143e-01
      1.21211037e-01 2.66907305e-01 8.10587034e-02 0. 9.89683941e-02
      1.31479472e-01 0. 1.23819217e-01 6.99812248e-02 7.87066668e-02
      8.10587034e-02 0. 0. 1.72268197e-01 8.32221732e-02 1.40397802e-01
      6.99812248e-02 2.09441662e-01 6.61841556e-02 0. 9.89683941e-02
      1.89396605e-01 0. 8.10587034e-02 0. 1.82418019e-01 6.61841556e-02
      0. 6.99812248e-02 5.56540191e-02 0. 1.58613145e-01 1.21211037e-01
      2.47290641e-01 1.04646340e-01 0. 0. 1.05319098e-01 0.
      1.17693923e-01 0.</_>
    <_>
      1.59076393e-01 1.86830670e-01 1.74313843e-01 1.39828727e-01
      2.87380040e-01 1.13477111e-01 0. 0. 9.83325094e-02 1.27862887e-02
      8.84997472e-02 1.40866056e-01 3.28193009e-01 8.75058025e-02
      1.08860552e-01 1.23865597e-01 2.64572948e-01 1.35470867e-01
      1.83100939e-01 1.32776856e-01 1.57942742e-01 1.25236601e-01
      7.73862898e-02 2.90105511e-02 1.72912627e-01 1.17322676e-01
      1.27123550e-01 1.07412748e-01 7.26713389e-02 1.28130972e-01
      1.87376946e-01 1.50367007e-01 0. 0. 0. 0. 1.41586363e-01
      1.47817135e-01 1.40808314e-01 8.21149051e-02 1.51558772e-01
      1.18512869e-01 5.76586463e-02 1.11272551e-01 8.58474001e-02 0. 0.
      0. 7.11174309e-02 0. 0. 0. 1.38764814e-01 0. 1.32358998e-01
      9.84820202e-02 2.67871499e-01 1.01288594e-01 0. 8.43917578e-02 0.
      0. 8.57026652e-02 0.</_>
    <_>
      1.71392307e-01 1.08558416e-01 1.39181033e-01 1.33496284e-01
      1.34740397e-01 8.36771056e-02 9.41361785e-02 1.33101076e-01 0.
      7.32231811e-02 8.12403932e-02 0. 1.76416427e-01 8.16010684e-02
      9.52226147e-02 1.80047244e-01 1.72808334e-01 1.99595779e-01
      4.68279198e-02 5.99001534e-02 0. 9.71574038e-02 0. 8.17795768e-02
      7.38019198e-02 1.22205466e-01 1.02773048e-01 7.22452849e-02 0.
      1.71757162e-01 8.55488330e-03 1.69404790e-01 7.85571635e-02
      2.09550988e-02 1.38549685e-01 1.37619555e-01 2.03594878e-01
      1.61563694e-01 1.01790756e-01 2.18757063e-01 1.38373643e-01
      1.07625932e-01 6.29504323e-02 1.10463522e-01 2.30412856e-01 0.
      1.49761930e-01 6.01906702e-02 1.40613779e-01 8.41777548e-02
      9.51851383e-02 7.96664953e-02 7.15527460e-02 1.18554607e-01
      1.08270124e-01 2.38626584e-01 2.42440775e-01 1.59716889e-01
      6.57077879e-02 1.08001955e-01 1.00364454e-01 7.53853545e-02
      9.57288817e-02 2.01977193e-01</_>
    <_>
      1.55954525e-01 1.19104110e-01 1.31544650e-01 9.47934687e-02
      1.78606823e-01 7.56053999e-02 0. 1.15812518e-01 6.63719401e-02 0.
      7.52209648e-02 6.99788779e-02 2.03522801e-01 9.99574587e-02
      1.35671094e-01 1.48776114e-01 2.23471910e-01 2.03485742e-01 0. 0.
      0. 6.03878275e-02 5.91237880e-02 1.52774155e-01 8.70494023e-02
      7.79805332e-02 9.49179977e-02 7.48061538e-02 9.28122923e-02
      1.16669685e-01 1.16386354e-01 1.41331509e-01 8.07124898e-02 0. 0.
      1.49358451e-01 2.40031362e-01 1.20664977e-01 1.15149714e-01
      1.99054360e-01 1.37437642e-01 1.15405463e-01 4.69241366e-02
      1.55010998e-01 2.27079034e-01 3.92023623e-02 1.09090291e-01
      9.20825750e-02 1.33346990e-01 5.02951592e-02 0. 6.88343868e-02
      4.76800688e-02 8.82106647e-02 1.39851838e-01 2.48642206e-01
      2.08500028e-01 1.59386456e-01 1.24081954e-01 1.21964984e-01
      8.86179879e-02 3.66472863e-02 1.39159411e-01 2.03534514e-01</_>
    <_>
      1.19954847e-01 1.07743390e-01 1.43458441e-01 1.35918871e-01
      2.08098128e-01 9.78657380e-02 8.83667469e-02 3.11124232e-02
      3.21626253e-02 7.41374940e-02 8.16042498e-02 0. 2.55736649e-01
      5.89812435e-02 1.26093224e-01 2.23603263e-01 1.81913152e-01
      1.24876685e-01 0. 0. 5.79924360e-02 7.15567246e-02 2.00244989e-02
      0. 8.58238786e-02 1.13048449e-01 8.76322240e-02 1.31691024e-01
      9.61714834e-02 9.96876359e-02 1.34634584e-01 2.39171684e-01 0.
      1.02866843e-01 6.83777556e-02 1.50694177e-01 2.55229503e-01
      6.12112731e-02 1.20935045e-01 2.10097760e-01 1.40257776e-01
      1.29559711e-01 6.34960532e-02 1.55705675e-01 2.58735955e-01 0.
      9.82736200e-02 0. 3.75664756e-02 0. 8.21559504e-02 0. 0.
      8.13608542e-02 1.57819822e-01 2.37369373e-01 1.38620123e-01
