<?xml version="1.0"?>
<opencv_storage>
<opencv_ml_svm>
  <format>3</format>
  <svmType>C_SVC</svmType>
  <kernel>
    <type>RBF</type>
    <gamma>5.0000000000000000e-01</gamma></kernel>
  <C>4.</C>
  <term_criteria><epsilon>1.1920928955078125e-07</epsilon>
    <iterations>1000</iterations></term_criteria>
  <var_count>64</var_count>
  <class_count>24</class_count>
  <class_labels type_id="opencv-matrix">
    <rows>24</rows>
    <cols>1</cols>
    <dt>i</dt>
    <data>
      65 66 67 68 69 70 71 72 74 75 76 77 78 80 81 82 83 84 85 86 87 88
      89 90</data></class_labels>
  <sv_total>1578</sv_total>
  <support_vectors>
    <_>
      3.30151409e-01 1.90120891e-01 1.26559973e-01 0. 0. 0. 0. 0.
      7.74720833e-02 9.26903412e-02 0. 7.82470182e-02 0. 0. 0. 0.
      3.29169184e-01 1.34117588e-01 7.45939687e-02 0. 0. 1.03809752e-01
      0. 1.03660084e-01 2.93471932e-01 1.42316341e-01 9.05079618e-02 0.
      1.11822538e-01 0. 6.52645677e-02 1.41408637e-01 4.36567999e-02
      2.50782818e-02 0. 6.90491125e-02 0. 0. 2.06995219e-01
      1.64384991e-01 3.05162251e-01 0. 0. 0. 7.97789916e-02
      1.06624447e-01 0. 8.00232813e-02 2.33562380e-01 5.09342290e-02
      1.58306405e-01 0. 0. 0. 1.87488690e-01 1.36124521e-01
      3.06896925e-01 9.41137671e-02 0. 0. 1.19784132e-01 1.56546578e-01
      1.77182809e-01 9.87379923e-02</_>
    <_>
      2.13802353e-01 2.20111459e-01 4.85605448e-02 0. 0. 0. 0. 0.
      7.67599568e-02 1.04783610e-01 1.01252504e-01 0. 0. 0. 0.
      2.42709249e-01 1.58682704e-01 1.71593890e-01 8.46670270e-02
      6.95910826e-02 7.33570382e-02 0. 9.91912708e-02 2.75687903e-01
      1.17444821e-01 9.27964598e-02 8.96899328e-02 1.39376730e-01
      3.88866030e-02 0. 9.03425645e-03 2.94318914e-01 0. 0. 0. 0. 0. 0.
      2.43913054e-01 2.87917793e-01 1.21312343e-01 0. 0. 0.
      1.21134460e-01 9.84189808e-02 1.03029393e-01 7.38395229e-02
      1.45702854e-01 1.06794298e-01 1.12726174e-01 1.21268943e-01 0.
      1.44845083e-01 1.47377938e-01 3.02914530e-01 1.42454952e-01 0. 0.
      0. 1.88487709e-01 1.02762677e-01 8.01864713e-02 2.38006517e-01</_>
    <_>
      3.16740990e-01 2.43134081e-01 0. 0. 0. 0. 0. 8.31406862e-02
      9.51591432e-02 9.78584439e-02 1.03459507e-01 0. 0. 0. 0.
      8.53596777e-02 3.06847632e-01 1.50527164e-01 6.34831116e-02 0.
      8.47698972e-02 1.12794064e-01 0. 8.55504647e-02 2.16926277e-01
      1.06245458e-01 9.64487493e-02 1.18766509e-01 1.58583403e-01
      1.10289663e-01 9.24746096e-02 7.11349323e-02 1.42190203e-01
      6.38927445e-02 7.26323128e-02 0. 0. 0. 1.76996797e-01
      1.30779028e-01 3.27456743e-01 8.07937384e-02 5.75259924e-02
      6.62427992e-02 8.41249526e-02 0. 8.04373398e-02 0. 2.27416098e-01
      1.29078686e-01 1.50318205e-01 8.36588368e-02 0. 0. 1.09221637e-01
      1.13364235e-01 3.52992505e-01 1.17031723e-01 0. 0. 1.04272328e-01
      1.34047925e-01 1.15650550e-01 0.</_>
    <_>
      1.92977563e-01 1.74074635e-01 0. 0. 6.87648058e-02 0.
      2.19483506e-02 1.05899140e-01 7.77891204e-02 0. 0. 0.
      9.24951583e-02 0. 0. 3.16166639e-01 1.84958175e-01 1.82306960e-01
      0. 0. 1.54223442e-01 8.85380134e-02 9.54816341e-02 1.58239797e-01
      1.47187650e-01 1.99410707e-01 4.41958494e-02 1.51412785e-01 0. 0.
      9.81560070e-03 3.10165316e-01 9.09803361e-02 0. 0. 0. 0. 0.
      1.83906332e-01 3.47234517e-01 1.06103599e-01 0. 0. 0. 0.
      5.00964411e-02 0. 7.94168934e-02 1.50494680e-01 0. 1.10880256e-01
      8.33986849e-02 0. 5.62924556e-02 1.99704736e-01 2.94221967e-01
      1.93232730e-01 0. 0. 0. 1.56422272e-01 9.37840194e-02
      1.37506902e-01 2.04598218e-01</_>
    <_>
      3.68863851e-01 1.91545859e-01 0. 0. 0. 0. 0. 0. 8.10567364e-02
      1.08411811e-01 0. 8.10567364e-02 0. 0. 0. 0. 3.54026824e-01
      1.56396538e-01 0. 0. 8.10567364e-02 0. 1.08411811e-01
      8.10567364e-02 2.49660447e-01 1.81101903e-01 9.63932499e-02
      8.10567364e-02 0. 0. 9.63932499e-02 8.10567364e-02 0. 0. 0. 0. 0.
      0. 2.21178100e-01 1.62113473e-01 3.15798253e-01 0. 0. 0.
      8.10567364e-02 0. 1.08411811e-01 8.10567364e-02 2.54450738e-01
      1.08411811e-01 0. 8.10567364e-02 0. 0. 1.56396538e-01
      1.14631534e-01 3.38540167e-01 9.38873887e-02 0. 0. 1.52287945e-01
      0. 1.43415347e-01 1.14631534e-01</_>
    <_>
      3.52508456e-01 2.15415835e-01 0. 8.18537995e-02 0. 0. 0. 0.
      8.18537995e-02 5.47389314e-02 0. 0. 0. 0. 0. 0. 3.23805094e-01
      1.93429396e-01 0. 0. 0. 0. 5.47389314e-02 8.18537995e-02
      2.21528426e-01 1.56387493e-01 0. 0. 1.30191863e-01 0.
      1.57934442e-01 1.15758747e-01 6.50959313e-02 5.47389314e-02 0. 0.
      0. 0. 2.23353028e-01 1.63707599e-01 3.18903625e-01 0. 0. 0.
      9.20595452e-02 0. 5.47389314e-02 8.18537995e-02 1.53785452e-01
      1.56387493e-01 0. 0. 1.04582615e-01 0. 1.57934442e-01
      1.41774938e-01 3.77225935e-01 5.47389314e-02 0. 0. 1.15758747e-01
      1.37661129e-01 1.99812517e-01 8.18537995e-02</_>
    <_>
      3.66672873e-01 1.15060873e-01 0. 0. 0. 5.64780645e-02 0. 0. 0.
      5.64641766e-02 0. 0. 9.35818031e-02 0. 5.65888062e-02
      8.44544023e-02 3.59629601e-01 1.84593812e-01 5.47251999e-02 0.
      8.39326605e-02 1.11680046e-01 0. 1.19599603e-01 2.77251661e-01
      8.56016949e-02 1.13180898e-01 8.55378285e-02 1.34295195e-01 0. 0.
      1.22185476e-01 9.38387215e-02 0. 0. 0. 0. 0. 1.52340919e-01
      1.19232632e-01 3.76661211e-01 1.00011025e-02 0. 0. 1.49551369e-02
      0. 9.99357030e-02 8.33751112e-02 2.37720445e-01 9.72888321e-02
      7.42620975e-02 8.28325748e-02 0. 0. 2.14609072e-01 1.45329803e-01
      2.94594049e-01 5.73430471e-02 0. 0. 1.54399291e-01 0.
      1.56591743e-01 0.</_>
    <_>
      4.03636903e-01 9.56414267e-02 0. 0. 0. 0. 1.07182182e-01
      8.48082080e-02 1.29542291e-01 6.17080852e-02 0. 8.94388556e-02 0.
      5.49091399e-02 0. 7.56605417e-02 3.84411961e-01 1.13708399e-01
      6.30673692e-02 8.39442983e-02 1.18794151e-01 7.32209086e-02
      9.72708389e-02 6.29373789e-02 1.93382055e-01 1.77751914e-01
      1.28660694e-01 1.25630215e-01 2.19428822e-01 8.83884877e-02
      1.00572266e-01 2.12985948e-01 0. 0. 0. 0. 0. 0. 1.16792202e-01
      3.04151177e-01 1.91007003e-01 4.58152704e-02 0. 0. 0. 0. 0. 0.
      1.23506606e-01 3.03952470e-02 0. 0. 0. 0. 8.65892842e-02
      3.30767065e-01 2.19850883e-01 6.93456084e-02 0. 0. 0.
      6.56988025e-02 8.42426494e-02 1.10277094e-01</_>
    <_>
      1.99818000e-01 2.30121955e-01 8.84422809e-02 7.26941153e-02 0. 0.
      0. 0. 7.97133371e-02 0. 5.32929748e-02 0. 8.92674923e-02 0.
      1.67817809e-02 2.52987593e-01 2.03122929e-01 2.15686277e-01 0. 0.
      7.66279921e-02 0. 1.03614159e-01 2.28430942e-01 1.64939478e-01
      1.13142565e-01 0. 1.44122496e-01 1.26721606e-01 0. 9.43708885e-03
      2.83212453e-01 4.18034419e-02 0. 4.67891358e-02 0. 0.
      1.02568246e-01 1.77360803e-01 2.86510170e-01 1.66554973e-01
      1.51520088e-01 0. 0. 0. 0. 5.24374470e-02 7.89193809e-02
      1.91814542e-01 1.88741777e-02 1.03994086e-01 7.87828788e-02 0.
      5.41216917e-02 2.10238501e-01 3.26189309e-01 1.26721606e-01 0. 0.
      0. 1.50692418e-01 1.20216750e-01 1.58132702e-01 1.58926338e-01</_>
    <_>
      3.64335269e-01 2.86456913e-01 1.63337305e-01 1.52943105e-01
      1.09861337e-01 1.13784239e-01 1.70631349e-01 1.88280553e-01
      2.15424702e-01 0. 0. 0. 0. 0. 0. 0. 4.50075567e-01 1.62824448e-02
      0. 0. 8.95220861e-02 0. 6.81389198e-02 3.53632458e-02
      7.73013756e-02 6.45358190e-02 0. 7.21164122e-02 0. 6.62609786e-02
      3.45402807e-02 0. 0. 0. 0. 0. 0. 0. 1.76848635e-01 1.45416886e-01
      2.48077214e-01 0. 0. 0. 0. 0. 0. 0. 0. 0. 0. 0. 0. 0.
      2.36424670e-01 2.62724578e-01 3.13956261e-01 1.54996499e-01 0. 0.
      0. 0. 0. 0.</_>
    <_>
      1.57268286e-01 1.85042620e-01 9.56770554e-02 0. 9.56021175e-02 0.
      0. 0. 0. 0. 0. 0. 0. 0. 0. 3.31256121e-01 1.76141337e-01
      1.63267031e-01 0. 0. 8.25768784e-02 0. 1.11448914e-01
      8.14640447e-02 1.74307570e-01 1.99287266e-01 0. 1.61862314e-01 0.
      0. 1.42391780e-02 3.53554666e-01 0. 0. 0. 0. 9.41567719e-02 0.
      2.51095086e-01 3.29628110e-01 9.56021175e-02 0. 0. 0. 0. 0. 0. 0.
      1.56891510e-01 1.74393598e-02 1.11663312e-01 8.42694417e-02 0. 0.
      1.00686196e-02 3.86056572e-01 1.74999103e-01 0. 0. 9.48794261e-02
      1.60454392e-01 1.38619691e-01 8.68442431e-02 1.80202469e-01</_>
    <_>
      2.13937864e-01 2.25640550e-01 0. 0. 0. 0. 0. 0. 8.27292725e-02 0.
      5.58657311e-02 0. 9.35769454e-02 0. 0. 2.96791613e-01
      1.72281146e-01 1.59992322e-01 0. 0. 8.19345042e-02 0.
      1.10384345e-01 1.79703608e-01 1.77382395e-01 1.27574429e-01 0.
      1.59033790e-01 0. 0. 9.89267137e-03 3.46945226e-01 0. 0. 0. 0. 0.
      0. 1.60054058e-01 3.42032224e-01 1.72567204e-01 1.06074505e-01 0.
      0. 0. 0. 5.49689047e-02 8.27292725e-02 1.78793833e-01 0.
      1.10469215e-01 8.30226615e-02 0. 5.41318730e-02 1.51625708e-01
      3.36270928e-01 2.00793847e-01 0. 0. 0. 8.48965570e-02
      1.72950044e-01 1.40340194e-01 1.25874922e-01</_>
    <_>
      3.45122576e-01 1.74487904e-01 0. 0. 0. 0. 0. 0. 0. 0. 0. 0. 0. 0.
      4.65888903e-02 1.84540898e-01 2.91939139e-01 1.69680357e-01 0. 0.
      0. 0. 4.18655090e-02 6.74054995e-02 2.08193138e-01 1.17811993e-01
      1.47156209e-01 0. 0. 0. 3.70507799e-02 2.66540915e-01 0.
      1.71511788e-02 0. 0. 8.46922472e-02 1.63955793e-01 1.68979809e-01
      3.48148793e-01 1.29266024e-01 0. 0. 0. 0. 0. 0. 0. 9.90499035e-02
      8.53756368e-02 8.71866494e-02 5.84265701e-02 5.98613992e-02
      8.37783813e-02 8.40444714e-02 3.71711075e-01 1.14211611e-01
      1.19570039e-01 0. 1.78936273e-01 1.56286210e-01 1.93093315e-01
      1.76887661e-01 7.40100145e-02</_>
    <_>
      3.33456069e-01 2.52565026e-01 6.35648742e-02 0. 0. 0. 0. 0.
      7.77605474e-02 1.17409840e-01 8.76246244e-02 6.04349114e-02
      7.88809359e-02 7.29333162e-02 0. 0. 2.64345139e-01 1.82428584e-01
      0. 0. 1.23372085e-01 5.75370193e-02 1.11566953e-01 1.23372085e-01
      0. 6.04728311e-02 1.95980713e-01 1.72710091e-01 1.96558148e-01 0.
      1.08664602e-01 6.76084906e-02 0. 0. 0. 0. 0. 0. 1.88896060e-01
      2.39651382e-01 2.86598235e-01 3.40596326e-02 0. 0. 0.
      5.48993833e-02 1.36122122e-01 3.63685340e-02 2.25207657e-01
      1.11742236e-01 0. 7.77605474e-02 0. 0. 1.31323755e-01
      2.32379794e-01 2.55901486e-01 1.81621477e-01 0. 0. 1.05979003e-01
      1.09805211e-01 1.29302293e-01 1.54114515e-01</_>
    <_>
      4.16132092e-01 2.17314139e-01 0. 0. 0. 0. 0. 0. 0. 0. 0. 0. 0. 0.
      0. 0. 3.95281881e-01 2.14187533e-01 0. 0. 0. 0. 0. 0.
      1.39865726e-01 2.21063085e-02 6.21418245e-02 0. 0. 0.
      1.73029765e-01 0. 0. 0. 0. 0. 0. 0. 2.15948075e-01 1.57783046e-01
      3.85089636e-01 1.08355433e-02 0. 0. 0. 0. 0. 0. 1.02073990e-01 0.
      0. 0. 0. 0. 2.15861678e-01 1.58776700e-01 3.66601944e-01
      1.05961584e-01 1.04892544e-01 1.37194559e-01 1.37098789e-01
      1.53609157e-01 6.02080002e-02 0.</_>
    <_>
      3.72039586e-01 1.34053603e-01 0. 0. 0. 0. 0. 0. 1.66336372e-01
      1.02830678e-01 0. 7.27128014e-02 0. 0. 4.36686501e-02 0.
      2.72282839e-01 2.00662732e-01 5.34111969e-02 0. 8.04664642e-02
      1.06661245e-01 1.63497198e-02 7.96924680e-02 1.48821831e-01
      1.57718375e-01 1.72551766e-01 1.42366156e-01 1.26754180e-01
      7.10979849e-02 1.07882440e-01 6.26254007e-02 1.14358291e-01 0. 0.
      0. 0. 0. 1.45910457e-01 2.20209703e-01 2.91980743e-01
      7.60582387e-02 0. 0. 7.80261233e-02 1.02275349e-01 1.07556678e-01
      9.31117684e-02 2.18752503e-01 1.39986381e-01 8.80921111e-02
      1.47926375e-01 0. 0. 1.96350485e-01 2.05698028e-01 1.83975503e-01
      1.79991782e-01 1.38919890e-01 0. 1.29589334e-01 1.14926815e-01
      9.92567688e-02 9.31117684e-02</_>
    <_>
      4.30606037e-01 6.79614842e-02 0. 0. 0. 0. 5.50192706e-02
      7.65693486e-02 6.76573291e-02 5.26640974e-02 4.29548435e-02 0.
      6.87442571e-02 0. 5.78068011e-02 0. 3.90683740e-01 1.42932668e-01
      7.35408142e-02 0. 1.19468361e-01 7.18305632e-02 8.98027942e-02 0.
      2.09431022e-01 1.49205044e-01 1.13021709e-01 1.22231692e-01
      1.59818664e-01 1.35511771e-01 1.32720634e-01 1.29456073e-01 0. 0.
      0. 0. 0. 0. 8.17890614e-02 2.91455448e-01 2.94309467e-01
      4.29564454e-02 0. 0. 0. 0. 0. 0. 1.24917246e-01 0. 5.12982383e-02
      4.86515276e-02 0. 0. 6.53298572e-02 2.91100889e-01 2.90997744e-01
      4.95131388e-02 0. 0. 0. 5.39370924e-02 1.27877474e-01
      9.80691165e-02</_>
    <_>
      4.32546496e-01 5.42055406e-02 0. 0. 0. 0. 5.93629628e-02
      8.20052773e-02 1.30160257e-01 3.63093913e-02 0. 9.62539017e-02 0.
      5.87965287e-02 4.27132919e-02 8.21268782e-02 4.12770987e-01
      8.42670500e-02 9.96129364e-02 1.06472336e-01 0. 7.41516352e-02
      8.45561326e-02 0. 1.90549061e-01 1.33721232e-01 1.16837531e-01
      8.95234048e-02 1.78218663e-01 6.02960959e-02 1.29948586e-01
      1.65617540e-01 0. 0. 0. 0. 0. 0. 4.48528081e-02 2.62128472e-01
      3.17004204e-01 4.62021604e-02 0. 0. 0. 0. 0. 0. 8.65964666e-02
      5.70385009e-02 0. 0. 0. 0. 8.36331472e-02 3.32675546e-01
      2.65258074e-01 8.05466026e-02 0. 0. 0. 4.83864732e-02 0.
      1.10669628e-01</_>
    <_>
      2.98065782e-01 1.90745339e-01 0. 0. 0. 0. 0. 0. 0. 0. 0. 0. 0. 0.
      0. 2.21971542e-01 3.14269215e-01 1.19966336e-01 0. 0. 0. 0.
      4.70092595e-02 7.34706521e-02 2.08454713e-01 1.21685892e-01 0.
      8.32458586e-02 4.64147776e-02 0. 6.39320835e-02 2.60929674e-01
      1.16866618e-01 5.41713908e-02 0. 0. 0. 1.15103729e-01
      1.82936117e-01 3.63231510e-01 1.26283795e-01 0. 0. 0. 0. 0. 0. 0.
      1.31751329e-01 7.92315602e-02 1.07979439e-01 0. 6.24936111e-02
      1.04454614e-01 2.32229963e-01 2.11676255e-01 2.75886118e-01
      1.62594840e-01 0. 1.55567408e-01 1.48923799e-01 1.45436376e-01
      1.53531641e-01 1.07356913e-01</_>
    <_>
      3.78675818e-01 1.85657889e-01 0. 0. 0. 0. 0. 0. 7.90870637e-02
      1.14546955e-01 8.91194120e-02 6.14658706e-02 8.02265629e-02 0.
      7.41555169e-02 0. 3.15106571e-01 2.07875729e-01 0. 7.90870637e-02
      8.13111067e-02 1.08497262e-01 1.94798708e-02 8.22287500e-02
      1.29977688e-01 7.20689446e-02 1.99139655e-01 2.19809666e-01
      9.61543769e-02 8.94827321e-02 1.36890724e-01 1.06608219e-01
      8.96330252e-02 3.46406549e-02 0. 3.26333903e-02 0. 0.
      1.22891061e-01 2.72249997e-01 2.90951133e-01 4.54051048e-02 0. 0.
      0. 5.58359101e-02 7.72892386e-02 0. 2.05139726e-01 6.26406074e-02
      0. 0. 0. 0. 1.16248012e-01 2.03990564e-01 3.18687677e-01
      1.07072040e-01 6.94985911e-02 0. 7.85378516e-02 0. 1.30545124e-01
      9.93848369e-02</_>
    <_>
      1.91131547e-01 1.53015196e-01 0. 0. 0. 0. 2.11385507e-02
      8.87001529e-02 8.27216208e-02 0. 5.33853509e-02 0. 8.90824795e-02
      0. 0. 3.23909581e-01 2.01831520e-01 2.07288936e-01 0. 0.
      7.82966986e-02 0. 1.05065763e-01 2.12270781e-01 1.70250759e-01
      1.65504828e-01 1.04281746e-01 1.47558361e-01 0. 0. 9.45344660e-03
      2.81303465e-01 8.83417875e-02 0. 0. 0. 0. 0. 1.89603373e-01
      3.38311166e-01 1.24427319e-01 0. 0. 0. 0. 4.91596721e-02 0.
      7.67475665e-02 1.89810738e-01 0. 1.05167031e-01 7.93365389e-02 0.
      5.17284721e-02 1.44698948e-01 2.84468353e-01 2.37696186e-01 0. 0.
      0. 1.50503889e-01 1.19563334e-01 1.55195206e-01 1.93824381e-01</_>
    <_>
      1.63361907e-01 1.74312621e-01 9.11811218e-02 7.65447244e-02 0. 0.
      0. 0. 8.03987309e-02 5.37658744e-02 0. 8.03987309e-02
      6.39387593e-02 0. 9.52317193e-03 3.13187599e-01 2.34731510e-01
      2.67417073e-01 0. 0. 0. 9.16554704e-02 1.20566778e-01
      1.96754918e-01 1.91430777e-01 1.04141563e-01 0. 1.47853121e-01 0.
      0. 0. 2.21543357e-01 5.87101728e-02 4.93691713e-02 0. 0. 0. 0.
      1.09562367e-01 3.42699021e-01 1.65550470e-01 1.04379781e-01 0. 0.
      0. 0. 1.19846381e-01 0. 2.29905024e-01 1.34677980e-02
      5.38187139e-02 7.97043145e-02 6.29443005e-02 5.46153747e-02
      2.38730878e-01 3.13694447e-01 1.27877519e-01 0. 0. 0.
      1.51613951e-01 1.07772216e-01 1.27431974e-01 1.55433506e-01</_>
    <_>
      2.13023096e-01 1.70695007e-01 4.77735102e-02 0. 0. 0. 0.
      9.00501832e-02 7.95553401e-02 0. 0. 2.03768797e-02 9.04920325e-02
      0. 2.42323298e-02 3.02988499e-01 2.04111561e-01 2.07519591e-01 0.
      0. 7.82401264e-02 0. 1.05794042e-01 1.94264337e-01 2.21749261e-01
      1.35959014e-01 0. 1.53830245e-01 0. 0. 9.63563100e-03
      2.85237640e-01 8.93122032e-02 0. 0. 0. 0. 5.69149703e-02
      1.85483634e-01 3.43551427e-01 1.24737449e-01 0. 0. 0. 0.
      4.66259755e-02 0. 7.60729238e-02 1.88783318e-01 0. 1.06181964e-01
      8.04403499e-02 0. 0. 1.46187842e-01 3.15127075e-01 2.04536781e-01
      0. 0. 0. 1.26168534e-01 1.30756125e-01 1.68722212e-01
      1.75130367e-01</_>
    <_>
      2.20160410e-01 2.32168481e-01 0. 0. 0. 6.03605472e-02
      2.94840634e-02 2.27869958e-01 4.37838845e-02 9.36558470e-02
      6.61113188e-02 0. 0. 0. 1.29848227e-01 2.82962739e-01
      1.91194907e-01 1.65733963e-01 0. 0. 0. 0. 1.02189630e-02 0.
      1.25412017e-01 1.18283071e-01 1.53874561e-01 1.37761906e-01 0.
      1.21595584e-01 9.04727876e-02 3.55864435e-01 6.86103180e-02
      1.44517962e-02 5.77508695e-02 0. 6.75432011e-02 0. 1.63942933e-01
      1.96145773e-01 1.53417334e-01 2.03942940e-01 1.59624681e-01
      1.75236404e-01 0. 5.77508695e-02 1.44517962e-02 0. 1.11875288e-01
      0. 0. 0. 0. 1.64158583e-01 2.35384077e-01 2.95972735e-01
      1.71203539e-01 1.01952612e-01 0. 0. 0. 7.21975937e-02
      1.01231292e-01 4.92840223e-02</_>
    <_>
      2.45622784e-01 2.13797122e-01 0. 0. 0. 0. 1.17949411e-01
      1.20145112e-01 1.02632262e-01 8.70084688e-02 0. 0. 0. 0.
      2.11340282e-02 3.12123269e-01 2.35863477e-01 2.37685740e-01 0. 0.
      0. 0. 1.04080662e-02 0. 1.55725673e-01 1.05894819e-01
      7.74931759e-02 1.34580940e-01 9.15609002e-02 9.72371697e-02 0.
      3.12737674e-01 0. 0. 0. 0. 0. 0. 1.93053409e-01 2.02435583e-01
      1.54635653e-01 1.59725457e-01 2.82094806e-01 0. 0. 0. 0. 0.
      1.16603538e-01 0. 0. 0. 0. 2.28799373e-01 2.33902484e-01
      2.74426848e-01 1.76309198e-01 1.00432262e-01 0. 0. 0.
      7.01957792e-02 9.93067399e-02 5.48089705e-02</_>
    <_>
      2.12114885e-01 1.56520814e-01 1.06778190e-01 1.23448856e-01
      7.75137320e-02 0. 3.58178243e-02 8.66312459e-02 6.42714053e-02 0.
      0. 1.20420337e-01 1.04296505e-01 1.43387079e-01 1.11273333e-01
      2.21264079e-01 2.58743525e-01 1.45288423e-01 0. 0. 0.
      6.71568960e-02 9.46764946e-02 1.48313090e-01 1.80910900e-01
      8.12049806e-02 1.45392701e-01 1.20259933e-01 0. 0. 0.
      2.88343072e-01 1.13839423e-02 0. 0. 0. 0. 0. 1.75783157e-01
      2.22071454e-01 2.08339557e-01 1.36256546e-01 1.11810483e-01
      1.50915414e-01 8.47572237e-02 5.90766408e-02 1.15116842e-01 0.
      1.28542811e-01 9.41116884e-02 8.69375765e-02 7.87161067e-02
      7.87236392e-02 7.23253712e-02 2.35431299e-01 2.97642589e-01
      1.45749405e-01 0. 0. 0. 1.48634553e-01 8.11164528e-02
      1.89419910e-01 1.19047284e-01</_>
    <_>
      2.65871078e-01 1.80724710e-01 0. 0. 0. 0. 0. 0. 0. 5.85059188e-02
      0. 0. 0. 0. 0. 2.55607009e-01 2.66576797e-01 1.78280860e-01 0. 0.
      0. 6.98346421e-02 9.72860157e-02 1.32412285e-01 2.06074104e-01
      9.46105793e-02 1.17392115e-01 8.17238688e-02 0. 0. 0.
      2.53998369e-01 2.76451819e-02 1.64379235e-02 0. 0. 0.
      6.07573017e-02 2.44773507e-01 3.07354391e-01 1.27437994e-01 0.
      1.05974443e-01 0. 1.02099150e-01 0. 5.09973131e-02 7.78349862e-02
      1.54872850e-01 1.18577957e-01 1.13436170e-01 1.16558217e-01 0.
      4.56913076e-02 3.35360914e-02 3.79737228e-01 1.47556245e-01
      1.11916274e-01 0. 0. 1.98326334e-01 1.29629254e-01 5.64356707e-02
      2.13506415e-01</_>
    <_>
      4.22037542e-01 1.73338845e-01 0. 0. 0. 5.36157228e-02 0. 0.
      6.18499555e-02 0. 0. 0. 0. 0. 0. 0. 4.00052130e-01 1.62332565e-01
      6.10440746e-02 0. 0. 0. 0. 0. 1.67213127e-01 1.23188145e-01
      1.70943454e-01 8.93291682e-02 0. 0. 0. 1.35457665e-01 0. 0. 0. 0.
      8.72968882e-02 1.02995567e-01 1.73115730e-01 1.56962916e-01
      3.72121543e-01 1.06441313e-02 0. 0. 0. 0. 0. 0. 1.40099227e-01 0.
      0. 0. 0. 0. 1.73115730e-01 1.26287162e-01 4.01706934e-01
      1.06441313e-02 0. 0. 8.81583542e-02 1.19653225e-01 1.70235008e-01
      8.25424120e-02</_>
    <_>
      4.37559754e-01 2.28788108e-01 0. 0. 0. 0. 0. 0. 0. 0. 0. 0. 0. 0.
      0. 0. 4.22193855e-01 2.62569845e-01 0. 0. 0. 0. 0. 0. 0. 0. 0. 0.
      0. 0. 0. 0. 0. 0. 0. 0. 0. 0. 3.17380726e-01 1.95069492e-01
      3.22184652e-01 1.28942773e-01 0. 0. 0. 0. 0. 0. 0. 0. 0. 0. 0. 0.
      2.59422809e-01 1.35487467e-01 4.04978782e-01 1.14016524e-02 0. 0.
      0. 0. 0. 0.</_>
    <_>
      2.23220408e-01 1.99537709e-01 0. 0. 0. 0. 0. 8.79108682e-02
      1.44141644e-01 0. 0. 1.95783339e-02 0. 0. 0. 2.19578102e-01
      2.08413750e-01 2.53237545e-01 0. 0. 7.66781271e-02 5.06591275e-02
      9.00602862e-02 1.14918627e-01 1.38369724e-01 1.76183477e-01
      9.81200114e-02 1.43547967e-01 8.67921785e-02 0. 8.86608660e-02
      1.89341158e-01 1.45309016e-01 6.64955899e-02 4.84046414e-02 0. 0.
      0. 2.03547075e-01 3.10273618e-01 1.64860010e-01 0. 5.01172133e-02
      0. 8.66286904e-02 4.47987616e-02 1.27695471e-01 1.13660321e-01
      1.44903764e-01 1.30928215e-02 1.04581669e-01 7.86612034e-02
      1.23611771e-01 4.98821251e-02 1.41750917e-01 3.37267399e-01
      1.86112106e-01 5.39306588e-02 0. 0. 1.47392631e-01 1.04809351e-01
      1.36243671e-01 2.27006376e-01</_>
    <_>
      3.15791398e-01 2.03132406e-01 0. 0. 0. 0. 0. 7.67850876e-02
      8.63588527e-02 1.37423173e-01 0. 0. 0. 0. 0. 7.67850876e-02
      3.62101525e-01 1.38971269e-01 0. 0. 7.67850876e-02 0.
      1.02698565e-01 7.67850876e-02 3.08853000e-01 8.89395699e-02 0.
      7.67850876e-02 1.22129865e-01 0. 0. 0. 1.49577916e-01 0. 0. 0. 0.
      0. 2.09522128e-01 1.53570175e-01 2.99155831e-01 0. 0. 0.
      9.81064513e-02 0. 5.13492823e-02 1.08590506e-01 2.70215869e-01
      1.02698565e-01 0. 7.67850876e-02 1.22129865e-01 0. 1.96535051e-01
      1.08590506e-01 3.11371267e-01 0. 0. 0. 1.89016819e-01 0.
      1.64994717e-01 7.67850876e-02</_>
    <_>
      3.47293109e-01 2.09492937e-01 0. 0. 0. 0. 0. 5.93397543e-02
      1.49015069e-01 5.58967926e-02 0. 6.23882040e-02 6.16100729e-02 0.
      0. 0. 3.66915077e-01 1.45368129e-01 0. 0. 8.03100020e-02
      1.06416762e-01 0. 8.15445706e-02 3.06950390e-01 8.27638283e-02
      9.16814357e-02 8.79143625e-02 1.28849298e-01 0. 0. 7.72200003e-02
      1.61377117e-02 0. 0. 0. 0. 0. 1.81921288e-01 1.37593746e-01
      3.20498884e-01 0. 0. 0. 0. 0. 1.33545727e-01 6.34724200e-02
      3.16146970e-01 9.28570554e-02 4.50248607e-02 7.86969662e-02 0. 0.
      1.69824243e-01 1.29627481e-01 3.32221299e-01 0. 0. 0.
      1.46391556e-01 0. 8.88999552e-02 0.</_>
    <_>
      3.28078866e-01 2.18034670e-01 5.59111275e-02 0. 0. 0. 0.
      7.87599832e-02 1.62406519e-01 8.86197165e-02 0. 7.39922151e-02
      3.78241874e-02 0. 0. 0. 3.19292873e-01 1.45922959e-01
      5.36253154e-02 0. 7.70464465e-02 1.02092303e-01 1.59445778e-02
      8.13277215e-02 1.97192281e-01 1.62480831e-01 1.87555298e-01
      1.20559387e-01 7.61976242e-02 0. 8.14651847e-02 9.77603197e-02
      1.67870417e-01 0. 0. 0. 0. 4.81305867e-02 2.12584153e-01
      1.89660698e-01 2.75148869e-01 0. 0. 0. 7.66687989e-02
      1.01200514e-01 0. 7.85059407e-02 2.17952803e-01 1.33084849e-01
      1.04847014e-01 7.54989535e-02 0. 0. 1.74456194e-01 1.35612771e-01
      2.97082335e-01 1.21760674e-01 2.91662458e-02 0. 1.39239639e-01 0.
      1.54413268e-01 1.43077359e-01</_>
    <_>
      2.11016417e-01 2.10758537e-01 0. 0. 0. 0. 0. 8.16312209e-02
      8.77841562e-02 2.35526692e-02 9.09795314e-02 8.01443234e-02 0. 0.
      7.69411922e-02 2.49235556e-01 1.68060407e-01 1.39804482e-01 0. 0.
      7.83210024e-02 4.85451370e-02 9.19321999e-02 2.36592039e-01
      2.02038467e-01 1.09169446e-01 0. 1.45435065e-01 0. 0.
      9.54969879e-03 3.30553740e-01 8.77841562e-02 0. 0. 0. 0. 0.
      2.31832981e-01 3.15534025e-01 1.19379111e-01 0. 0. 0.
      7.90938959e-02 4.62101586e-02 9.28976610e-02 1.17771499e-01
      1.01972267e-01 1.35446399e-01 1.19005203e-01 1.22516312e-01 0. 0.
      1.44342273e-01 2.92392880e-01 1.90515846e-01 6.32888451e-02 0. 0.
      1.52336299e-01 1.18876897e-01 1.84282035e-01 1.65633544e-01</_>
    <_>
      3.58963102e-01 1.35217503e-01 1.02070443e-01 0. 0. 0. 0. 0.
      1.40915632e-01 8.92901570e-02 4.27779593e-02 7.60224313e-02 0. 0.
      0. 0. 3.32985520e-01 1.75241888e-01 5.18346764e-02 0.
      1.40279964e-01 5.51475100e-02 2.05245428e-02 9.77734774e-02
      2.35180303e-01 1.67530909e-01 1.19122483e-01 7.98764229e-02
      1.23254023e-01 0. 0. 1.06819764e-01 1.21320620e-01 0. 0. 0. 0. 0.
      2.15987265e-01 1.43457621e-01 2.98218429e-01 1.63225681e-02 0. 0.
      7.70320743e-02 1.02498181e-01 0. 7.77413920e-02 2.02513874e-01
      6.67371377e-02 8.99378136e-02 5.92677593e-02 1.15354590e-01
      5.21378107e-02 2.22301871e-01 1.76194757e-01 2.69131720e-01 0. 0.
      0. 1.43662542e-01 0. 1.87883914e-01 1.54657319e-01</_>
    <_>
      2.45551869e-01 2.27869526e-01 7.12695271e-02 0. 0. 0. 0. 0. 0. 0.
      0. 0. 1.77747846e-01 1.13665044e-01 4.32115085e-02 6.70481995e-02
      3.32331419e-01 1.94704875e-01 7.14575425e-02 0. 8.23846236e-02
      5.68229258e-02 2.99079176e-02 1.02380127e-01 1.67868599e-01
      1.39212430e-01 1.20164901e-01 8.23031142e-02 1.26998559e-01 0. 0.
      9.76578966e-02 7.28893951e-02 2.31665727e-02 6.05026893e-02
      1.11374244e-01 1.64678395e-01 7.68593475e-02 2.41492152e-01
      1.71674982e-01 1.83318287e-01 8.44242424e-02 1.39494106e-01
      1.18793786e-01 7.44474754e-02 0. 1.11405358e-01 0. 1.80575430e-01
      4.81090024e-02 7.87285343e-02 6.05996884e-02 9.15142000e-02
      8.65085050e-02 2.12998033e-01 1.58062920e-01 3.02075595e-01
      2.14885380e-02 9.52810869e-02 0. 2.12085798e-01 1.05507068e-01
      1.68425724e-01 1.06164217e-01</_>
    <_>
      1.38070703e-01 1.52989820e-01 9.69009995e-02 1.02426007e-01 0. 0.
      1.98050551e-02 3.10769957e-02 6.64857626e-02 0. 0. 7.70923048e-02
      8.17402303e-02 1.18282638e-01 8.70960727e-02 2.65532792e-01
      2.06509858e-01 2.18715772e-01 0. 0. 8.04072917e-02 0.
      1.08724423e-01 1.49600089e-01 1.45980313e-01 1.90892473e-01
      9.83099192e-02 1.13148905e-01 4.26239483e-02 0. 0. 2.89366841e-01
      1.14396639e-01 0. 8.23832303e-02 1.21096537e-01 0. 9.87121016e-02
      1.88088462e-01 2.67450452e-01 1.65145859e-01 1.12637155e-01
      1.26595154e-01 7.79488832e-02 8.41412991e-02 0. 0. 6.40848577e-02
      1.72139987e-01 1.98050551e-02 1.09123088e-01 8.26684609e-02 0.
      7.71701783e-02 2.05942914e-01 3.09629649e-01 1.75741643e-01 0. 0.
      0. 1.51107758e-01 1.70682102e-01 1.28803343e-01 1.15589447e-01</_>
    <_>
      3.96322191e-01 4.59622480e-02 0. 0. 0. 0. 1.63572859e-02 0.
      9.64757428e-02 1.35338828e-01 6.41725138e-02 7.84365609e-02
      3.51204351e-02 0. 7.19015077e-02 0. 3.36484820e-01 1.75407171e-01
      6.67015240e-02 1.22892752e-01 8.33849683e-02 1.08490460e-01
      8.21226910e-02 0. 2.60854185e-01 1.03106275e-01 9.23599899e-02
      1.61663622e-01 1.26812845e-01 0. 1.10876046e-01 1.14416569e-01
      1.17358297e-01 0. 0. 0. 4.55041490e-02 0. 1.22497119e-01
      2.86067516e-01 2.49910370e-01 2.71192621e-02 0. 0. 4.68325093e-02
      0. 6.80366829e-02 0. 1.54278547e-01 9.94367152e-02 6.94920793e-02
      0. 0. 0. 1.13419354e-01 2.36730605e-01 2.88441151e-01
      8.90588239e-02 0. 0. 8.05037096e-02 1.39731422e-01 1.56441718e-01
      1.43889338e-01</_>
    <_>
      2.87387431e-01 2.05844700e-01 0. 0. 0. 0. 0. 0. 0. 0. 0. 0.
      1.52798131e-01 0. 1.08775012e-01 8.13282877e-02 3.55212867e-01
      1.84331387e-01 0. 0. 0. 0. 1.55383468e-01 8.13282877e-02
      1.89465046e-01 1.81708619e-01 0. 8.13282877e-02 1.29356012e-01 0.
      0. 0. 1.12025596e-01 9.42019224e-02 0. 0. 9.14685130e-02 0.
      2.58836001e-01 1.62656575e-01 2.43401453e-01 1.43895805e-01
      9.67161804e-02 8.13282877e-02 8.13282877e-02 0. 0. 8.13282877e-02
      2.51848191e-01 5.43875024e-02 0. 8.13282877e-02 6.46780059e-02 0.
      1.56920493e-01 1.15015566e-01 3.65874052e-01 0. 0. 0.
      1.84783131e-01 0. 1.21614158e-01 1.40864730e-01</_>
    <_>
      2.28173822e-01 1.92984566e-01 0. 0. 0. 0. 0. 1.68574855e-01
      1.04507968e-01 1.42046720e-01 0. 2.53066607e-02 0. 0.
      1.61028374e-02 2.34214008e-01 1.68437541e-01 1.76056191e-01 0. 0.
      7.49990344e-02 0. 1.01040691e-01 1.86500818e-01 1.29410073e-01
      1.70155987e-01 0. 1.51743084e-01 0. 0. 0. 2.80400991e-01
      1.14482656e-01 0. 0. 0. 0. 0. 1.82491288e-01 3.19945365e-01
      1.21594794e-01 0. 0. 0. 9.22790021e-02 4.54522893e-02
      1.66638389e-01 1.55763552e-01 1.72026396e-01 0. 5.11745587e-02
      7.65238181e-02 9.76650268e-02 1.02786176e-01 1.94416881e-01
      2.50840068e-01 2.07825810e-01 0. 0. 4.75414395e-02 1.88704774e-01
      1.02603875e-01 1.17801793e-01 2.18080044e-01</_>
    <_>
      3.49217862e-01 1.75412178e-01 8.03674981e-02 0. 0. 0. 0. 0.
      1.62677720e-01 5.43546416e-02 4.68352139e-02 8.76292959e-02 0. 0.
      0. 0. 2.62774885e-01 1.97543517e-01 0. 8.82497951e-02
      1.18889034e-01 1.05403855e-01 7.50825554e-02 0. 1.95837051e-01
      1.89854458e-01 1.50496900e-01 7.98048899e-02 1.25294432e-01
      8.49138796e-02 7.98644796e-02 1.28583565e-01 2.48119943e-02 0. 0.
      0. 0. 0. 2.07171187e-01 1.66521251e-01 2.72461683e-01
      8.88989270e-02 5.77812046e-02 1.18548967e-01 0. 5.27315922e-02
      1.29861295e-01 1.12112358e-01 2.20425785e-01 0. 6.76278919e-02
      1.40968382e-01 0. 0. 1.97083011e-01 1.51350930e-01 2.76919514e-01
      9.22227129e-02 0. 0. 1.45644069e-01 1.03347212e-01 1.91852242e-01
      1.17754713e-01</_>
    <_>
      3.28685492e-01 1.75546333e-01 0. 0. 0. 0. 0. 0. 2.18882382e-01
      1.29837781e-01 5.20505160e-02 0. 0. 0. 0. 1.20822027e-01
      3.38405460e-01 1.82864666e-01 0. 0. 7.78145343e-02 0.
      1.04075432e-01 7.78145343e-02 2.32043058e-01 1.66029438e-01
      7.01275617e-02 1.45402223e-01 0. 0. 0. 0. 2.26589352e-01 0. 0. 0.
      0. 0. 1.40532807e-01 1.90430760e-01 3.00173432e-01 0. 0.
      6.14313930e-02 6.09051622e-02 0. 5.36571182e-02 7.83020109e-02
      2.51512527e-01 1.04075432e-01 0. 7.78145343e-02 0. 5.28599098e-02
      1.76652908e-01 1.34078026e-01 3.15261275e-01 0. 5.05052395e-02 0.
      1.46328047e-01 1.04090266e-01 9.21013281e-02 1.09358579e-01</_>
    <_>
      4.32546496e-01 5.42055406e-02 0. 0. 0. 0. 5.93629628e-02
      8.20052773e-02 1.30160257e-01 3.63093913e-02 0. 9.62539017e-02 0.
      5.87965287e-02 4.27132919e-02 8.21268782e-02 4.12770987e-01
      8.42670500e-02 9.96129364e-02 1.06472336e-01 0. 7.41516352e-02
      8.45561326e-02 0. 1.90549061e-01 1.33721232e-01 1.16837531e-01
      8.95234048e-02 1.78218663e-01 6.02960959e-02 1.29948586e-01
      1.65617540e-01 0. 0. 0. 0. 0. 0. 4.48528081e-02 2.62128472e-01
      3.17004204e-01 4.62021604e-02 0. 0. 0. 0. 0. 0. 8.65964666e-02
      5.70385009e-02 0. 0. 0. 0. 8.36331472e-02 3.32675546e-01
      2.65258074e-01 8.05466026e-02 0. 0. 0. 4.83864732e-02 0.
      1.10669628e-01</_>
    <_>
      2.38303855e-01 2.48389646e-01 0. 0. 0. 0. 0. 0. 0. 5.76266423e-02
      0. 0. 0. 0. 2.07257587e-02 2.73607016e-01 2.05411032e-01
      1.93718448e-01 0. 0. 0. 0. 5.38896881e-02 1.55561626e-01
      1.57937914e-01 1.38632551e-01 9.41051841e-02 1.08339421e-01 0. 0.
      2.52571348e-02 3.26453835e-01 5.27350307e-02 4.43446971e-02 0. 0.
      0. 0. 0. 4.10965025e-01 1.37060031e-01 0. 0. 0. 6.85300156e-02
      5.39070182e-02 0. 0. 1.53101012e-01 2.04140060e-02 5.78521900e-02
      0. 9.46555510e-02 7.95774087e-02 2.38349155e-01 3.14623445e-01
      1.68110237e-01 8.92448872e-02 0. 8.39437246e-02 1.25654042e-01
      1.49551272e-01 1.36474773e-01 1.60431400e-01</_>
    <_>
      3.16325992e-01 1.51161075e-01 0. 0. 0. 0. 0. 0. 0. 5.40594757e-02
      0. 0. 0. 0. 6.04372807e-02 2.16165259e-01 2.70974904e-01
      9.68113393e-02 0. 0. 0. 0. 4.15997021e-02 1.31959915e-01
      1.32553443e-01 1.54298291e-01 9.35652405e-02 7.59818181e-02 0. 0.
      5.68399839e-02 2.80016959e-01 0. 0. 0. 0. 0. 0. 2.33820468e-01
      2.97603488e-01 1.77479476e-01 5.19992746e-02 0. 8.08377713e-02
      8.08377713e-02 0. 5.40594757e-02 0. 1.64645314e-01 9.04646739e-02
      6.54483214e-02 1.12379834e-01 0. 7.04581738e-02 1.05475612e-01
      4.00632858e-01 1.24476731e-01 1.40985236e-01 1.21185116e-01
      1.22875959e-01 7.69627169e-02 1.75768763e-01 1.39764696e-01
      2.01375753e-01</_>
    <_>
      2.63084918e-01 1.44732639e-01 0. 0. 0. 0. 6.08652569e-02
      9.32198763e-02 1.03812553e-01 0. 0. 0. 9.06299651e-02 0.
      1.34439310e-02 2.70603061e-01 2.40398318e-01 2.10011676e-01 0. 0.
      7.94981271e-02 0. 1.06498212e-01 1.73331007e-01 2.26803854e-01
      1.52659103e-01 1.06640823e-01 1.49569660e-01 0. 0. 0.
      2.53826976e-01 8.95520747e-02 0. 0. 0. 0. 0. 2.10533887e-01
      2.71491826e-01 2.09256187e-01 0. 0. 0. 0. 5.11436760e-02 0.
      7.82169029e-02 2.14339629e-01 0. 1.06523022e-01 8.00112486e-02 0.
      4.74889353e-02 1.75308794e-01 2.76884496e-01 2.34495044e-01 0. 0.
      0. 8.07706565e-02 1.07422143e-01 1.74472138e-01 1.64679050e-01</_>
    <_>
      3.29464138e-01 1.87842444e-01 0. 0. 0. 0. 5.31578697e-02 0.
      8.94005224e-02 9.20721367e-02 0. 7.94895589e-02 0. 0.
      5.31578697e-02 7.94895589e-02 3.61732125e-01 1.80163875e-01 0. 0.
      7.94895589e-02 0. 1.06315739e-01 1.12415209e-01 3.06978136e-01
      1.06315739e-01 0. 7.94895589e-02 1.26431435e-01 0. 0. 0.
      8.94005224e-02 5.31578697e-02 0. 0. 0. 0. 1.87842444e-01
      1.12415209e-01 3.19731206e-01 5.31578697e-02 0. 0. 7.94895589e-02
      0. 9.20721367e-02 0. 3.17102790e-01 1.06315739e-01 0.
      7.94895589e-02 0. 0. 1.80163875e-01 1.37679949e-01 3.34506124e-01
      0. 0. 0. 1.49343550e-01 0. 1.06315739e-01 7.94895589e-02</_>
    <_>
      2.33650118e-01 2.17572585e-01 6.63079768e-02 0. 0. 0.
      1.87807158e-02 8.67940858e-02 7.88890570e-02 1.60199273e-02
      5.23338318e-02 0. 0. 0. 0. 2.22637355e-01 1.74545288e-01
      1.82520270e-01 0. 0. 0. 8.55971724e-02 1.03365332e-01
      1.42053649e-01 1.60704762e-01 2.43266687e-01 9.94490683e-02 0. 0.
      4.33993116e-02 1.87807158e-02 2.95014918e-01 0. 0. 0. 0.
      8.47156048e-02 1.19989395e-01 2.72383422e-01 2.49580637e-01
      1.24559723e-01 0. 0. 7.72135779e-02 6.06568716e-02 8.85438994e-02
      1.15387768e-01 7.73473680e-02 1.15728259e-01 1.07499875e-01
      8.78330171e-02 0. 1.08164601e-01 0. 1.71241701e-01 3.07070851e-01
      1.37712255e-01 1.00914203e-01 0. 1.35486707e-01 9.05205831e-02
      2.34793752e-01 7.61989132e-02 2.14247018e-01</_>
    <_>
      3.49940836e-01 2.23237634e-01 1.14116333e-01 0. 0. 5.10648973e-02
      0. 0. 5.43231852e-02 0. 0. 0. 0. 0. 0. 0. 3.75035554e-01
      1.97578877e-01 0. 9.20355916e-02 0. 5.51550910e-02 9.76683199e-03
      8.27215686e-02 1.55058116e-01 6.82805628e-02 1.58118516e-01
      8.35341439e-02 1.59443378e-01 0. 0. 0. 0. 1.19380847e-01
      5.18291555e-02 7.93054551e-02 8.15356374e-02 1.07627749e-01
      2.88586289e-01 2.04218462e-01 2.53681391e-01 8.58483613e-02
      1.07528672e-01 8.17436278e-02 8.01017955e-02 4.84590232e-02
      9.35335532e-02 7.26062059e-02 1.52467087e-01 5.42696714e-02 0. 0.
      0. 0. 2.23984942e-01 1.64135799e-01 3.21377397e-01 9.76683199e-03
      0. 0. 7.93054551e-02 9.74752307e-02 1.28925875e-01 8.11520889e-02</_>
    <_>
      3.76188010e-01 1.86782405e-01 0. 0. 0. 0. 0. 0. 0. 0. 0. 0. 0. 0.
      0. 0. 4.08949792e-01 3.95873412e-02 0. 1.26430184e-01
      8.48970935e-02 1.10767044e-01 8.98203850e-02 4.44863737e-02
      1.82166085e-01 1.15196377e-01 2.30286762e-01 1.11691765e-01
      1.46710962e-01 1.08360671e-01 6.50487468e-02 0. 0. 0. 0. 0. 0. 0.
      2.22971618e-01 2.52344787e-01 2.61854023e-01 0. 0. 0. 0. 0. 0. 0.
      1.46179497e-01 1.01482406e-01 7.29532391e-02 0. 0. 0.
      1.28959239e-01 2.37598315e-01 2.69493610e-01 1.77798957e-01
      6.20082058e-02 0. 0. 1.12129726e-01 1.32597998e-01 1.71889856e-01</_>
    <_>
      1.40718132e-01 2.06173748e-01 1.88979238e-01 0. 0. 0. 0. 0.
      7.84961656e-02 0. 5.24895787e-02 0. 0. 0. 0. 2.16192275e-01
      1.78399190e-01 1.88913092e-01 6.67107701e-02 0. 7.63820559e-02
      1.09836832e-01 7.97631666e-02 8.71588662e-02 1.25778899e-01
      1.64407343e-01 1.06122658e-01 1.62659958e-01 1.21162146e-01
      7.07539693e-02 9.97105464e-02 2.25087956e-01 1.42653853e-01 0.
      7.60383755e-02 7.87155926e-02 0. 7.36137107e-02 1.81572556e-01
      2.89117068e-01 1.45569339e-01 9.44476649e-02 1.19089842e-01
      6.78482279e-02 1.45554975e-01 4.36433926e-02 6.59731627e-02
      7.54042417e-02 1.48200631e-01 1.11665763e-01 1.39201388e-01
      1.61431998e-01 7.61745498e-02 1.05578475e-01 2.11874098e-01
      2.91285515e-01 1.64650083e-01 5.19440211e-02 0. 0. 1.61029056e-01
      1.18239313e-01 1.91525474e-01 1.11120999e-01</_>
    <_>
      2.02336252e-01 2.15382382e-01 0. 0. 0. 0. 1.62669327e-02
      6.21140860e-02 8.68369937e-02 9.39171854e-03 5.30367568e-02 0.
      8.88383165e-02 0. 0. 2.82028854e-01 1.97970435e-01 1.83795586e-01
      0. 0. 7.77854398e-02 0. 1.04801379e-01 1.91936523e-01
      1.48977041e-01 1.93478942e-01 9.37315151e-02 7.62595832e-02 0. 0.
      1.32818948e-02 3.03084940e-01 8.91749039e-02 0. 0. 0. 0.
      1.67683482e-01 1.99760854e-01 3.04765224e-01 1.50363207e-01
      4.95852493e-02 0. 6.11141846e-02 0. 5.32312430e-02 5.54628484e-02
      1.00740410e-01 1.48475990e-01 1.32818948e-02 1.04480326e-01
      7.88184926e-02 0. 0. 2.16783553e-01 2.98377603e-01 1.50704265e-01
      8.97441283e-02 4.91036549e-02 0. 1.20990708e-01 1.61713257e-01
      1.78632155e-01 1.50307789e-01</_>
    <_>
      3.80473644e-01 2.15764374e-01 5.24850301e-02 0. 0. 5.94227053e-02
      0. 7.32651129e-02 1.18994273e-01 5.19782528e-02 6.54933900e-02 0.
      5.27317338e-02 5.69204353e-02 8.03532898e-02 4.23762463e-02
      3.20003808e-01 2.82920897e-01 5.85157238e-02 0. 5.98291308e-02 0.
      0. 0. 1.32809028e-01 6.90561458e-02 1.32599860e-01 1.51430190e-01
      0. 0. 0. 0. 6.46096170e-02 4.18155715e-02 8.58918056e-02
      5.97899966e-02 1.65231243e-01 9.80714336e-02 2.36231983e-01
      2.41090745e-01 2.56555408e-01 7.21364915e-02 5.74323535e-02 0.
      8.47682729e-02 6.51738644e-02 4.51885350e-02 6.56169206e-02
      1.32809028e-01 5.32895066e-02 0. 0. 0. 0. 1.88982844e-01
      2.65665472e-01 2.80720472e-01 5.58393188e-02 0. 0. 1.45557761e-01
      1.16046004e-01 7.78590143e-02 0.</_>
    <_>
      2.23420665e-01 1.96705163e-01 4.38507497e-02 0. 0. 0. 0.
      1.20055243e-01 1.53093427e-01 1.60791308e-01 5.05809598e-02 0. 0.
      0. 0. 2.38938421e-01 1.93910703e-01 1.88876048e-01 0. 0.
      1.41216770e-01 4.72573526e-02 8.78717378e-02 1.62859023e-01
      1.81103066e-01 1.57881364e-01 0. 1.39002040e-01 1.20037533e-01 0.
      5.47663905e-02 2.51633823e-01 1.33922294e-01 0. 0. 0. 0. 0.
      1.73411012e-01 2.70474434e-01 1.84565514e-01 0. 0. 0.
      8.33985507e-02 4.25749458e-02 1.60768732e-01 1.11649357e-01
      1.53603092e-01 0. 1.00947239e-01 7.57089406e-02 1.20037526e-01 0.
      1.80092975e-01 2.67398983e-01 1.93598956e-01 0. 0. 4.66206148e-02
      1.86077535e-01 1.01066872e-01 8.87811333e-02 2.14706451e-01</_>
    <_>
      3.11583191e-01 2.28567019e-01 8.59018043e-02 0. 6.26744553e-02 0.
      3.34091857e-02 4.84097973e-02 1.01019226e-01 1.32179841e-01
      4.05983329e-02 8.49718750e-02 4.95053791e-02 0. 7.41162375e-02 0.
      2.76931822e-01 2.00672284e-01 8.72524530e-02 1.22871809e-01
      7.95189589e-02 1.04877248e-01 2.07194965e-02 8.33023190e-02
      1.73479602e-01 8.64428282e-02 2.34544694e-01 1.21461190e-01
      1.65780753e-01 6.58331662e-02 1.10560991e-01 1.11080736e-01
      1.18972786e-01 0. 0. 0. 0. 4.71031815e-02 2.01580331e-01
      2.27594241e-01 2.03750476e-01 8.28576460e-02 8.69046152e-02
      1.10949002e-01 3.45369130e-02 0. 7.18519688e-02 0. 1.43801644e-01
      1.01724654e-01 1.26451179e-01 9.79713723e-02 0. 0. 1.65063649e-01
      2.11024016e-01 2.59141207e-01 1.01300657e-01 6.61621317e-02 0. 0.
      1.14508428e-01 2.16077685e-01 9.97587591e-02</_>
    <_>
      2.98314661e-01 2.08521977e-01 0. 0. 0. 0. 0. 7.88879320e-02
      8.87238905e-02 9.13752764e-02 0. 7.88879320e-02 0. 0.
      9.34421830e-03 1.48008898e-01 3.22581172e-01 1.41499028e-01 0. 0.
      7.88879320e-02 5.10879569e-02 9.13752764e-02 9.85545143e-02
      3.06544006e-01 9.04172510e-02 0. 1.47013530e-01 0. 0. 0.
      1.76757410e-01 1.25474527e-01 0. 0. 0. 0. 0. 2.08390132e-01
      2.01423526e-01 2.80129135e-01 0. 0. 0. 7.88879320e-02 0.
      9.13752764e-02 7.88879320e-02 2.72560805e-01 1.05511084e-01
      9.38140899e-02 7.88879320e-02 6.27372637e-02 0. 1.52409166e-01
      1.48386464e-01 3.28356504e-01 0. 0. 0. 1.48346543e-01
      1.05526119e-01 9.38140899e-02 1.11744151e-01</_>
    <_>
      3.48403841e-01 1.48911372e-01 9.26547199e-02 8.80735368e-02 0. 0.
      0. 0. 1.15953021e-01 9.27059632e-03 4.98756208e-02 8.76926035e-02
      0. 0. 0. 0. 3.18727225e-01 2.06364691e-01 0. 0. 0. 1.38501436e-01
      1.06696278e-01 7.87566975e-02 2.23229036e-01 1.97999880e-01
      1.74090207e-01 0. 8.87125582e-02 0. 0. 1.17978014e-01
      1.06390521e-01 9.27059632e-03 0. 0. 0. 1.29338965e-01
      1.84242606e-01 1.38095766e-01 2.97830909e-01 1.85411926e-02
      5.24554141e-02 0. 5.92415184e-02 5.23527600e-02 0. 7.75270537e-02
      2.56749183e-01 9.01826024e-02 0. 0. 0. 0. 2.06321374e-01
      1.55178338e-01 3.01638633e-01 0. 0. 0. 8.80464986e-02
      1.04528770e-01 2.18086794e-01 1.05729669e-01</_>
    <_>
      3.09702128e-01 2.71844983e-01 6.08372353e-02 0. 0. 0. 0. 0.
      7.62905478e-02 1.08164370e-01 9.83265936e-02 0. 0. 0. 0. 0.
      3.38384867e-01 4.01844457e-02 0. 0. 8.05835724e-02 1.07573368e-01
      1.66765787e-02 8.12856555e-02 1.96772933e-01 1.31521448e-01
      1.40017539e-01 1.70793444e-01 5.86012825e-02 1.01729318e-01
      4.18301858e-02 1.04027264e-01 1.07517466e-01 5.73013015e-02 0. 0.
      0. 0. 1.74759656e-01 2.06017539e-01 3.16033870e-01 2.81434320e-02
      0. 6.21693507e-02 7.97124878e-02 5.46903424e-02 1.10876001e-01
      2.95728948e-02 2.29802817e-01 2.02375576e-01 0. 7.89650381e-02 0.
      0. 1.23468012e-01 1.45741910e-01 3.64678591e-01 3.27133164e-02 0.
      0. 0. 1.19487673e-01 1.25316247e-01 1.08051039e-01</_>
    <_>
      2.96723157e-01 2.53281295e-01 7.88883790e-02 0. 0. 0. 0. 0.
      7.17025176e-02 1.16133325e-01 0. 0. 0. 0. 4.54264022e-02
      1.21931218e-01 2.70985514e-01 2.15585738e-01 6.30427375e-02 0.
      7.92905688e-02 1.05801165e-01 1.89958084e-02 8.01854134e-02
      2.25899499e-02 1.45815209e-01 2.42879003e-01 1.75084755e-01
      7.71217942e-02 9.42929089e-02 1.10547855e-01 0. 2.52563320e-02
      2.52772085e-02 0. 0. 0. 0. 1.60218298e-01 2.79986084e-01
      2.55905300e-01 0. 0. 1.10910051e-01 0. 5.44484183e-02
      1.29242733e-01 4.47838567e-02 2.73542494e-01 8.08154494e-02
      1.31781444e-01 7.71217942e-02 0. 0. 1.58095717e-01 2.50251621e-01
      1.93871200e-01 2.14326620e-01 8.60819295e-02 0. 8.35541040e-02
      1.08903237e-01 1.02071747e-01 4.58698682e-02</_>
    <_>
      2.01508254e-01 1.46770194e-01 0. 0. 0. 0. 0. 1.28439918e-01
      6.32637516e-02 0. 0. 0. 0. 0. 1.74230803e-02 3.29172790e-01
      1.86022043e-01 2.14799941e-01 0. 0. 0. 1.38363689e-01
      9.69808623e-02 9.12012085e-02 1.67659223e-01 2.42140725e-01
      4.41153273e-02 4.27225046e-02 0. 0. 5.86958826e-02 2.67275661e-01
      1.37647137e-01 0. 0. 0. 0. 0. 1.45758733e-01 3.62574339e-01
      1.31564140e-01 0. 0. 6.23002574e-02 6.32637516e-02 0.
      1.74230803e-02 2.36589070e-02 1.71732739e-01 1.48593336e-01
      9.05129611e-02 8.16001892e-02 0. 5.61898947e-02 1.38270319e-01
      3.26413035e-01 1.93302229e-01 2.39994098e-02 0. 6.48097768e-02
      1.23404071e-01 1.26515880e-01 1.65720537e-01 1.78596169e-01</_>
    <_>
      1.93706766e-01 1.54259309e-01 0. 0. 0. 0. 2.87446659e-02
      9.09997895e-02 1.24546066e-01 0. 1.06995046e-01 8.04116726e-02 0.
      0. 1.70386825e-02 3.27454835e-01 1.90135509e-01 2.18506664e-01 0.
      0. 6.33073673e-02 0. 5.84494025e-02 2.35570371e-01 1.35001436e-01
      2.15548977e-01 9.53660309e-02 7.90019855e-02 0. 0. 9.36216712e-02
      2.63454169e-01 7.88662210e-02 0. 0. 0. 0. 0. 1.85929924e-01
      3.18923563e-01 1.48126975e-01 0. 0. 0. 7.71978498e-02
      9.07118693e-02 0. 9.02667791e-02 1.80706501e-01 1.41976640e-01 0.
      0. 0. 3.90896760e-02 1.47619471e-01 3.11533630e-01 1.84421137e-01
      8.27440992e-02 0. 0. 0. 1.28182963e-01 2.04428419e-01
      1.56770989e-01</_>
    <_>
      1.72538415e-01 1.41693577e-01 0. 0. 0. 0. 0. 8.87119919e-02
      1.07535623e-01 0. 8.99364948e-02 7.86317214e-02 0. 0. 0.
      3.25707465e-01 1.90175667e-01 2.07355112e-01 0. 0. 0.
      4.85821553e-02 1.29002064e-01 2.16869935e-01 1.65208220e-01
      1.92645371e-01 1.29208699e-01 7.36507773e-02 0. 0. 0.
      2.74773240e-01 1.05219841e-01 0. 0. 0. 0. 0. 1.76898390e-01
      3.32865983e-01 1.25449985e-01 0. 0. 0. 7.66546205e-02 0.
      8.99155438e-02 8.87119919e-02 1.30500838e-01 1.07564203e-01
      1.38678595e-01 0. 0. 5.11207804e-02 1.72038302e-01 2.73941725e-01
      1.72060475e-01 7.99636245e-02 8.78596380e-02 0. 9.21537206e-02
      2.04336673e-01 1.76725119e-01 1.79233700e-01</_>
    <_>
      2.97798038e-01 2.10507706e-01 4.82987426e-02 0. 0. 0.
      5.89865930e-02 1.23086125e-01 1.56044602e-01 5.32913320e-02 0.
      7.96891302e-02 7.96891302e-02 0. 0. 1.79286808e-01 2.92302310e-01
      2.16773078e-01 9.13433507e-02 7.94458538e-02 7.89363608e-02 0.
      1.06163874e-01 1.49112239e-01 1.85646415e-01 1.83396041e-01
      1.30734339e-01 7.81780332e-02 1.01602368e-01 1.06933109e-01
      1.31988212e-01 1.95018336e-01 8.82079005e-02 0. 0. 0. 0.
      5.41333333e-02 2.02576399e-01 1.62741199e-01 2.49239117e-01
      5.15923649e-02 0. 1.18403733e-01 8.01998973e-02 5.49855977e-02
      5.32913320e-02 0. 1.74494326e-01 0. 5.41333333e-02 0. 0.
      5.24624810e-02 2.37686783e-01 1.99369445e-01 2.68640518e-01 0. 0.
      0. 0. 1.07448488e-01 1.09366566e-01 1.45920053e-01</_>
    <_>
      1.93437621e-01 1.21631548e-01 0. 0. 0. 0. 0. 0. 8.07854012e-02
      1.09461322e-01 5.37732542e-02 0. 0. 0. 2.20537875e-02
      3.37196797e-01 1.99422106e-01 2.14488223e-01 0. 0. 0.
      8.74275267e-02 1.16304941e-01 2.19817951e-01 1.70193911e-01
      1.32437691e-01 7.15799332e-02 1.22961573e-01 0. 0. 1.16057128e-01
      2.63119757e-01 8.51381347e-02 0. 0. 0. 0. 0. 1.74589440e-01
      3.44535619e-01 1.27613395e-01 0. 0. 0. 9.81309190e-02 0.
      5.77522144e-02 7.11719394e-02 8.09246972e-02 8.16506147e-02
      1.05691068e-01 7.89775550e-02 7.56001920e-02 1.20145217e-01
      2.33775929e-01 2.08638340e-01 1.39610812e-01 8.87759328e-02
      6.32276461e-02 1.15561128e-01 2.19264895e-01 1.43917575e-01
      1.39352262e-01 1.86672196e-01</_>
    <_>
      3.56111526e-01 1.77883521e-01 0. 0. 0. 0. 0. 0. 1.47063792e-01
      9.08279717e-02 0. 7.79226422e-02 0. 0. 0. 0. 3.07661146e-01
      2.07350090e-01 4.99258004e-02 0. 7.79501572e-02 0. 0.
      1.10216223e-01 2.99610257e-01 1.04881287e-01 1.15798496e-01
      8.78802240e-02 0. 1.39551699e-01 5.24395555e-02 8.06207135e-02
      1.24722980e-01 0. 0. 0. 0. 5.08245304e-02 1.68641090e-01
      1.13479681e-01 3.35210353e-01 0. 0. 0. 7.84154236e-02 0.
      9.08279717e-02 6.28524423e-02 2.67807364e-01 1.39319375e-01 0. 0.
      0. 0. 2.13298142e-01 1.55968621e-01 2.81953365e-01 9.26661566e-02
      0. 6.30315319e-02 1.46267593e-01 7.24452883e-02 9.10377353e-02
      1.35981858e-01</_>
    <_>
      2.18295828e-01 2.27621540e-01 0. 0. 3.35313715e-02 0.
      2.70607714e-02 4.27431092e-02 0. 0. 0. 0. 0. 0. 0. 3.07316840e-01
      1.84549704e-01 1.63384303e-01 0. 4.13258523e-02 0. 9.29742754e-02
      1.31251812e-01 9.71692652e-02 1.42823339e-01 1.58264905e-01
      9.27917212e-02 0. 0. 0. 1.44645907e-02 3.54540408e-01 0. 0. 0. 0.
      0. 0. 2.67453432e-01 1.78013697e-01 2.01797307e-01 2.63357550e-01
      0. 0. 0. 0. 0. 0. 1.57743618e-01 1.12552308e-01 5.84292300e-02
      8.41837823e-02 7.81331062e-02 0. 1.81550741e-01 3.38601738e-01
      2.01376781e-01 0. 0. 1.14745550e-01 1.24283232e-01 9.01059657e-02
      7.76664466e-02 1.62124962e-01</_>
    <_>
      3.41797709e-01 1.81481138e-01 0. 0. 1.12504568e-02 0. 0.
      7.98693672e-02 8.98276940e-02 9.20270756e-02 0. 7.91270286e-02 0.
      0. 0. 7.96255469e-02 3.54311585e-01 1.54014990e-01 0. 0.
      7.96255395e-02 1.06009513e-01 9.46046878e-03 8.13658014e-02
      3.19335312e-01 0. 1.06884204e-01 8.03812891e-02 1.26556054e-01 0.
      1.33791231e-02 1.21954255e-01 8.98276940e-02 5.34118637e-02 0. 0.
      0. 0. 1.88198328e-01 1.41829237e-01 3.08924884e-01 9.46046878e-03
      5.34250028e-02 0. 7.98693672e-02 0. 9.25120711e-02 0.
      2.89844334e-01 9.20296460e-02 5.25811352e-02 7.91148990e-02 0. 0.
      1.80493325e-01 1.37903571e-01 3.33569676e-01 0. 0. 0.
      7.83548579e-02 1.06762618e-01 1.51465908e-01 7.41679072e-02</_>
    <_>
      3.16506952e-01 2.57667333e-01 5.36924079e-02 0. 0. 0. 0. 0.
      1.42543674e-01 0. 5.11864647e-02 7.90400431e-02 6.28582388e-02 0.
      0. 0. 3.27109307e-01 1.43603995e-01 0. 0. 0. 0. 0. 0.
      3.22994739e-01 1.79533765e-01 1.39826223e-01 0. 0. 8.96828547e-02
      9.36223567e-03 1.19148366e-01 0. 0. 0. 0. 0. 0. 2.15091392e-01
      1.98616594e-01 2.81802952e-01 9.36223567e-03 0. 0. 0. 0.
      1.51011616e-01 7.90400431e-02 3.19356829e-01 0. 0. 0. 0. 0.
      1.52330339e-01 1.11428834e-01 3.28808874e-01 5.53907380e-02 0. 0.
      0. 1.02383338e-01 1.77440301e-01 7.95352012e-02</_>
    <_>
      2.02847943e-01 1.73677847e-01 0. 0. 0. 0. 0. 8.90366361e-02
      7.94014037e-02 0. 5.46112098e-02 0. 0. 0. 1.66711044e-02
      2.94584632e-01 1.88420206e-01 2.06992209e-01 0. 0. 0.
      4.83160019e-02 1.28613085e-01 1.13809146e-01 1.56503320e-01
      2.32136384e-01 9.33086798e-02 4.20758761e-02 0. 0. 0.
      2.68967897e-01 9.16801915e-02 0. 0. 0. 4.45075445e-02 0.
      2.33181253e-01 3.06719303e-01 1.45893902e-01 0. 8.93137604e-02
      7.86769390e-02 7.61094838e-02 0. 9.11967680e-02 1.15615182e-01
      1.18434571e-01 1.08700842e-01 9.03198272e-02 0. 1.08807117e-01
      5.29415011e-02 9.57637131e-02 3.34273845e-01 1.62077799e-01
      1.00314580e-01 8.29157382e-02 1.08708553e-01 0. 1.71440437e-01
      1.36754394e-01 2.42081746e-01</_>
    <_>
      3.65873426e-01 1.49697796e-01 0. 0. 0. 0. 5.18841706e-02 0.
      1.58286139e-01 7.33752921e-02 0. 0. 8.72584283e-02 0. 0. 0.
      3.39773566e-01 2.05248356e-01 0. 0. 7.75849298e-02 0.
      1.48231521e-01 1.09721661e-01 2.67126352e-01 1.38854653e-01 0.
      7.75849298e-02 1.74516857e-01 0. 0. 0. 8.72584283e-02 0. 0. 0. 0.
      0. 2.30936363e-01 1.73485175e-01 2.68948525e-01 0. 0. 0. 0. 0.
      1.17884189e-01 7.75849298e-02 2.51246214e-01 1.03768341e-01 0.
      7.75849298e-02 0. 0. 1.75847024e-01 1.34381041e-01 3.14614713e-01
      5.18841706e-02 0. 0. 1.45765185e-01 0. 1.58434197e-01
      1.34381041e-01</_>
    <_>
      3.66697282e-01 1.91982657e-01 0. 0. 0. 0. 5.35476804e-02
      8.00724551e-02 1.20161436e-01 0. 5.17998263e-02 8.13588426e-02
      8.13588426e-02 0. 0. 0. 3.70730847e-01 2.07191691e-01 0.
      8.13588426e-02 8.13588426e-02 0. 1.08815879e-01 8.13588426e-02
      2.46703938e-01 1.55378178e-01 1.45735085e-01 8.16168636e-02
      1.29155621e-01 0. 9.47287753e-02 1.26325250e-01 0. 0. 0. 0. 0. 0.
      2.15191528e-01 1.41066775e-01 2.35474586e-01 1.84883505e-01 0. 0.
      0. 0. 5.44079393e-02 0. 1.88842013e-01 5.44079393e-02 0. 0. 0. 0.
      2.21553028e-01 1.62973121e-01 2.92190343e-01 9.67773795e-02 0. 0.
      8.05903003e-02 1.32924229e-01 1.54468492e-01 8.13588426e-02</_>
    <_>
      3.44860166e-01 2.14693725e-01 0. 0. 4.50806245e-02 0. 0. 0.
      1.52513340e-01 0. 4.61921059e-02 8.84352401e-02 0. 0. 0. 0.
      3.31983805e-01 1.64799213e-01 5.07366620e-02 7.88446590e-02 0.
      8.97117183e-02 1.07983172e-01 8.04974437e-02 2.10414141e-01
      1.91818818e-01 1.79584160e-01 0. 1.09402999e-01 0. 1.13866322e-01
      1.41581312e-01 1.25243619e-01 0. 0. 0. 0. 4.98600826e-02
      2.25711077e-01 1.41537815e-01 3.04521799e-01 0. 0. 0. 0.
      5.32165729e-02 0. 7.77471215e-02 2.33208135e-01 1.06787793e-01 0.
      0. 0. 0. 1.52875885e-01 1.11370727e-01 3.50361496e-01 0. 0. 0.
      4.39845845e-02 9.38501433e-02 2.07991377e-01 0.</_>
    <_>
      1.87928736e-01 1.77716345e-01 0. 4.16186526e-02 0. 0.
      6.62394613e-02 1.28573626e-01 8.99194926e-02 5.34664504e-02 0.
      7.99509957e-02 7.99509957e-02 0. 0. 3.11554670e-01 2.31181592e-01
      2.16929868e-01 8.97545218e-02 0. 0. 0. 9.16435122e-02
      2.47261420e-01 1.85020149e-01 2.12729916e-01 0. 0. 9.16344076e-02
      1.03943743e-01 1.11953191e-01 2.75910527e-01 0. 0. 0. 0. 0. 0.
      2.58242100e-01 2.64576852e-01 8.17946717e-02 0. 0. 0. 0. 0.
      5.34664504e-02 0. 1.19704984e-01 1.09719969e-01 0. 0. 0.
      5.26348725e-02 1.83386669e-01 2.95431942e-01 1.36044949e-01
      6.34479597e-02 9.26470980e-02 9.07057300e-02 1.12718359e-01
      1.43220335e-01 1.63997322e-01 1.68714270e-01</_>
    <_>
      1.87928736e-01 1.77716345e-01 0. 4.16186526e-02 0. 0.
      6.62394613e-02 1.28573626e-01 8.99194926e-02 5.34664504e-02 0.
      7.99509957e-02 7.99509957e-02 0. 0. 3.11554670e-01 2.31181592e-01
      2.16929868e-01 8.97545293e-02 0. 0. 0. 9.16435122e-02
      2.47261420e-01 1.85020149e-01 2.12729916e-01 0. 0. 9.16344076e-02
      1.03943743e-01 1.11953191e-01 2.75910527e-01 0. 0. 0. 0. 0. 0.
      2.58242100e-01 2.64576852e-01 8.17946717e-02 0. 0. 0. 0. 0.
      5.34664504e-02 0. 1.19704984e-01 1.09719969e-01 0. 0. 0.
      5.26348762e-02 1.83386669e-01 2.95431942e-01 1.36044949e-01
      6.34479597e-02 9.26470980e-02 9.07057300e-02 1.12718359e-01
      1.43220335e-01 1.63997322e-01 1.68714270e-01</_>
    <_>
      3.48192364e-01 2.17107862e-01 0. 0. 4.29092236e-02 0. 0. 0.
      9.18255299e-02 1.05790898e-01 0. 7.92883262e-02 0. 0. 0. 0.
      3.50103080e-01 1.55409113e-01 0. 0. 7.95695111e-02 1.05874486e-01
      1.34084513e-02 8.22955519e-02 2.56665856e-01 1.23245709e-01
      1.07297309e-01 1.14874400e-01 1.27314016e-01 0. 7.50516579e-02
      8.82549882e-02 0. 0. 0. 0. 7.62074217e-02 9.03023332e-02
      1.73600048e-01 1.17216617e-01 3.31497669e-01 0. 0. 0.
      7.98000917e-02 1.06652655e-01 0. 8.00444484e-02 2.57245868e-01
      1.05793148e-01 0. 7.85266161e-02 0. 0. 2.17578501e-01
      1.58955634e-01 2.87421674e-01 9.32283551e-02 0. 6.52324185e-02
      1.47201598e-01 0. 1.37213141e-01 1.14789024e-01</_>
    <_>
      2.30377853e-01 2.09024295e-01 7.81555176e-02 0. 0. 0.
      7.93078989e-02 1.04233153e-01 9.37615037e-02 9.29896086e-02
      5.42253107e-02 0. 8.90187472e-02 0. 5.89195117e-02 2.43120179e-01
      1.79681078e-01 1.54059604e-01 8.70642737e-02 7.96795189e-02
      7.68978372e-02 0. 1.04183637e-01 1.91704020e-01 1.24836043e-01
      1.54128477e-01 7.03987777e-02 1.51268438e-01 1.28467441e-01 0.
      1.00189000e-01 3.20867538e-01 9.62875858e-02 0. 0. 0. 0. 0.
      1.95759997e-01 2.63950229e-01 1.41903028e-01 9.17181969e-02
      1.16043203e-01 1.02748513e-01 1.56917915e-01 0. 0. 6.99334517e-02
      1.16529614e-01 8.46352652e-02 5.83612435e-02 0. 0. 7.40361363e-02
      2.37563640e-01 2.86885887e-01 1.40370697e-01 0. 0. 0.
      1.53751627e-01 1.10600308e-01 8.54521319e-02 1.95835590e-01</_>
    <_>
      3.39273602e-01 1.61919117e-01 0. 6.82692379e-02 0. 0. 0. 0. 0. 0.
      0. 0. 0. 0. 1.80087134e-01 7.76587278e-02 3.58191103e-01
      2.07935169e-01 7.23675489e-02 0. 8.38443339e-02 1.11100018e-01 0.
      8.51332396e-02 2.68247455e-01 8.60695019e-02 1.13411039e-01
      1.20039500e-01 6.67345077e-02 0. 0. 6.77894056e-02 0. 0. 0. 0. 0.
      0. 1.89473286e-01 1.73013359e-01 3.03845406e-01 1.35672852e-01
      1.05733663e-01 0. 0. 0. 0. 0. 2.34549940e-01 9.69435647e-02
      5.39759435e-02 8.21603090e-02 0. 0. 2.20810309e-01 1.44638494e-01
      3.19849521e-01 0. 0. 0. 1.55328929e-01 1.21001594e-01
      1.54609337e-01 0.</_>
    <_>
      3.55234951e-01 2.23387539e-01 0. 0. 0. 0. 0. 0. 7.95644671e-02
      9.45617631e-02 5.11204638e-02 8.08677673e-02 0. 0. 0. 0.
      3.60562265e-01 9.72711071e-02 5.46086878e-02 0. 8.11545551e-02
      1.07983530e-01 1.36755509e-02 8.39349031e-02 2.46986419e-01
      1.93401501e-02 1.89290911e-01 1.24576695e-01 0. 0. 7.17452690e-02
      1.22538768e-01 0. 0. 0. 0. 0. 0. 2.47566447e-01 1.98889196e-01
      2.76707262e-01 0. 0. 0. 8.13897327e-02 1.08777195e-01 0.
      8.16389546e-02 2.61107147e-01 1.07900567e-01 0. 8.00908878e-02 0.
      0. 1.10442176e-01 8.13897327e-02 3.78227025e-01 0. 0. 0.
      9.01151747e-02 1.28146946e-01 1.53214678e-01 0.</_>
    <_>
      2.04242975e-01 1.98898613e-01 0. 0. 0. 0. 0. 0. 0. 0. 0. 0. 0. 0.
      0. 3.33909690e-01 2.64842749e-01 1.64590135e-01 0. 0.
      8.40675607e-02 0. 1.13258056e-01 1.58483416e-01 1.25221595e-01
      1.61943927e-01 5.64147308e-02 8.24184716e-02 0. 0. 0.
      3.04687887e-01 0. 0. 0. 0. 0. 1.51626229e-01 1.75967678e-01
      3.28233033e-01 1.92753732e-01 0. 0. 0. 0. 0. 0. 0. 1.27229184e-01
      1.17867313e-01 1.62107423e-01 8.51840526e-02 0. 0. 1.01502137e-02
      3.21081191e-01 2.85968870e-01 0. 0. 1.50978044e-01 1.10366546e-01
      1.30230740e-01 1.16220646e-01 8.59684348e-02</_>
    <_>
      3.22434902e-01 2.24520475e-01 0. 6.53586313e-02 0. 0. 0.
      8.50435942e-02 1.64100930e-01 0. 0. 7.82248750e-02 5.98839000e-02
      0. 0. 0. 3.32079470e-01 1.42080665e-01 4.18308564e-02 0.
      7.79678002e-02 1.03743255e-01 1.31385420e-02 8.06389600e-02
      2.49483794e-01 1.85383320e-01 1.05175354e-01 7.94588923e-02
      1.24751218e-01 0. 8.25939924e-02 1.17721207e-01 1.23278700e-01 0.
      0. 0. 0. 0. 2.22769976e-01 1.62789807e-01 2.77264327e-01 0. 0. 0.
      0. 1.03707656e-01 9.06054303e-02 6.43167198e-02 2.73836821e-01
      1.03663556e-01 0. 7.69458935e-02 0. 0. 2.11721212e-01
      1.53635457e-01 2.72659063e-01 8.85087475e-02 0. 8.68788064e-02
      1.44049257e-01 9.88736302e-02 1.19184397e-01 7.54271895e-02</_>
    <_>
      3.58733743e-01 1.80277482e-01 0. 0. 0. 0. 0. 0. 1.41443774e-01
      9.21301842e-02 0. 7.95396790e-02 0. 0. 0. 0. 3.75091583e-01
      1.53469414e-01 0. 0. 7.95396790e-02 0. 1.06382772e-01
      7.95396790e-02 2.82887548e-01 1.18939556e-01 9.45891514e-02
      7.95396790e-02 0. 0. 0. 0. 1.41443774e-01 0. 0. 0. 0. 0.
      2.10419580e-01 1.37766764e-01 3.16277891e-01 0. 0. 0.
      7.95396790e-02 0. 9.21301842e-02 0. 2.93856978e-01 1.06382772e-01
      0. 7.95396790e-02 0. 0. 1.53469414e-01 1.12486087e-01
      3.57827574e-01 0. 0. 0. 1.49437726e-01 0. 1.06382772e-01
      7.95396790e-02</_>
    <_>
      3.57862532e-01 1.88139662e-01 0. 0. 0. 0. 0. 0. 1.17182106e-01
      9.47402418e-02 5.02009764e-02 0. 0. 0. 0. 0. 3.41534138e-01
      1.82055846e-01 0. 0. 8.04247931e-02 1.07241832e-01 0.
      8.04287046e-02 2.72483796e-01 1.44627824e-01 1.06100008e-01 0.
      1.27585188e-01 0. 0. 1.18456841e-01 1.22384049e-01 1.64478011e-02
      0. 0. 0. 4.55099195e-02 1.70765281e-01 1.17400199e-01
      3.33926737e-01 9.49614309e-03 0. 8.94848183e-02 1.12928804e-02
      5.36264628e-02 0. 0. 2.22999096e-01 9.23766717e-02 4.93816994e-02
      1.49804607e-01 0. 0. 1.78331211e-01 1.13560811e-01 3.40748012e-01
      0. 0. 0. 1.12356223e-01 1.05134584e-01 1.78157330e-01
      1.34584293e-01</_>
    <_>
      3.59473199e-01 1.77897826e-01 0. 0. 0. 0. 0. 0. 1.85859069e-01 0.
      0. 7.88730457e-02 6.03800938e-02 0. 0. 0. 3.52621675e-01
      9.42258164e-02 5.28990403e-02 0. 1.20511003e-01 1.17373593e-01
      1.09223150e-01 8.00760761e-02 2.38467395e-01 1.63982615e-01
      1.17123172e-01 8.03882107e-02 1.24668479e-01 0. 2.09459905e-02
      1.40605748e-01 8.68253484e-02 5.45318350e-02 0. 0. 0. 0.
      1.85403094e-01 1.12021029e-01 3.08898032e-01 7.51394555e-02
      5.05755581e-02 0. 0. 1.04566976e-01 9.13561732e-02 0.
      2.81116635e-01 9.06486511e-02 4.82772514e-02 7.68253282e-02 0. 0.
      1.76919475e-01 1.34669602e-01 3.24410051e-01 0. 0. 0.
      8.64068419e-02 9.33588818e-02 1.60307109e-01 0.</_>
    <_>
      2.86409616e-01 1.76983863e-01 0. 0. 0. 0. 1.32079553e-02 0.
      1.57069936e-02 1.05457067e-01 0. 0. 1.08608499e-01 0. 0.
      2.17272595e-01 2.78931826e-01 1.51517376e-01 5.02459705e-02 0. 0.
      0. 9.33943503e-03 2.15251982e-01 2.83108920e-01 1.70765564e-01
      4.86826003e-02 0. 6.27051443e-02 4.93725464e-02 0. 2.49486461e-01
      0. 0. 0. 0. 0. 0. 1.86821163e-01 2.23564208e-01 2.79985726e-01 0.
      0. 0. 0. 0. 1.17904589e-01 0. 2.04338387e-01 9.27309990e-02 0. 0.
      0. 0. 2.08390564e-01 2.37555161e-01 2.13920623e-01 0.
      8.94936398e-02 0. 0. 1.91165090e-01 1.75421730e-01 1.93966955e-01</_>
    <_>
      3.46101850e-01 1.83465898e-01 0. 0. 0. 0. 0. 8.07189569e-02
      9.07832086e-02 9.34961364e-02 0. 8.07189569e-02 0. 0. 0.
      8.07189569e-02 3.79904360e-01 1.46403611e-01 0. 0. 1.45851612e-01
      0. 5.39800189e-02 8.07189569e-02 3.14894646e-01 1.10128209e-01
      9.34986919e-02 8.07189569e-02 1.28386855e-01 0. 0. 0.
      9.07832086e-02 0. 0. 0. 0. 0. 1.55744806e-01 1.44740298e-01
      3.24795812e-01 5.48202246e-02 0. 0. 8.07189569e-02 0.
      9.34961364e-02 0. 3.01257312e-01 1.20702997e-01 0. 8.07189569e-02
      0. 0. 2.06465781e-01 1.13795720e-01 3.07127178e-01 0. 0. 0.
      1.51440904e-01 0. 9.30085853e-02 0.</_>
    <_>
      3.36324364e-01 2.06716120e-01 0. 0. 0. 0. 0. 0. 9.85647291e-02
      1.31367430e-01 4.99336012e-02 0. 0. 0. 0. 0. 3.20143521e-01
      1.31492823e-01 7.35410079e-02 0. 0. 8.93491060e-02 0.
      7.98254758e-02 3.03780198e-01 1.39775962e-01 1.40975595e-01 0. 0.
      0. 7.33701959e-02 1.48191094e-01 1.28024012e-01 1.89355426e-02 0.
      0. 0. 4.74915765e-02 2.26108313e-01 1.76637828e-01 2.77630538e-01
      0. 0. 8.77945423e-02 1.10374754e-02 5.24136201e-02 0.
      1.10291898e-01 2.87470043e-01 9.02874395e-02 0. 0. 0. 0.
      1.50410533e-01 1.09942608e-01 3.50448221e-01 9.28137358e-03 0. 0.
      8.74554366e-02 6.94947168e-02 1.90842614e-01 1.32869899e-01</_>
    <_>
      2.01423168e-01 1.81265324e-01 0. 0. 0. 0. 0. 8.32709149e-02
      1.10533714e-01 1.26271635e-01 0. 0. 0. 0. 6.72426149e-02
      2.83747971e-01 1.38001457e-01 1.55738294e-01 0. 0. 0.
      1.02842502e-01 9.58354697e-02 2.11941421e-01 1.38908610e-01
      1.32651374e-01 1.45789132e-01 8.06136653e-02 4.29157205e-02 0.
      9.04824063e-02 3.10183823e-01 1.41602322e-01 0. 0. 0. 0. 0.
      2.09152430e-01 3.30935985e-01 1.30010307e-01 0. 0. 3.93290445e-02
      8.87863412e-02 0. 8.69175196e-02 1.24408871e-01 1.17067382e-01
      1.11060143e-01 9.23489556e-02 0. 1.13159209e-01 0. 9.92448628e-02
      3.15124094e-01 1.69779301e-01 8.52951482e-02 0. 1.40718192e-01 0.
      1.24863707e-01 2.02847913e-01 1.89021721e-01</_>
    <_>
      3.71409506e-01 1.41883835e-01 0. 0. 0. 0. 0. 6.02318160e-02
      1.24923363e-01 9.06075910e-02 0. 7.67433643e-02 0. 0. 0. 0.
      3.50977272e-01 1.45700753e-01 4.80482727e-02 0. 7.87930712e-02
      1.04406714e-01 1.63060371e-02 8.31714049e-02 3.01678687e-01
      8.08841810e-02 1.06578499e-01 8.05189535e-02 1.26415521e-01 0. 0.
      1.13656439e-01 1.18367292e-01 0. 0. 0. 0. 0. 2.08393171e-01
      1.38243988e-01 3.07304680e-01 0. 0. 0. 7.92369172e-02
      9.06287059e-02 1.88285913e-02 0. 3.11338216e-01 1.04206242e-01 0.
      7.72104934e-02 0. 0. 1.51894227e-01 1.10449508e-01 3.50053012e-01
      9.41429567e-03 0. 0. 1.45971015e-01 4.45122346e-02 1.11859649e-01
      0.</_>
    <_>
      3.73896182e-01 8.80635716e-03 0. 0. 1.38923019e-01 0.
      9.86568630e-02 7.31715560e-02 1.82540953e-01 1.10476896e-01 0.
      1.38923019e-01 5.91260530e-02 0. 4.97188866e-02 0. 3.73887450e-01
      1.24540702e-02 0. 1.18024573e-01 7.45828599e-02 9.94519442e-02
      8.80635716e-03 7.57400468e-02 2.44854361e-01 8.80635716e-03 0.
      7.43470788e-02 7.43470788e-02 8.84140730e-02 0. 0. 1.39809534e-01
      0. 9.94519442e-02 7.45828599e-02 1.18252113e-01 0. 2.64310360e-01
      1.29712552e-01 2.30533019e-01 1.24763094e-01 6.97772205e-02 0.
      7.45828599e-02 1.33175179e-01 1.12547353e-01 7.59629607e-02
      1.39116332e-01 1.50157005e-01 8.82772431e-02 7.36447722e-02 0. 0.
      0. 0. 3.21240127e-01 2.23781854e-01 0. 0. 7.43470788e-02
      8.84140730e-02 1.50495365e-01 7.43470788e-02</_>
    <_>
      1.61518469e-01 7.60523751e-02 1.02277100e-01 6.80703670e-02
      6.89743981e-02 9.21913236e-02 9.88125950e-02 1.90552667e-01
      1.08894385e-01 1.27927959e-01 7.80985057e-02 6.93860948e-02
      1.10483326e-01 5.12521230e-02 2.01316997e-02 3.02349269e-01
      1.10361457e-01 0. 0. 0. 1.04522653e-01 1.15064785e-01
      1.38504058e-01 1.49814457e-01 1.37395158e-01 1.48692101e-01
      4.35173698e-02 7.77319223e-02 0. 0. 1.00482255e-01 3.14036816e-01
      7.57467896e-02 1.39214784e-01 1.22252204e-01 9.75255221e-02
      1.10305965e-01 1.10783800e-01 1.06002584e-01 2.54770309e-01
      1.43934980e-01 1.32079810e-01 0. 0. 1.42495751e-01 1.38837948e-01
      9.84404758e-02 1.27678394e-01 7.08941370e-02 1.41526341e-01
      1.09586284e-01 0. 9.69583988e-02 6.61737546e-02 1.24991544e-01
      2.15438917e-01 1.65750638e-01 1.62728444e-01 8.89031366e-02
      1.19333707e-01 7.80373365e-02 8.03715661e-02 1.34213194e-01
      1.97135791e-01</_>
    <_>
      3.19102973e-01 0. 0. 0. 1.13153234e-01 9.55301523e-02
      9.64855850e-02 7.13704079e-02 2.07128391e-01 4.75750715e-02
      9.51637104e-02 7.13669434e-02 1.26509160e-01 0. 8.42663832e-03
      1.58636540e-01 3.18788111e-01 0. 0. 0. 0. 9.58676115e-02
      1.27341032e-01 1.32951915e-01 2.48543248e-01 1.27322465e-01 0. 0.
      9.79935750e-02 0. 0. 1.59400254e-01 1.92398340e-01 9.47782546e-02
      9.65859890e-02 1.00147396e-01 0. 0. 1.59186363e-01 1.32878661e-01
      2.72054821e-01 1.36791214e-01 0. 0. 1.32693350e-01 0.
      9.47782546e-02 1.04832634e-01 2.16094553e-01 1.36708722e-01
      8.15570876e-02 0. 0. 0. 1.37523472e-01 2.04549208e-01
      2.17761427e-01 1.53519437e-01 6.40848428e-02 0. 1.00609034e-01
      8.46017748e-02 9.55225602e-02 1.75009459e-01</_>
    <_>
      3.45553190e-01 1.48516307e-02 0. 3.61497886e-02 1.83968633e-01
      9.31903124e-02 1.33869439e-01 6.20860718e-02 1.44343749e-01
      1.63207889e-01 0. 1.29934818e-01 5.60733788e-02 0. 4.71519046e-02
      0. 3.52641821e-01 1.70388259e-02 0. 0. 1.33093193e-01
      9.45930257e-02 1.53325275e-01 1.01423986e-01 1.87909260e-01
      8.63632858e-02 1.08311571e-01 6.91439509e-02 1.20017193e-01
      8.38492587e-02 0. 0. 1.75776079e-01 1.13436915e-01 1.26562864e-01
      9.73777920e-02 1.58927485e-01 1.28331155e-01 1.00597613e-01
      7.88659602e-02 2.81500548e-01 1.48516307e-02 5.32609634e-02 0.
      7.92997405e-02 7.93618932e-02 7.17546269e-02 0. 2.43524462e-01
      8.82229283e-02 0. 1.29163846e-01 0. 0. 0. 0. 3.21988940e-01
      1.09375983e-01 1.25320554e-01 0. 1.46766558e-01 4.19082120e-02
      9.31957439e-02 6.89434782e-02</_>
    <_>
      2.02183634e-01 8.96041915e-02 0. 0. 1.75423786e-01 9.52838957e-02
      0. 1.72066972e-01 7.27348328e-02 1.16803929e-01 1.27936155e-01
      1.01334944e-01 1.38004526e-01 0. 1.68642476e-02 2.79682487e-01
      1.31950930e-01 8.35955217e-02 4.54321876e-02 1.09080546e-01
      6.91553056e-02 1.12468153e-01 1.33431345e-01 1.42330229e-01
      1.74170315e-01 1.35849804e-01 8.46568421e-02 0. 8.00634995e-02 0.
      1.30127564e-01 2.85347342e-01 1.06434129e-01 1.17508426e-01
      8.34637806e-02 1.32197186e-01 0. 0. 1.86084732e-01 2.34172523e-01
      1.44285455e-01 9.33450088e-02 8.15915689e-02 9.05942768e-02
      1.38754800e-01 1.36953309e-01 8.90580639e-02 8.40622857e-02
      1.17325142e-01 1.26439199e-01 1.17277533e-01 1.02875024e-01 0.
      6.73292503e-02 1.27331957e-01 1.83467954e-01 1.90066054e-01
      1.60870135e-01 1.11976653e-01 6.70480579e-02 9.04002711e-02
      1.45139664e-01 4.76060398e-02 1.68662652e-01</_>
    <_>
      3.56787920e-01 1.34334505e-01 5.49716651e-02 0. 7.02625737e-02
      8.85090604e-02 1.06141478e-01 0. 9.66484025e-02 4.26914394e-02
      7.34107867e-02 1.06878273e-01 0. 0. 0. 0. 3.17392886e-01 0. 0. 0.
      1.20684907e-01 1.05731986e-01 1.10110186e-01 8.82206932e-02
      1.71971992e-01 7.87399560e-02 1.01051331e-01 7.63432384e-02
      1.18990526e-01 0. 1.66663647e-01 1.41561374e-01 3.73022631e-02
      8.14483985e-02 1.01599649e-01 7.71308020e-02 1.18433833e-01
      2.78389543e-01 1.33102417e-01 9.10021514e-02 2.33097717e-01
      1.92449301e-01 0. 8.24635550e-02 1.14964433e-01 1.01751059e-01
      8.18065926e-02 3.82443890e-02 1.36453241e-01 1.22638717e-01
      1.35577768e-01 0. 0. 0. 1.99819088e-01 1.06957413e-01
      2.20563114e-01 1.83345422e-01 1.87811419e-01 8.24338198e-02
      7.24785700e-02 8.89610648e-02 1.48899913e-01 6.81617036e-02</_>
    <_>
      3.53513479e-01 8.32572393e-03 0. 0. 1.30635262e-01 0.
      9.25322324e-02 6.80484846e-02 2.50012994e-01 1.14837661e-01
      1.14840835e-01 0. 0. 0. 0. 0. 3.04780334e-01 1.44205764e-02 0.
      1.11177638e-01 7.09720328e-02 9.41078067e-02 0. 7.07534477e-02
      2.70276487e-01 9.56177488e-02 5.00218086e-02 7.12085813e-02 0. 0.
      1.35465547e-01 1.24099635e-01 1.85312703e-01 1.45572767e-01
      1.26030877e-01 7.07398802e-02 0. 0. 1.35261700e-01 1.23530336e-01
      2.81024486e-01 1.34936109e-01 0. 1.11805022e-01 0. 9.36490223e-02
      1.64958611e-01 6.57312572e-02 2.03406081e-01 1.40751183e-01
      1.55431911e-01 6.82826787e-02 0. 0. 0. 0. 3.11447352e-01
      9.17903334e-02 1.27293080e-01 1.26333579e-01 7.90532306e-02 0.
      9.58986804e-02 7.02893585e-02</_>
    <_>
      3.55122000e-01 1.53467981e-02 0. 0. 7.14777708e-02 9.69664827e-02
      1.38050646e-01 6.54391795e-02 2.23388731e-01 9.74465534e-02 0.
      1.32123441e-01 3.55217345e-02 0. 0. 0. 3.55978072e-01
      3.00971400e-02 0. 0. 0. 0. 0. 0. 3.23942602e-01 0. 9.70893353e-02
      7.30904266e-02 1.15662858e-01 0. 8.63013882e-03 0. 2.07834437e-01
      8.40342939e-02 1.40230760e-01 7.24270567e-02 0. 0. 1.49598002e-01
      1.11970112e-01 2.85543412e-01 1.22483544e-01 5.09758070e-02 0.
      1.18616126e-01 8.44753683e-02 9.95647162e-02 7.55531713e-02
      2.71593273e-01 1.15555137e-01 0. 0. 0. 0. 1.30888462e-01
      1.01742633e-01 3.16031635e-01 0. 0. 0. 7.21711069e-02
      8.63803625e-02 1.38414651e-01 6.74299151e-02</_>
    <_>
      1.51915073e-01 1.52125984e-01 8.88395160e-02 1.07404336e-01
      1.31706536e-01 1.25794217e-01 1.21249199e-01 1.58514291e-01
      8.98148566e-02 7.88617730e-02 9.41005424e-02 7.22435713e-02
      1.08504593e-01 1.14933439e-01 3.23792100e-02 2.65782535e-01
      1.52968466e-01 9.84925926e-02 1.14933439e-01 0. 1.20810322e-01
      1.18550122e-01 1.10082880e-01 1.96021095e-01 1.00991413e-01
      1.11086808e-01 8.07880014e-02 1.27361596e-01 7.99900442e-02
      8.07717070e-02 1.18292145e-01 2.65546530e-01 5.68767525e-02
      9.33843255e-02 1.42289355e-01 8.91527310e-02 1.54630721e-01
      1.99933454e-01 1.30499393e-01 1.19601481e-01 1.73735335e-01
      1.66386127e-01 0. 0. 1.05924323e-01 1.21064335e-01 1.18951261e-01
      5.63592613e-02 1.29295066e-01 1.27243236e-01 1.43733203e-01 0. 0.
      4.98522669e-02 1.44206882e-01 1.99597761e-01 1.86314583e-01
      1.79356456e-01 0. 0. 9.66509208e-02 1.63381934e-01 2.91862264e-02
      1.05857126e-01</_>
    <_>
      3.52558404e-01 8.48308057e-02 9.48915035e-02 0. 1.37843907e-01
      6.36504814e-02 8.46873149e-02 6.82193115e-02 1.67739123e-01
      1.41131401e-01 0. 1.22982934e-01 0. 0. 0. 0. 3.66408467e-01
      2.80437395e-02 0. 1.16896681e-01 7.57535547e-02 9.97783989e-02
      7.55816177e-02 0. 2.68092006e-01 0. 9.89678577e-02 7.45046064e-02
      1.17900744e-01 0. 8.79711751e-03 0. 1.78922832e-01 0.
      9.94083658e-02 7.47450963e-02 1.36556491e-01 1.21152043e-01
      1.71777770e-01 1.39104769e-01 2.81985730e-01 1.56437326e-02 0. 0.
      1.09418176e-01 1.30724683e-01 7.52965137e-02 0. 8.68403316e-02
      1.28896117e-01 1.75580397e-01 7.95554072e-02 0. 0. 1.31163090e-01
      7.42767379e-02 2.82497704e-01 1.66279763e-01 0. 0. 7.35675022e-02
      1.29866660e-01 1.72807798e-01 4.84694317e-02</_>
    <_>
      1.17282607e-01 0. 0. 0. 1.39052421e-01 9.88787189e-02
      7.70470425e-02 1.20483622e-01 8.24776888e-02 1.16187781e-01
      1.10877171e-01 1.33520126e-01 8.29313323e-02 0. 1.55317727e-02
      3.51646960e-01 1.01569720e-01 0. 0. 0. 1.16341062e-01
      8.12937468e-02 1.08822137e-01 2.44247496e-01 7.32741505e-02
      8.49642307e-02 0. 8.26067552e-02 1.03787899e-01 7.59833679e-02
      8.51246119e-02 3.37774575e-01 6.84601963e-02 9.51333120e-02 0.
      1.35425314e-01 0. 0. 1.08714506e-01 3.37688386e-01 1.17282607e-01
      0. 0. 0. 1.00816920e-01 1.17731445e-01 1.30458072e-01
      1.35081783e-01 7.44853988e-02 1.95301715e-02 1.40250251e-01
      1.04154453e-01 0. 0. 1.78191327e-02 2.61695892e-01 1.66405708e-01
      1.73780471e-01 9.41048563e-02 1.36901811e-01 0. 1.32263541e-01
      1.01093814e-01 2.16331080e-01</_>
    <_>
      1.93805039e-01 1.75664816e-02 0. 1.17086530e-01 7.51216486e-02
      9.94343832e-02 7.54623935e-02 1.93368658e-01 0. 9.10636038e-02
      1.00194968e-01 1.06492333e-01 1.44448489e-01 0. 1.78347491e-02
      3.07084948e-01 1.74890280e-01 1.09186329e-01 0. 1.08986780e-01
      7.76072666e-02 4.35473509e-02 1.00266360e-01 2.14263886e-01
      1.86833233e-01 8.54417011e-02 0. 8.30709785e-02 0. 0.
      8.78324080e-03 3.02002490e-01 9.18620899e-02 1.20684050e-01
      8.62571001e-02 7.01167509e-02 0. 0. 1.59040481e-01 1.90694824e-01
      1.94588214e-01 1.93281144e-01 0. 9.39062908e-02 1.51633233e-01 0.
      8.23891535e-02 1.57177523e-01 0. 1.02361336e-01 1.33343905e-01
      1.10746406e-01 7.39255473e-02 9.76690948e-02 1.27620429e-01
      2.01015815e-01 1.71991423e-01 1.95387647e-01 0. 5.85102178e-02 0.
      8.77662525e-02 4.95883748e-02 2.38497555e-01</_>
    <_>
      1.77423358e-01 1.69420198e-01 8.43604431e-02 1.33818701e-01 0.
      1.07099071e-01 8.62572715e-02 1.35248229e-01 7.83523768e-02
      1.18931457e-01 1.27730727e-01 1.01124130e-01 1.33161172e-01 0.
      1.45990252e-02 2.77290672e-01 1.13181598e-01 0. 0. 0.
      1.73672721e-01 0. 9.32973176e-02 2.36462384e-01 7.07119778e-02
      1.35795474e-01 8.46229866e-02 0. 0. 8.46229866e-02 1.11660443e-01
      3.26961190e-01 6.84285983e-02 8.15659165e-02 4.45154049e-02
      1.32251814e-01 1.07076861e-01 5.14170676e-02 1.84830680e-01
      2.14061916e-01 1.87143639e-01 1.36447921e-01 0. 0. 6.91276491e-02
      8.42409208e-02 1.48824707e-01 1.32153541e-01 7.16289952e-02 0.
      8.11789185e-02 7.55216330e-02 1.13181606e-01 4.83388752e-02
      8.53287131e-02 2.37222165e-01 1.80873737e-01 1.81432486e-01
      4.24565971e-02 0. 0. 9.55540985e-02 1.58861071e-01 2.07953811e-01</_>
    <_>
      2.71902293e-01 1.66855082e-01 8.07949975e-02 9.60819870e-02
      1.08061738e-01 0. 1.58449888e-01 6.79402202e-02 1.91646963e-01
      1.20208032e-01 0. 6.79402202e-02 1.58275768e-01 0. 1.60550117e-01
      1.17675915e-01 2.86731809e-01 1.38738990e-01 8.07949975e-02
      6.79402202e-02 1.27644882e-01 0. 9.08687338e-02 6.79402202e-02
      2.39089742e-01 1.37526438e-01 8.07949975e-02 6.79402202e-02
      1.27644882e-01 0. 1.31088614e-01 9.60819870e-02 1.27644882e-01
      9.08687338e-02 0. 6.79402202e-02 1.27644882e-01 8.07949975e-02
      1.89994067e-01 1.17675915e-01 2.36518726e-01 1.31088614e-01 0. 0.
      9.60819870e-02 8.07949975e-02 1.44837156e-01 6.79402202e-02
      1.99117795e-01 1.01594329e-01 8.07949975e-02 9.60819870e-02 0. 0.
      1.31088614e-01 9.60819870e-02 2.20013410e-01 2.23333254e-01
      8.07949975e-02 6.79402202e-02 5.40308692e-02 8.07949975e-02
      1.29804626e-01 6.79402202e-02</_>
    <_>
      3.58858377e-01 8.45178869e-03 0. 0. 1.33329600e-01 0.
      9.46846679e-02 7.02254698e-02 2.08382025e-01 1.05358377e-01 0.
      1.50590941e-01 8.02502260e-02 0. 0. 0. 3.58858377e-01
      4.69626002e-02 8.43337923e-02 9.09806788e-02 7.14237839e-02
      4.77639660e-02 1.19526349e-02 1.28109500e-01 2.64323056e-01
      8.30794126e-02 0. 0. 8.02502260e-02 0. 0. 0. 7.20330179e-02
      1.43499196e-01 1.60186067e-01 7.15799481e-02 6.93165883e-02
      1.17606938e-01 1.65996000e-01 1.32064164e-01 2.78486937e-01
      8.45178869e-03 0. 0. 1.52080119e-01 1.19704284e-01 1.08605489e-01
      7.22462386e-02 2.37033993e-01 8.17888528e-02 0. 1.31887466e-01 0.
      0. 0. 0. 3.08064163e-01 1.53087765e-01 1.43670976e-01 0. 0.
      8.48542824e-02 1.36166647e-01 7.09052533e-02</_>
    <_>
      2.64671654e-01 9.47799087e-02 0. 1.13336973e-01 7.16206357e-02
      1.27885833e-01 1.09671354e-01 1.34514302e-01 9.41813216e-02
      1.53504640e-01 1.15133107e-01 7.13942200e-02 1.26422003e-01 0.
      1.46472491e-02 2.27045387e-01 2.27110937e-01 0. 0. 0.
      1.75190866e-01 0. 9.51151699e-02 1.75175741e-01 1.34134188e-01
      1.36403725e-01 8.49025100e-02 0. 8.02958384e-02 0. 1.37424320e-01
      2.48741224e-01 6.98094964e-02 1.43398002e-01 8.47711191e-02
      9.20771956e-02 8.03155899e-02 9.75530669e-02 1.86988816e-01
      2.02397287e-01 1.80895478e-01 1.37194693e-01 0. 0. 7.13942200e-02
      0. 1.77117124e-01 1.32953957e-01 1.34256691e-01 0. 9.55019966e-02
      7.16206357e-02 1.13555469e-01 0. 8.45659338e-03 1.60465926e-01
      2.59212643e-01 1.74785018e-01 1.26125515e-01 7.00404122e-02 0.
      8.49025100e-02 1.36665612e-01 1.75631568e-01</_>
    <_>
      3.01985651e-01 1.46536589e-01 0. 3.74774523e-02 6.87877163e-02
      9.39558148e-02 1.93169922e-01 1.03336878e-01 0. 1.16216727e-01
      1.36096239e-01 1.33989468e-01 1.14918470e-01 0. 1.08820401e-01
      6.40866905e-02 2.75554270e-01 3.85493301e-02 0. 0. 1.36940509e-01
      9.76266488e-02 1.54292583e-01 6.20055310e-02 1.97172463e-01 0.
      8.36971104e-02 0. 1.81702062e-01 7.97007903e-02 1.26007855e-01
      1.19214140e-01 1.23828188e-01 0. 1.36774883e-01 1.43450826e-01
      7.79952109e-02 8.40155035e-02 1.89692095e-01 1.11390918e-01
      2.05737188e-01 1.59813732e-01 9.85340998e-02 0. 1.29766181e-01
      8.39634463e-02 1.68994576e-01 7.64390752e-02 1.98253348e-01
      1.27977297e-01 8.02494138e-02 1.13240033e-01 5.83133772e-02 0.
      1.44840285e-01 6.94786981e-02 2.49081045e-01 1.36041015e-01
      7.92607591e-02 1.21227369e-01 9.90090445e-02 1.41146675e-01
      9.55095142e-02 0.</_>
    <_>
      3.41070563e-01 1.28631383e-01 1.19272560e-01 0. 1.37867659e-01 0.
      1.08113945e-01 7.18158707e-02 1.48735136e-01 1.22454397e-01
      1.21374846e-01 7.20630288e-02 0. 0. 0. 0. 3.73081237e-01
      8.78666341e-03 0. 0. 7.37406686e-02 1.41112760e-01 1.02680780e-01
      7.67127723e-02 1.82748139e-01 5.03798500e-02 8.59254003e-02
      7.41808116e-02 1.17987663e-01 0. 0. 0. 1.83758691e-01
      1.24262180e-02 9.92715657e-02 7.46562779e-02 1.90753192e-01
      1.58853039e-01 1.52189471e-02 7.83127695e-02 3.29090714e-01
      1.75733268e-02 0. 1.17332801e-01 7.87285268e-02 8.46260414e-02 0.
      7.76265338e-02 1.81893602e-01 1.48803294e-01 8.79470408e-02
      7.27741644e-02 0. 0. 1.42965361e-01 1.04578398e-01 2.67573088e-01
      2.02317119e-01 1.01909421e-01 0. 1.39174357e-01 0. 9.88276154e-02
      7.37146363e-02</_>
    <_>
      1.11806646e-01 1.17752468e-02 0. 1.11384638e-01 7.07452595e-02
      9.40710381e-02 1.35584995e-01 1.24546990e-01 7.81905577e-02
      1.08972825e-01 1.05297938e-01 1.28247172e-01 1.29460752e-01
      9.80876461e-02 1.66527145e-02 3.35399002e-01 1.58118472e-01
      4.47420664e-02 8.28349143e-02 7.09774271e-02 1.30127266e-01 0.
      9.25392732e-02 2.58876145e-01 7.02947080e-02 8.14218149e-02 0. 0.
      1.11806653e-01 0. 8.32635723e-03 3.16210896e-01 6.75973147e-02
      1.40728071e-01 8.33397657e-02 6.89617544e-02 1.09919168e-01
      1.40285134e-01 1.79001689e-01 1.48166895e-01 1.77931219e-01
      1.91105545e-01 0. 0. 7.02947080e-02 1.13024242e-01 1.47956878e-01
      6.73675984e-02 7.29167834e-02 1.44216735e-02 1.35124683e-01
      9.88026261e-02 0. 0. 1.64086461e-01 1.73174530e-01 1.66898668e-01
      2.21388772e-01 1.15578465e-01 6.76089823e-02 0. 8.35949704e-02
      1.34480551e-01 2.06142187e-01</_>
    <_>
      3.40227067e-01 1.03468560e-01 0. 0. 1.81404129e-01 6.82960674e-02
      1.45702139e-01 1.20797917e-01 1.37384444e-01 1.28275186e-01 0.
      1.27904996e-01 1.08846091e-01 0. 3.88790779e-02 0. 3.52659881e-01
      3.23686190e-02 9.91326794e-02 1.28740683e-01 7.15821162e-02
      9.42840204e-02 1.21758990e-01 7.32035711e-02 2.08393916e-01
      1.34719297e-01 4.76733036e-02 9.95851457e-02 1.04946360e-01
      9.61142629e-02 0. 0. 1.29517913e-01 9.27472115e-02 1.36230186e-01
      7.08609819e-02 1.49902046e-01 1.50998473e-01 1.47632405e-01
      1.22296043e-01 2.20202029e-01 1.26421213e-01 4.12143916e-02 0.
      9.82023701e-02 1.35838717e-01 7.11502507e-02 0. 1.71000540e-01
      1.21119469e-01 1.35807082e-01 0. 0. 0. 9.61289704e-02
      6.74864128e-02 2.98424065e-01 1.67242214e-01 0. 0. 9.83613878e-02
      9.42041725e-02 9.23976228e-02 6.70293272e-02</_>
    <_>
      1.21060394e-01 1.09112367e-01 1.24545678e-01 1.50572717e-01
      1.89702347e-01 1.24852106e-01 1.14434913e-01 0. 7.79950246e-02
      1.64527625e-01 9.70353335e-02 1.10007092e-01 0. 6.18769117e-02
      1.57242715e-01 2.03042626e-01 1.51900887e-01 1.33359939e-01 0. 0.
      1.18863612e-01 1.00119203e-01 1.68982551e-01 9.05877575e-02
      5.73625118e-02 1.70885816e-01 3.69246043e-02 9.44576189e-02 0. 0.
      1.48009926e-01 2.48966739e-01 8.44788253e-02 1.49087355e-01
      1.49758145e-01 7.45282993e-02 1.31082565e-01 1.55947492e-01
      1.15496919e-01 2.16592610e-01 1.15166619e-01 1.10021949e-01
      8.95598382e-02 1.02268778e-01 1.23864725e-01 1.59034863e-01
      8.11806470e-02 0. 0. 1.10897869e-01 1.66022897e-01 1.07024327e-01
      1.09524705e-01 0. 1.17306314e-01 2.36843824e-01 1.58607587e-01
      8.42831954e-02 1.81025356e-01 0. 1.46382570e-01 1.57825872e-01
      1.12716146e-01 1.01390459e-01</_>
    <_>
      2.09462553e-01 8.73295590e-03 1.21217877e-01 1.32106066e-01
      1.38527349e-01 4.93166037e-02 4.93044741e-02 2.12470919e-01
      7.78750107e-02 1.23502640e-02 9.86647755e-02 7.41999447e-02
      1.16823852e-01 4.93166037e-02 1.51259229e-02 2.87200958e-01
      2.34532937e-01 0. 0. 0. 1.16499595e-01 0. 1.38156697e-01
      2.15337083e-01 1.38271645e-01 1.31770179e-01 0. 5.81752397e-02
      8.29199106e-02 0. 1.03518598e-01 2.71517754e-01 7.04222396e-02
      1.31223530e-01 9.97155085e-02 7.30309337e-02 9.56546888e-02 0.
      1.57397464e-01 2.64459848e-01 1.45082816e-01 1.33242399e-01 0. 0.
      7.23293424e-02 9.76914391e-02 1.39979124e-01 6.92011341e-02
      1.38108179e-01 1.41910434e-01 1.18895665e-01 1.65823884e-02 0. 0.
      1.33362070e-01 1.96449846e-01 2.38606155e-01 1.32660285e-01
      8.40574056e-02 7.06573352e-02 1.03852926e-02 8.54001939e-02
      1.64362729e-01 1.37672246e-01</_>
    <_>
      1.49597362e-01 1.29097015e-01 9.82122645e-02 7.92416409e-02
      7.10091144e-02 9.49109271e-02 2.29938198e-02 2.35822380e-01 0.
      8.72239619e-02 9.60156173e-02 1.02036051e-01 1.38186619e-01 0.
      2.56113652e-02 2.99873501e-01 1.13617077e-01 0. 0. 0.
      1.30857274e-01 0. 9.33608264e-02 2.62189507e-01 8.69323015e-02
      9.24963430e-02 0. 8.00249726e-02 0. 0. 1.04534961e-01
      3.27439666e-01 9.63554755e-02 9.32985842e-02 1.10495917e-01
      6.84584454e-02 3.39761637e-02 8.89719501e-02 1.78376719e-01
      2.07924247e-01 1.67537168e-01 1.59666494e-01 0. 0. 1.01869032e-01
      8.42148587e-02 1.34689420e-01 1.53275028e-01 0. 7.24211633e-02
      8.07459205e-02 7.83423558e-02 1.13617077e-01 6.65864646e-02
      1.19720347e-01 2.21125439e-01 1.61705166e-01 1.61783114e-01
      8.27967301e-02 1.38109043e-01 0. 1.27850249e-01 9.67715010e-02
      2.35929295e-01</_>
    <_>
      3.36859226e-01 7.95597285e-02 1.20250426e-01 7.76681080e-02
      7.02002794e-02 9.50538144e-02 1.34634852e-01 6.55885562e-02
      1.96012273e-01 1.14673816e-01 1.13855951e-01 9.40849558e-02
      8.15759227e-02 4.32633236e-02 0. 0. 3.49495113e-01 2.22096760e-02
      0. 7.98818916e-02 7.97059610e-02 7.97684416e-02 7.21222088e-02 0.
      2.88487047e-01 0. 9.44281965e-02 7.10944906e-02 1.32609621e-01
      8.41483697e-02 5.02792969e-02 0. 1.31062448e-01 9.40034166e-02
      1.58783004e-01 0. 8.71004909e-02 8.79293978e-02 1.93396747e-01
      1.03186607e-01 2.06854582e-01 1.81877106e-01 3.93891111e-02 0. 0.
      8.21439177e-02 1.58471599e-01 7.28458539e-02 1.35446370e-01
      1.61003470e-01 1.11983962e-01 0. 0. 0. 1.85823500e-01
      1.41868308e-01 2.23739579e-01 1.55125082e-01 0. 0. 0.
      4.43343446e-02 2.22207859e-01 6.29212558e-02</_>
    <_>
      1.97192267e-01 1.40220731e-01 1.21638134e-01 1.34537250e-01
      6.94493651e-02 6.75852448e-02 1.67225040e-02 1.66591719e-01
      1.42781630e-01 4.84052971e-02 9.26487222e-02 9.83393490e-02
      1.34801269e-01 0. 8.19663797e-03 2.46062770e-01 1.90637782e-01 0.
      1.04059845e-01 1.25055060e-01 6.72239959e-02 0. 9.07280743e-02
      2.29013309e-01 1.29779965e-01 1.32055908e-01 8.22926164e-02 0.
      7.78275505e-02 0. 8.19663797e-03 2.91172236e-01 1.10064782e-01
      1.00178547e-01 8.20413902e-02 1.28963843e-01 1.30540460e-01
      1.12541996e-01 1.69295788e-01 1.62127957e-01 1.73844829e-01
      1.86195567e-01 0. 0. 1.45595968e-01 0. 1.36843041e-01
      9.66394320e-02 1.31402954e-01 1.41969938e-02 9.26054716e-02
      1.29731715e-01 0. 9.29227099e-02 1.62135363e-01 1.84382081e-01
      1.64567739e-01 2.06856370e-01 0. 0. 0. 8.22926164e-02
      1.32131457e-01 2.02930629e-01</_>
    <_>
      2.36123249e-01 1.29678860e-01 0. 0. 1.27413794e-01 1.21369332e-01
      1.03196211e-01 1.28110304e-01 7.00689629e-02 1.03539750e-01
      1.28891498e-01 9.55380052e-02 1.26620114e-01 9.31572616e-02
      8.02568253e-03 2.15476155e-01 2.55157590e-01 9.07403231e-02
      1.30172372e-01 9.46311355e-02 6.64714649e-02 1.19582288e-01
      1.02554500e-01 1.65905252e-01 1.58972308e-01 1.45561352e-01
      4.31780107e-02 0. 1.07769184e-01 0. 1.27908334e-01 1.78744927e-01
      1.26505196e-01 7.80723169e-02 4.38790806e-02 1.26607642e-01
      1.60246491e-01 1.22673251e-01 8.95579085e-02 1.97763354e-01
      2.09546059e-01 1.30282432e-01 0. 0. 1.75595000e-01 8.00820142e-02
      9.97190028e-02 1.26412690e-01 1.27415553e-01 4.67112660e-02
      1.52433679e-01 1.17609330e-01 0. 0. 1.30979836e-01 1.79927364e-01
      1.93035603e-01 1.98918730e-01 4.31393050e-02 0. 7.62043148e-02
      8.05762559e-02 1.29701734e-01 1.66682169e-01</_>
    <_>
      3.51823777e-01 1.47405434e-02 0. 0. 1.29199341e-01 0.
      9.10257399e-02 6.61444217e-02 2.17441559e-01 9.05568153e-02
      9.49336737e-02 7.72030950e-02 0. 0. 0. 0. 3.33247364e-01
      1.02791712e-01 9.85919237e-02 7.90146366e-02 0. 7.81561956e-02
      7.17845783e-02 0. 2.63275057e-01 1.30339995e-01 9.32677314e-02
      6.97675124e-02 6.93200901e-02 9.58427787e-02 0. 6.85189590e-02
      1.70728594e-01 7.09492788e-02 9.37425494e-02 7.06608295e-02
      1.64294764e-01 1.29998788e-01 1.63372740e-01 1.26820788e-01
      2.41853058e-01 1.27554938e-01 3.98148969e-02 0. 1.28041238e-01
      1.25483066e-01 1.03850856e-01 7.25685433e-02 1.75297275e-01
      1.08822666e-01 1.37532070e-01 1.02501906e-01 0. 0. 1.33618772e-01
      9.69340354e-02 2.88887084e-01 1.32949710e-01 0. 0. 9.85111743e-02
      1.24442197e-01 1.40740916e-01 6.52154982e-02</_>
    <_>
      1.98891878e-01 1.26064807e-01 1.57437369e-01 1.20800510e-01
      8.21291730e-02 1.08753584e-01 8.28243941e-02 1.53011650e-01
      7.47560039e-02 8.35025385e-02 1.06797822e-01 7.92641714e-02 0. 0.
      2.41491664e-02 2.87006259e-01 1.28943577e-01 0. 0. 3.13275680e-02
      5.73555678e-02 0. 8.82608667e-02 1.82532981e-01 1.20311223e-01
      1.13947935e-01 4.94895838e-02 7.79716149e-02 0. 0. 1.14085324e-01
      3.48718524e-01 1.17687285e-01 1.18086226e-01 0. 1.48413271e-01 0.
      0. 1.45626053e-01 2.03357667e-01 2.34916255e-01 1.93690926e-01 0.
      0. 0. 1.41031057e-01 1.07087538e-01 8.56296867e-02 1.12900257e-01
      8.23834613e-02 8.66963714e-02 0. 1.13824196e-01 0. 1.72062382e-01
      2.35582203e-01 1.99776173e-01 1.84278265e-01 0. 1.26613870e-01
      8.21291730e-02 9.80847180e-02 0. 1.88031659e-01</_>
    <_>
      1.58601433e-01 0. 0. 0. 1.32712916e-01 9.43583623e-02
      1.18112126e-02 1.33904099e-01 1.34243712e-01 4.93215360e-02
      9.44024250e-02 1.00200765e-01 1.37352869e-01 0. 8.35178886e-03
      3.17176729e-01 1.94246277e-01 0. 0. 0. 1.31044239e-01 0.
      9.31968912e-02 2.34391600e-01 1.32471815e-01 8.16705003e-02 0. 0.
      7.93007165e-02 0. 8.35178886e-03 2.96683729e-01 1.31051734e-01
      8.08211416e-02 0. 1.30804807e-01 1.51434347e-01 1.25539109e-01
      1.36190355e-01 2.17063844e-01 1.72952861e-01 1.57662764e-01 0. 0.
      2.01553255e-01 0. 9.31968912e-02 1.30946860e-01 7.13914260e-02
      1.06341094e-01 1.26425430e-01 7.09613413e-02 1.12148151e-01 0.
      1.35965854e-01 2.18463182e-01 1.67312890e-01 1.71721563e-01
      1.23668402e-01 6.78154826e-02 7.93007165e-02 8.38502944e-02
      1.34632513e-01 2.06771821e-01</_>
    <_>
      2.59011030e-01 5.00358641e-02 8.37409571e-02 1.31967589e-01
      7.07502812e-02 9.43414271e-02 0. 1.71995863e-01 1.72088459e-01
      4.71639931e-02 9.43813846e-02 1.00059852e-01 1.72797665e-01
      9.69661549e-02 1.44692520e-02 2.38644630e-01 2.49253258e-01
      4.56603691e-02 8.33563060e-02 7.09786564e-02 1.31076217e-01
      4.19313461e-02 8.12713429e-02 1.73826352e-01 2.30940521e-01
      8.16904306e-02 0. 0. 1.12175509e-01 0. 0. 2.48370573e-01
      1.00691907e-01 1.69983044e-01 4.56731543e-02 0. 9.93443001e-03
      1.40257493e-01 1.44910738e-01 2.04266027e-01 1.72017083e-01
      1.50863886e-01 0. 0. 1.20628290e-01 8.30784813e-02 9.17101651e-02
      1.04549475e-01 1.72741562e-01 1.50875151e-01 9.50942561e-02 0. 0.
      0. 9.65843275e-02 1.73656955e-01 2.43595600e-01 1.78222850e-01 0.
      0. 0. 4.79091816e-02 1.51113063e-01 1.22286946e-01</_>
    <_>
      3.28648239e-01 1.34467036e-01 0. 0. 1.67762354e-01 0.
      4.66052964e-02 6.96911737e-02 1.93285927e-01 1.41070768e-01 0.
      9.85582098e-02 1.30934536e-01 8.28772411e-02 4.66052964e-02 0.
      3.50528061e-01 0. 0. 0. 1.71554208e-01 0. 9.32106003e-02
      6.96911737e-02 2.57471979e-01 8.07227492e-02 0. 0. 1.10846706e-01
      0. 0. 0. 1.48326367e-01 1.33149937e-01 0. 6.96911737e-02
      1.10846706e-01 0. 2.31385380e-01 1.39382347e-01 1.78085461e-01
      1.90165102e-01 0. 0. 1.43923849e-01 1.17206119e-01 1.23306029e-01
      0. 2.57471979e-01 9.32106003e-02 0. 6.96911737e-02 1.10846706e-01
      0. 1.64687812e-01 1.20708659e-01 2.26785257e-01 2.10946679e-01 0.
      0. 7.83804581e-02 0. 8.07227492e-02 6.96911737e-02</_>
    <_>
      3.75026643e-01 8.83248076e-03 0. 0. 1.39142618e-01 0.
      1.09036021e-01 7.29124621e-02 1.89693972e-01 1.10104010e-01 0.
      1.04459494e-01 1.05142154e-01 9.78456810e-02 0. 0. 3.56723249e-01
      5.36451861e-02 8.84056389e-02 7.31536448e-02 7.41251856e-02
      9.90480036e-02 1.24910139e-02 1.11892655e-01 2.70298570e-01
      8.81590471e-02 5.22564948e-02 0. 0. 8.86763483e-02 1.09937698e-01
      7.93343261e-02 1.40376851e-01 0. 9.97572914e-02 7.48041049e-02
      7.17186406e-02 1.30786210e-01 1.75515831e-01 1.31309047e-01
      2.53249168e-01 1.36025190e-01 4.66476493e-02 0. 0. 1.00542925e-01
      1.13153175e-01 7.55004063e-02 2.16060057e-01 1.30420387e-01
      4.41228785e-02 0. 0. 0. 1.43710837e-01 1.05123714e-01
      2.61841953e-01 2.00708896e-01 8.82759839e-02 7.59645328e-02 0. 0.
      1.33271903e-01 7.40990192e-02</_>
    <_>
      3.34388852e-01 8.05020109e-02 8.05020109e-02 6.76938519e-02
      1.52268216e-01 0. 1.37027740e-01 6.76938519e-02 2.19215587e-01
      1.37027740e-01 8.05020109e-02 0. 1.49806470e-01 8.05020109e-02
      4.52696085e-02 0. 3.40482056e-01 0. 0. 0. 1.98395744e-01 0.
      9.05392170e-02 6.76938519e-02 2.50092924e-01 1.29333913e-01
      8.05020109e-02 0. 7.61341080e-02 8.05020109e-02 4.52696085e-02 0.
      6.76938519e-02 1.81994408e-01 8.05020109e-02 6.76938519e-02
      1.01876691e-01 1.39433578e-01 1.29333913e-01 6.76938519e-02
      2.53437817e-01 1.22517288e-01 0. 0. 8.64908025e-02 1.13847040e-01
      1.29333913e-01 6.76938519e-02 2.01431915e-01 1.21152483e-01
      8.05020109e-02 6.76938519e-02 1.07669882e-01 0. 1.22517288e-01
      6.76938519e-02 2.70046920e-01 1.46598294e-01 0. 0. 9.57335681e-02
      1.13847040e-01 1.29333913e-01 0.</_>
    <_>
      3.33890796e-01 1.36612028e-01 0. 0. 1.44449636e-01 0.
      1.05875008e-01 7.08028823e-02 1.83160633e-01 1.05875008e-01 0.
      1.00130394e-01 1.37924552e-01 0. 0. 0. 3.28326076e-01
      4.73487414e-02 8.41992870e-02 7.08028823e-02 7.08028823e-02
      8.41992870e-02 1.05875008e-01 0. 2.46484429e-01 1.26716748e-01 0.
      0. 1.78059831e-01 0. 8.20104256e-02 7.08028823e-02 1.50692463e-01
      1.35273933e-01 0. 7.08028823e-02 1.44449636e-01 8.41992870e-02
      1.78186581e-01 7.08028823e-02 2.65077651e-01 1.36612028e-01 0. 0.
      1.70438483e-01 8.41992870e-02 9.46974829e-02 0. 2.42718071e-01
      1.05875008e-01 8.41992870e-02 1.00130394e-01 0. 0. 1.36612028e-01
      1.00130394e-01 2.50194103e-01 2.09015772e-01 0. 0. 1.20518208e-01
      0. 8.20104256e-02 7.08028823e-02</_>
    <_>
      3.32348198e-01 1.35980889e-01 0. 0. 1.49996251e-01 0.
      1.05385862e-01 7.04757720e-02 2.21235305e-01 9.42599773e-02 0.
      7.04757720e-02 1.12094641e-01 0. 0. 0. 3.58877927e-01
      4.71299887e-02 8.38102847e-02 0. 0. 8.38102847e-02 9.42599773e-02
      0. 2.81144649e-01 1.34648964e-01 0. 7.04757720e-02 7.04757720e-02
      8.38102847e-02 4.71299887e-02 0. 1.73485592e-01 9.42599773e-02 0.
      7.04757720e-02 1.58525750e-01 8.38102847e-02 1.91366524e-01
      1.22067615e-01 2.32189357e-01 1.35980889e-01 0. 0. 7.04757720e-02
      8.38102847e-02 1.42658964e-01 7.04757720e-02 2.41596699e-01
      9.42599773e-02 8.38102847e-02 9.96677876e-02 0. 0. 1.35980889e-01
      9.96677876e-02 2.92104274e-01 1.35980889e-01 0. 0. 9.96677876e-02
      8.38102847e-02 1.05385862e-01 7.04757720e-02</_>
    <_>
      2.13167459e-01 1.22747673e-02 0. 1.16109706e-01 7.37463534e-02
      9.80800763e-02 0. 2.24675462e-01 7.24833533e-02 8.94752815e-02
      9.66077968e-02 1.02821521e-01 1.07513875e-01 1.02383956e-01
      1.54347029e-02 2.91090816e-01 1.16549619e-01 0. 0. 0.
      1.39400214e-01 0. 1.03815250e-01 1.90623417e-01 1.91740215e-01
      9.48837474e-02 0. 8.20904821e-02 0. 0. 8.67957063e-03
      3.42767656e-01 1.18241109e-01 1.29767448e-01 9.77516994e-02
      7.18871877e-02 0. 1.30240604e-01 1.42916322e-01 2.45695829e-01
      1.56823128e-01 1.30149648e-01 0. 0. 9.82902497e-02 1.22368149e-01
      1.07015230e-01 1.24579929e-01 6.10508099e-02 0. 8.28300342e-02
      6.31052926e-02 1.16549619e-01 0. 8.82552043e-02 2.04307124e-01
      2.15006918e-01 1.53676033e-01 1.19812556e-01 6.83222339e-02 0.
      1.21336520e-01 9.92692485e-02 2.39672005e-01</_>
    <_>
      1.71483725e-01 8.92914981e-02 0. 0. 1.29452094e-01 9.20399204e-02
      1.15210041e-02 1.70381397e-01 7.26079121e-02 4.81096804e-02
      9.21042636e-02 9.77387801e-02 1.33978024e-01 0. 8.14658031e-03
      2.89394021e-01 2.09465966e-01 9.04776827e-02 0. 0. 1.27824411e-01
      0. 9.09069926e-02 2.28632465e-01 1.29216909e-01 7.96638131e-02 0.
      0. 1.03651777e-01 8.34371820e-02 1.82163082e-02 2.53697991e-01
      6.61378056e-02 1.22716635e-01 9.21954140e-02 1.28176257e-01
      1.30137891e-01 1.54384792e-01 1.67091444e-01 2.12040588e-01
      1.45468175e-01 1.20323189e-01 1.44868968e-02 9.65320915e-02
      1.97430223e-01 8.14207718e-02 1.43842474e-01 6.59130439e-02
      7.17367083e-02 1.04366086e-01 1.23319089e-01 6.92177787e-02
      1.09392606e-01 4.67206240e-02 1.55696169e-01 1.95735306e-01
      1.63214028e-01 1.45990983e-01 1.47410572e-01 1.39812768e-01
      7.73522481e-02 8.17900449e-02 1.31576955e-01 2.01691315e-01</_>
    <_>
      3.24370533e-01 4.82653119e-02 8.58292133e-02 7.21734762e-02
      9.22143087e-02 0. 4.82653119e-02 1.91230446e-01 1.57653406e-01
      4.82653119e-02 9.61753651e-02 1.01913027e-01 1.07863456e-01
      9.88452733e-02 8.54889583e-03 1.60938099e-01 3.24370533e-01 0. 0.
      0. 1.35049149e-01 4.59928848e-02 8.40339512e-02 1.07412256e-01
      2.53783524e-01 8.35979730e-02 0. 0. 8.11722577e-02 0. 0.
      1.61712900e-01 1.34065121e-01 8.35979730e-02 0. 7.21734762e-02
      1.36439621e-01 8.56963843e-02 1.62245408e-01 1.90802678e-01
      2.22803876e-01 1.30624831e-01 0. 0. 1.24487802e-01 8.54245722e-02
      9.65326279e-02 1.34880826e-01 2.11524516e-01 0. 8.31620321e-02
      7.35222548e-02 1.14794910e-01 0. 8.62539113e-02 1.57742441e-01
      2.78949499e-01 1.09273925e-01 1.19525559e-01 7.14917034e-02 0.
      8.58292133e-02 1.29169717e-01 1.35411292e-01</_>
    <_>
      1.25833377e-01 0. 0. 1.12555720e-01 0. 1.06500275e-01
      8.37024078e-02 2.10179701e-01 9.96537805e-02 1.07088402e-01 0.
      1.00267626e-01 1.33439928e-01 8.31421539e-02 8.38162564e-03
      3.37625295e-01 1.59168035e-01 0. 4.51601073e-02 1.08427294e-01
      6.87411502e-02 9.27950069e-02 1.34109229e-01 1.92226738e-01
      1.84909359e-01 8.19622725e-02 0. 0. 1.12548798e-01 0. 0.
      3.14504862e-01 9.96640101e-02 9.35298428e-02 8.36210325e-02
      9.89988446e-02 0. 0. 1.87500671e-01 1.78480074e-01 1.80662245e-01
      1.85507700e-01 0. 0. 1.47207573e-01 0. 9.31637883e-02
      1.89840242e-01 7.18627200e-02 1.51782081e-01 8.19824338e-02
      2.31305119e-02 0. 6.64118528e-02 1.53039277e-01 2.01228768e-01
      1.34705812e-01 2.31394053e-01 4.18706201e-02 0. 0. 4.80686091e-02
      1.51615918e-01 2.00994194e-01</_>
    <_>
      2.93861955e-01 9.18495357e-02 6.34273812e-02 7.64068440e-02
      1.56324342e-01 9.20906439e-02 1.30818605e-01 6.42286465e-02
      1.74863502e-01 7.95288831e-02 4.44646329e-02 9.67016593e-02
      2.00045317e-01 8.01414773e-02 1.31135285e-01 9.55652818e-02
      2.87916154e-01 1.62655655e-02 1.22225076e-01 6.99467137e-02
      1.69105560e-01 9.18451324e-02 0. 6.88815638e-02 2.17560664e-01 0.
      0. 0. 2.08495691e-01 9.18840319e-02 1.15014911e-02 9.71180648e-02
      7.13097006e-02 9.30471495e-02 1.14998281e-01 6.99435994e-02
      1.09207325e-01 0. 1.73165649e-01 1.21588811e-01 2.25440338e-01
      1.74922824e-01 0. 0. 1.37328997e-01 1.69452056e-01 1.02992952e-01
      6.91138059e-02 1.27695948e-01 1.22900359e-01 9.21672583e-02
      1.28014401e-01 8.86623785e-02 0. 1.72112122e-01 9.44762379e-02
      2.15507090e-01 1.60264462e-01 1.14928581e-01 1.32248119e-01 0. 0.
      1.53274119e-01 6.82289898e-02</_>
    <_>
