<?xml version="1.0"?>
<opencv_storage>
<opencv_ml_svm>
  <format>3</format>
  <svmType>C_SVC</svmType>
  <kernel>
    <type>RBF</type>
    <gamma>1.5000000000000000e+00</gamma></kernel>
  <C>4.</C>
  <term_criteria><epsilon>1.1920928955078125e-07</epsilon>
    <iterations>1000</iterations></term_criteria>
  <var_count>64</var_count>
  <class_count>34</class_count>
  <class_labels type_id="opencv-matrix">
    <rows>34</rows>
    <cols>1</cols>
    <dt>i</dt>
    <data>
      48 49 50 51 52 53 54 55 56 57 65 66 67 68 69 70 71 72 74 75 76 77
      78 80 81 82 83 84 85 86 87 88 89 90</data></class_labels>
  <sv_total>3308</sv_total>
  <support_vectors>
    <_>
      3.21205348e-01 1.06750511e-01 1.14974283e-01 1.00823402e-01 0. 0.
      0. 0. 2.80245781e-01 8.05034563e-02 0. 1.28369212e-01
      1.11115627e-01 0. 0. 0. 2.72124231e-01 8.27489607e-03 0. 0.
      1.31491065e-01 1.25261471e-01 1.05362043e-01 7.07341507e-02
      2.49183178e-01 1.85032301e-02 0. 0. 6.71911240e-02 1.22529820e-01
      1.70140564e-01 1.23019658e-01 1.86124995e-01 1.26199603e-01
      4.74565141e-02 0. 0. 0. 2.08348632e-01 1.24003530e-01
      2.72130042e-01 8.27489607e-03 0. 0. 1.31614581e-01 9.35332924e-02
      1.34212598e-01 1.22654565e-01 1.98058769e-01 1.61772102e-01 0.
      1.29837751e-01 0. 0. 0. 0. 2.96237797e-01 1.89090446e-01
      9.64963511e-02 1.05778597e-01 0. 0. 1.34638533e-01 9.84873697e-02</_>
    <_>
      2.58394212e-01 1.45145088e-01 8.21214914e-02 7.05971792e-02 0. 0.
      0. 0. 2.63306469e-01 1.44267529e-01 8.47553015e-02 7.12704286e-02
      0. 0. 1.37514144e-01 1.51717767e-01 2.31924370e-01 1.68419749e-01
      0. 0. 1.33663744e-01 0. 8.25519785e-02 7.12704286e-02
      2.99918592e-01 0. 0. 0. 1.00392038e-02 0. 1.88484624e-01
      1.42540857e-01 2.77670652e-01 0. 0. 0. 7.14999214e-02
      6.84683770e-02 1.52708009e-01 1.22930184e-01 2.99918592e-01 0. 0.
      0. 1.33901611e-01 4.61548455e-02 8.25519785e-02 7.08225444e-02
      3.08270395e-01 8.29825029e-02 0. 7.12704286e-02 1.13358572e-01 0.
      0. 0. 3.24379176e-01 1.61397323e-01 0. 0. 0. 0. 0. 0.</_>
    <_>
      2.81498104e-01 8.09246153e-02 0. 0. 0. 0. 0. 2.24106029e-01
      2.19640136e-01 8.56900886e-02 9.39115807e-02 8.29625353e-02 0. 0.
      8.41060281e-03 1.96825817e-01 2.50548303e-01 0. 0. 0.
      9.88482311e-02 8.36431161e-02 8.18236917e-02 1.75007731e-01
      2.54091829e-01 0. 0. 0. 0. 0. 8.64516571e-02 2.34412044e-01
      2.17098400e-01 0. 0. 0. 0. 0. 1.35818899e-01 2.69649535e-01
      1.95102096e-01 0. 0. 0. 0. 1.39738426e-01 1.54717863e-01
      1.91676497e-01 2.36600369e-01 1.61108255e-01 8.14181119e-02 0.
      9.83408615e-02 0. 8.41060281e-03 2.25810602e-01 2.31679827e-01
      1.52102798e-01 4.30359580e-02 0. 0. 0. 0. 1.59751147e-01</_>
    <_>
      3.25226039e-01 1.24583036e-01 8.37929547e-02 9.98016223e-02 0. 0.
      0. 0. 2.60720283e-01 1.83954820e-01 8.39228258e-02 7.05704093e-02
      0. 0. 0. 0. 3.17477256e-01 0. 0. 0. 1.32586420e-01 8.39228258e-02
      1.26300678e-01 7.05704093e-02 2.74943352e-01 0. 0. 0. 0. 0.
      1.50444269e-01 7.05704093e-02 1.87505513e-01 1.36163473e-01 0. 0.
      0. 9.47635025e-02 1.34829774e-01 7.05704093e-02 3.17477256e-01 0.
      0. 0. 7.05704093e-02 8.39228258e-02 1.97172239e-01 1.22231528e-01
      2.83855647e-01 1.42850518e-01 8.39228258e-02 7.05704093e-02 0. 0.
      0. 0. 3.25226039e-01 1.64583981e-01 0. 0. 0. 0. 0. 0.</_>
    <_>
      2.56994694e-01 1.36049524e-01 8.71204212e-02 8.34727511e-02
      5.58254980e-02 0. 0. 2.40950406e-01 1.37476966e-01 1.83138311e-01
      1.26151890e-01 0. 0. 0. 9.04276501e-03 2.19295204e-01
      2.25636020e-01 0. 0. 0. 8.58826935e-02 9.05103981e-02
      1.36080235e-01 1.88161761e-01 2.38529056e-01 1.27884010e-02
      5.26767187e-02 7.62309134e-02 0. 1.24912508e-01 1.05273701e-01
      2.52031058e-01 1.28399029e-01 1.03791133e-01 5.14999479e-02 0.
      7.71172196e-02 0. 1.42967090e-01 2.20500469e-01 1.75444543e-01
      6.88631609e-02 0. 0. 8.52718875e-02 0. 1.60420954e-01
      1.70286134e-01 1.31816506e-01 1.93044215e-01 1.16628811e-01 0. 0.
      4.95501012e-02 9.04276501e-03 2.34601751e-01 2.03559533e-01
      1.27884010e-02 1.44516408e-01 1.07326344e-01 5.58254980e-02 0.
      1.46220401e-01 1.42017812e-01</_>
    <_>
      2.98489481e-01 1.09364606e-01 1.76532790e-01 0. 0. 0.
      1.50776371e-01 6.84663951e-02 1.67856336e-01 1.55856445e-01
      1.35537550e-01 9.61483866e-02 0. 0. 0. 0. 3.02200913e-01
      1.92801524e-02 0. 0. 1.19457051e-01 8.34808946e-02 1.43569022e-01
      1.04227394e-01 2.55456507e-01 1.72964130e-02 0. 2.79256962e-02
      5.70835583e-02 7.81200007e-02 1.26146257e-01 1.35297582e-01
      2.47187123e-01 0. 0. 0. 7.47844949e-02 9.14223865e-02
      1.61248788e-01 8.60912874e-02 2.92953491e-01 1.72964130e-02
      4.81388308e-02 1.02914527e-01 0. 1.08006112e-01 1.38533086e-01
      7.56525099e-02 2.85385609e-01 1.07598737e-01 1.12669498e-01
      1.26600638e-01 0. 2.69880760e-02 1.38021559e-01 9.99337062e-02
      2.69633442e-01 1.73213884e-01 7.57722929e-02 4.37832177e-02 0. 0.
      0. 0.</_>
    <_>
      2.96293080e-01 1.94334716e-01 8.26408565e-02 6.94923997e-02 0. 0.
      1.34083495e-01 9.82770920e-02 1.47903308e-01 1.69637218e-01
      8.26408565e-02 6.94923997e-02 1.10530540e-01 0. 0. 0.
      2.70743430e-01 0. 0. 0. 1.30561069e-01 8.26408565e-02
      1.32770166e-01 6.94923997e-02 2.31726557e-01 9.48113501e-02 0. 0.
      1.20364361e-01 1.16871819e-01 1.69637218e-01 1.20364361e-01
      2.47153804e-01 0. 0. 0. 1.04583427e-01 8.26408565e-02
      1.92522839e-01 6.94923997e-02 2.92436332e-01 4.64723669e-02
      8.26408565e-02 6.94923997e-02 1.10530540e-01 0. 1.32770166e-01
      6.94923997e-02 2.56737590e-01 1.32770166e-01 8.26408565e-02
      6.94923997e-02 1.10530540e-01 0. 0. 0. 2.96293080e-01
      1.69637218e-01 1.16871819e-01 1.20364361e-01 0. 0. 0. 0.</_>
    <_>
      3.23700547e-01 1.55832767e-01 0. 0. 7.26018399e-02 5.06607182e-02
      0. 5.56406267e-02 2.84474701e-01 1.01237185e-01 1.19610794e-01
      8.25958624e-02 0. 0. 4.59157117e-02 0. 3.12846750e-01
      8.69668741e-03 0. 0. 1.31177917e-01 1.21692538e-01 9.89511535e-02
      5.93122877e-02 2.84929812e-01 0. 0. 0. 5.55740893e-02
      8.37009996e-02 1.31774932e-01 1.06422201e-01 1.71694532e-01
      1.32794306e-01 0. 0. 0. 4.91117910e-02 1.55294940e-01
      1.05620153e-01 2.58248687e-01 8.69668741e-03 4.76537608e-02 0.
      1.33175835e-01 1.21503361e-01 1.63325131e-01 0. 2.93528259e-01
      1.31133869e-01 8.71778876e-02 8.25806335e-02 9.87267718e-02 0. 0.
      0. 3.36849391e-01 1.00825220e-01 1.20854624e-01 5.97779602e-02 0.
      0. 0. 0.</_>
    <_>
      3.11387569e-01 1.80466250e-01 1.30323023e-01 7.45882764e-02 0. 0.
      0. 0. 2.68325567e-01 9.67690125e-02 0. 7.18283132e-02 0. 0. 0. 0.
      2.85178840e-01 8.67246184e-03 0. 0. 7.36859590e-02 9.79669839e-02
      1.41048580e-01 1.27489924e-01 1.94914773e-01 1.41452476e-01 0. 0.
      0. 0. 2.19453096e-01 1.28398553e-01 2.60942161e-01 1.73449237e-02
      0. 0. 7.11264163e-02 8.34751353e-02 1.47536099e-01 1.29071370e-01
      3.09458405e-01 1.22647136e-02 0. 1.15793452e-01 7.36859590e-02
      9.79669839e-02 0. 7.52757639e-02 2.93981284e-01 9.63796154e-02 0.
      1.36262357e-01 0. 0. 0. 0. 3.36876214e-01 1.39928758e-01
      9.98346135e-02 0. 0. 0. 0. 0.</_>
    <_>
      3.14664423e-01 8.23945850e-02 0. 0. 0. 0. 0. 1.97327286e-01
      2.67424524e-01 0. 8.25988650e-02 0. 8.10334533e-02 0.
      8.53427779e-03 1.41870201e-01 3.02178562e-01 0. 0. 0.
      1.34388328e-01 0. 8.34573284e-02 1.34650186e-01 2.79236495e-01 0.
      0. 0. 0. 0. 8.66183788e-02 1.76323712e-01 2.70236373e-01
      8.36477578e-02 0. 0. 0. 0. 0. 2.24428996e-01 2.70200223e-01 0. 0.
      0. 8.07465613e-02 0. 1.18748479e-01 1.52188152e-01 2.65474856e-01
      0. 8.30267817e-02 7.33965337e-02 1.14598610e-01 0. 8.53427779e-03
      1.39654726e-01 3.21399450e-01 8.43276978e-02 0. 0. 0. 0. 0.
      1.61436379e-01</_>
    <_>
      3.01192731e-01 1.77077681e-01 1.12774946e-01 0. 0. 0. 0. 0.
      2.57085651e-01 1.39060795e-01 8.27083215e-02 1.30012214e-01 0. 0.
      0. 0. 3.13795626e-01 8.26327037e-03 0. 0. 1.71910927e-01
      8.22581798e-02 0. 7.02227056e-02 2.93522865e-01 8.26327037e-03 0.
      0. 0. 4.12793756e-02 1.47328302e-01 7.29712099e-02 2.21845090e-01
      8.26327037e-03 0. 0. 1.02984183e-01 1.15285225e-01 1.75996378e-01
      1.23339497e-01 2.71741897e-01 8.26327037e-03 0. 0. 7.02092424e-02
      1.25085488e-01 1.69233143e-01 7.21432418e-02 3.00890028e-01
      8.03903490e-02 0. 1.28945693e-01 1.10959522e-01 0. 0. 0.
      3.20981413e-01 1.09108992e-01 1.12774946e-01 0. 0. 0. 0. 0.</_>
    <_>
      2.30335593e-01 1.81896791e-01 1.88843742e-01 5.03671542e-02 0. 0.
      6.40515238e-02 7.80093744e-02 2.09975854e-01 1.97057262e-01
      1.10897742e-01 5.21478355e-02 0. 9.43629444e-02 9.11071673e-02
      1.05712190e-01 2.30570003e-01 9.01064128e-02 9.92219076e-02
      1.68207675e-01 8.74232054e-02 5.98257892e-02 0. 6.61416650e-02
      2.06421748e-01 1.14117205e-01 6.11528344e-02 5.72473481e-02 0.
      1.20582469e-01 9.46193933e-02 9.20821428e-02 2.85942137e-01 0. 0.
      0. 0. 0. 1.51626393e-01 1.00681528e-01 3.28099072e-01
      5.15169576e-02 0. 0. 1.36387825e-01 9.05143619e-02 9.96088386e-02
      8.42662081e-02 2.89560407e-01 1.15292035e-01 1.19107760e-01
      5.56599274e-02 0. 0. 0. 0. 3.39893818e-01 1.13194600e-01
      1.33194029e-01 0. 0. 0. 0. 0.</_>
    <_>
      2.31385812e-01 1.67778403e-01 1.23507902e-01 1.03561811e-01 0. 0.
      0. 1.09938636e-01 1.99888572e-01 1.05258711e-01 1.82046935e-01
      1.19703822e-01 0. 0. 8.27642828e-02 1.69525474e-01 2.49856994e-01
      8.23567659e-02 0. 0. 1.29585385e-01 1.53799444e-01 1.32488653e-01
      9.76320058e-02 1.98576793e-01 0. 0. 0. 1.04149908e-01
      4.70443517e-02 1.48467034e-01 1.62155122e-01 1.90786406e-01 0. 0.
      0. 1.20077156e-01 1.57128841e-01 1.39720038e-01 1.69923216e-01
      2.14234427e-01 1.33622572e-01 0. 0. 1.19326107e-01 1.25358060e-01
      1.02252081e-01 1.69923216e-01 2.50962466e-01 1.33323073e-01
      9.26384330e-02 6.94731399e-02 1.10150583e-01 0. 1.33874118e-01
      1.47236556e-01 2.25773141e-01 1.75691545e-01 1.14784770e-01
      1.03561811e-01 0. 0. 0. 0.</_>
    <_>
      3.01128060e-01 1.85682327e-01 1.07851073e-01 1.06423773e-01 0. 0.
      1.36247337e-01 9.98630822e-02 1.66052550e-01 1.65780365e-01 0.
      7.06138611e-02 0. 0. 0. 0. 2.35466152e-01 9.63414088e-02 0. 0. 0.
      4.79684509e-02 1.86097145e-01 1.22436233e-01 1.50290161e-01
      1.36247337e-01 0. 0. 6.99468255e-02 1.16942711e-01 2.03515545e-01
      1.41561359e-01 2.51142353e-01 0. 0. 0. 1.00049876e-01
      4.79684509e-02 1.56387404e-01 1.22562736e-01 2.97074050e-01 0. 0.
      0. 2.07192540e-01 0. 9.44446772e-02 7.06138611e-02 2.60880828e-01
      1.07190520e-01 1.26384139e-01 1.32130846e-01 7.08378032e-02
      8.37139860e-02 4.64756936e-02 0. 3.05197537e-01 2.12647319e-01 0.
      0. 0. 0. 0. 0.</_>
    <_>
      1.45500645e-01 2.11924911e-01 9.25276652e-02 1.01295993e-01 0.
      5.02365604e-02 2.92890873e-02 2.20148131e-01 1.48372799e-01
      1.37327150e-01 0. 1.26081809e-01 1.07831776e-01 0. 5.11142686e-02
      2.46553019e-01 1.65057808e-01 1.05835088e-01 0. 0. 1.32347286e-01
      9.55358744e-02 8.82028267e-02 2.50270307e-01 0. 0. 0. 0.
      1.30860791e-01 1.35164976e-01 1.98413074e-01 2.03839481e-01
      1.23577438e-01 1.05928227e-01 0. 0. 1.31248832e-01 1.44823447e-01
      1.84358642e-01 2.31157228e-01 1.38590485e-01 5.06508723e-02 0. 0.
      9.78796780e-02 1.35090247e-01 9.40605253e-02 1.90178677e-01
      1.51225016e-01 1.13371186e-01 6.05983026e-02 1.05904296e-01 0. 0.
      2.81744860e-02 1.90271258e-01 2.18725666e-01 2.02279821e-01
      9.35363472e-02 1.03331812e-01 0. 0. 3.65561768e-02 1.89141244e-01</_>
    <_>
      1.96100473e-01 1.17567956e-01 0. 0. 8.22560862e-02 0.
      7.19786733e-02 2.84695238e-01 1.54927790e-01 8.74641463e-02
      1.06062718e-01 0. 7.81406462e-02 4.75682393e-02 4.24101278e-02
      2.02167600e-01 1.87244013e-01 3.64273600e-02 0. 0. 1.55358151e-01
      1.36600733e-01 1.15849622e-01 2.24380836e-01 1.53764203e-01
      4.15374450e-02 0. 0. 3.50129567e-02 1.25837430e-01 1.37013942e-01
      2.45136097e-01 1.79163009e-01 4.32406217e-02 0. 0. 0.
      4.75682393e-02 1.32616460e-01 2.62191772e-01 1.88804537e-01
      4.08290811e-02 0. 0. 0. 1.25286102e-01 1.35234684e-01
      2.42038190e-01 9.48987603e-02 1.89158440e-01 1.06838316e-01
      1.07147641e-01 0. 0. 3.92148457e-02 1.84400037e-01 2.13138834e-01
      2.18429893e-01 0. 0. 0. 0. 6.78421631e-02 2.07670495e-01</_>
    <_>
      1.64690256e-01 1.67386383e-01 8.15996602e-02 1.29493549e-01 0. 0.
      0. 1.92257464e-01 1.24831609e-01 1.69648141e-01 9.68981534e-02
      1.09070443e-01 0. 0. 1.48130795e-02 2.49952301e-01 1.45640627e-01
      1.34804592e-01 0. 0. 1.29512414e-01 1.13678128e-01 1.14567094e-01
      2.32333377e-01 0. 0. 0. 0. 7.40025938e-02 2.15877116e-01
      1.25221178e-01 2.04070017e-01 1.38229802e-01 1.27156079e-01
      4.48819846e-02 0. 1.39536113e-01 1.47037759e-01 8.84613842e-02
      2.95394927e-01 9.68698412e-02 0. 0. 0. 1.33206338e-01
      1.68022230e-01 1.29413843e-01 1.17923304e-01 2.97183096e-02
      7.12984055e-02 9.43474844e-02 7.14861378e-02 1.58187792e-01 0.
      1.69945974e-02 2.49618709e-01 1.52163416e-01 1.74669161e-01
      1.30169317e-01 9.81238559e-02 0. 0. 3.02211437e-02 2.49618709e-01</_>
    <_>
      2.76665449e-01 1.59116849e-01 0. 0. 0. 0. 8.13623425e-03
      1.54387042e-01 2.29501739e-01 1.03983022e-01 1.23041160e-01
      6.89074472e-02 1.09253675e-01 0. 8.13623425e-03 1.54387042e-01
      2.67615736e-01 0. 0. 0. 1.18225820e-01 1.24337323e-01
      9.15100351e-02 1.28530219e-01 2.44298637e-01 0. 0. 0.
      9.76025835e-02 1.13755971e-01 1.03038363e-01 1.68539599e-01
      2.18507335e-01 0. 0. 0. 6.99765757e-02 0. 1.54122904e-01
      1.94302335e-01 2.44298637e-01 0. 0. 0. 1.68514326e-01
      9.25452113e-02 1.23221427e-01 1.68364137e-01 2.53830761e-01
      1.66334465e-01 1.13850124e-01 6.99732825e-02 1.09043449e-01 0.
      8.13623425e-03 0. 2.93022603e-01 1.68223709e-01 1.13755971e-01
      6.76035360e-02 0. 0. 0. 0.</_>
    <_>
      1.60800532e-01 2.13784873e-01 9.00642425e-02 1.31416410e-01 0. 0.
      1.49713056e-02 2.25752071e-01 7.30585903e-02 1.06091917e-01
      1.27904296e-01 7.22497180e-02 1.13050446e-01 0. 1.49713056e-02
      2.25752071e-01 1.13050438e-01 0. 4.33896668e-02 1.07650496e-01
      6.30449429e-02 1.14188448e-01 1.07614763e-01 2.84158349e-01 0. 0.
      0. 0. 8.16855878e-02 1.13483079e-01 1.09935440e-01 3.05576444e-01
      9.70431045e-02 1.28500879e-01 4.32195440e-02 0. 1.23247541e-01 0.
      1.80659443e-01 2.58626878e-01 1.32607639e-01 9.16497931e-02 0. 0.
      1.30895793e-01 9.06649008e-02 1.33757234e-01 1.69439435e-01
      7.34940395e-02 1.22867867e-01 1.37575567e-01 9.94579941e-02 0. 0.
      1.71761252e-02 2.98348963e-01 1.38205945e-01 1.59319922e-01 0. 0.
      0. 4.75435443e-02 8.46863985e-02 2.36917004e-01</_>
    <_>
      3.03177655e-01 1.41713172e-01 1.50407389e-01 7.11200908e-02 0.
      4.55266014e-02 0. 0. 2.86875844e-01 8.13623518e-02 0.
      1.30778745e-01 1.11721911e-01 0. 0. 0. 2.95522273e-01
      8.32004659e-03 0. 9.70125422e-02 1.14679947e-01 1.16124548e-01 0.
      7.04676136e-02 2.73947835e-01 8.32004659e-03 0. 0. 6.84565604e-02
      1.24538958e-01 1.57111138e-01 7.17680827e-02 2.05883756e-01
      9.58332866e-02 0. 0. 1.04366146e-01 1.24547333e-01 1.65576071e-01
      1.22676522e-01 2.68192053e-01 8.32004659e-03 0. 0. 7.04641938e-02
      1.25820875e-01 1.42997935e-01 9.93373618e-02 2.44231790e-01
      1.15948975e-01 9.44219381e-02 9.87155288e-02 0. 0. 0. 0.
      3.02275240e-01 1.82731435e-01 8.34023356e-02 7.26389289e-02 0.
      4.55266014e-02 8.27425420e-02 7.04641938e-02</_>
    <_>
      1.35759413e-01 1.87851593e-01 0. 2.83281561e-02 0. 0.
      1.45734511e-02 2.69327939e-01 7.23705739e-02 9.45068598e-02
      8.02796334e-02 1.13983214e-01 1.55628815e-01 0. 1.45734511e-02
      2.69327939e-01 1.10046186e-01 0. 0. 0. 1.98386088e-01 0.
      7.94508159e-02 2.96328574e-01 0. 0. 0. 0. 0. 1.16286397e-01
      1.07242242e-01 2.97224730e-01 6.45384043e-02 0. 0. 0. 0. 0.
      1.74604952e-01 2.82115340e-01 1.10046186e-01 0. 0. 0.
      1.63944229e-01 0. 7.82428756e-02 2.86639392e-01 7.13254511e-02
      1.65173590e-01 9.53306481e-02 1.07306026e-01 0. 0. 1.67196784e-02
      2.45580673e-01 1.66277349e-01 1.96727484e-01 3.43811736e-02 0. 0.
      0. 1.67196784e-02 2.45580673e-01</_>
    <_>
      3.33209068e-01 1.26550540e-01 1.31960869e-01 0. 0. 0. 0. 0.
      2.89871484e-01 1.12402983e-01 1.15480922e-01 0. 0. 0. 0. 0.
      2.32162997e-01 3.07836104e-02 0. 0. 0. 1.04617678e-01
      1.72298416e-01 7.73793831e-02 2.00538501e-01 3.07836104e-02 0.
      2.82933041e-02 0. 0. 1.87243834e-01 2.27173865e-01 2.23885328e-01
      2.68320609e-02 3.91587764e-02 0. 0. 1.65983483e-01 1.49081796e-01
      1.32729769e-01 2.73183912e-01 7.33069777e-02 0. 0. 1.32549316e-01
      1.12875015e-01 1.37905836e-01 1.35251239e-01 1.60228461e-01
      1.18584946e-01 1.29631668e-01 1.14638098e-01 1.14307947e-01 0.
      5.83091080e-02 0. 3.07823479e-01 1.96707889e-01 0. 0. 0.
      4.31917086e-02 1.17251880e-01 1.13323413e-01</_>
    <_>
      2.92360634e-01 1.59535989e-01 0. 0. 0. 4.28754501e-02
      1.16083436e-01 1.12319082e-01 2.04903960e-01 1.22919969e-01
      1.22673400e-01 1.13356143e-01 0. 0. 1.07813299e-01 1.25793934e-01
      3.06166202e-01 3.05582080e-02 0. 0. 1.13470972e-01 1.03894636e-01
      1.14633612e-01 8.89281034e-02 2.30656192e-01 3.05582080e-02 0. 0.
      0. 0. 2.04852313e-01 9.53666046e-02 2.83890098e-01 2.66355928e-02
      0. 0. 0. 0. 1.96580857e-01 9.89241302e-02 3.06721210e-01
      2.66355928e-02 0. 0. 1.72195524e-01 0. 7.83125013e-02
      5.05231582e-02 1.56879798e-01 1.30572453e-01 1.28320694e-01
      1.13798700e-01 0. 0. 1.07813299e-01 1.25793934e-01 2.53400952e-01
      2.23010734e-01 0. 0. 0. 0. 9.48603973e-02 1.40681028e-01</_>
    <_>
      2.68929332e-01 2.02757210e-01 0. 0. 0. 0. 1.03996716e-01
      1.27448305e-01 2.05297098e-01 1.23194501e-01 1.73055127e-01 0. 0.
      0. 1.06409527e-01 1.23429239e-01 2.81400889e-01 3.03655546e-02 0.
      0. 0. 1.74775019e-01 8.16406682e-02 4.10548523e-02 2.29159340e-01
      3.03655546e-02 0. 0. 0. 0. 1.84686720e-01 1.62766889e-01
      2.29840040e-01 2.64676698e-02 0. 0. 0. 1.24176197e-01
      1.53024346e-01 1.65165231e-01 2.82028854e-01 2.64676698e-02 0. 0.
      1.15966208e-01 1.28541321e-01 1.43856406e-01 1.41467988e-01
      2.36840770e-01 1.21260293e-01 1.27871200e-01 0. 1.15513891e-01 0.
      8.65629166e-02 8.43668878e-02 2.96446979e-01 1.97707430e-01 0. 0.
      0. 0. 0. 0.</_>
    <_>
      3.26531410e-01 1.62631854e-01 0. 0. 0. 0. 0. 0. 3.10363352e-01
      8.31124559e-02 0. 7.17543066e-02 1.14128202e-01 0. 0. 0.
      2.73669809e-01 0. 0. 0. 1.34810716e-01 0. 8.31124559e-02
      7.17543066e-02 2.79555857e-01 0. 0. 0. 9.16787460e-02
      8.53307322e-02 1.88836873e-01 1.24282107e-01 3.01954836e-01 0. 0.
      0. 5.70641011e-02 0. 8.31124559e-02 7.17543066e-02 3.42384607e-01
      0. 0. 0. 1.27599210e-01 0. 8.31124559e-02 7.17543066e-02
      2.85320491e-01 8.31124559e-02 0. 7.17543066e-02 1.14128202e-01 0.
      0. 0. 3.18549961e-01 1.54184654e-01 0. 7.17543066e-02
      8.07008222e-02 0. 0. 0.</_>
    <_>
      2.59923011e-01 1.44962013e-01 0. 0. 0. 0. 8.72211829e-02
      2.36403003e-01 1.50241926e-01 8.66723880e-02 8.42274129e-02
      1.01669498e-01 1.43804684e-01 0. 6.91676736e-02 1.89871460e-01
      1.81200698e-01 5.01728430e-02 0. 0. 1.37003183e-01 1.82222053e-01
      1.10960133e-01 1.44410104e-01 1.09114408e-01 1.33315742e-01 0. 0.
      0. 0. 1.13593325e-01 2.53211409e-01 2.12877005e-01 0. 0. 0.
      6.19129315e-02 8.73764902e-02 1.31411731e-01 2.92718858e-01
      1.64055914e-01 0. 0. 0. 5.18529862e-02 8.73764902e-02
      1.30885571e-01 2.00502709e-01 1.81563213e-01 1.00700825e-01
      1.21962763e-01 7.78886303e-02 0. 0. 8.74248147e-03 2.04592481e-01
      2.70232767e-01 1.55336663e-01 0. 0. 0. 0. 0. 2.32949167e-01</_>
    <_>
      2.38603383e-01 2.12572396e-01 9.72474217e-02 7.21471161e-02 0. 0.
      0. 0. 2.81464070e-01 9.05222893e-02 0. 1.29758343e-01 0. 0.
      1.34790748e-01 9.91184786e-02 2.59432584e-01 9.61232781e-02 0. 0.
      1.32235736e-01 9.39747170e-02 0. 7.34502971e-02 2.73415238e-01
      8.31394922e-03 0. 0. 0. 0. 2.09564015e-01 1.23592332e-01
      2.23215625e-01 8.31394922e-03 0. 0. 1.02264240e-01 1.15831718e-01
      1.74823985e-01 7.48785064e-02 2.95334697e-01 8.31394922e-03 0. 0.
      1.32235736e-01 9.39965099e-02 1.34571090e-01 1.23870954e-01
      2.58662373e-01 1.15866467e-01 1.14844993e-01 1.30287662e-01 0. 0.
      0. 0. 3.22721273e-01 1.07254319e-01 1.25854135e-01 9.85101908e-02
      0. 0. 0. 0.</_>
    <_>
      1.50962293e-01 1.44187644e-01 7.65236542e-02 6.54855743e-02 0. 0.
      1.45971281e-02 2.69747913e-01 7.22824037e-02 1.02441773e-01
      8.03772956e-02 1.13492943e-01 1.54849336e-01 0. 2.74248235e-02
      2.69747913e-01 1.10224977e-01 0. 0. 0. 1.67889312e-01
      1.10646799e-01 1.11765452e-01 2.76808739e-01 0. 0. 0. 0. 0.
      1.23172939e-01 1.07231438e-01 2.97707617e-01 0. 0. 0. 0. 0.
      1.23172872e-01 1.12790652e-01 2.97621250e-01 1.10224977e-01 0. 0.
      0. 6.39252812e-02 1.65112913e-01 1.23200320e-01 2.54097283e-01
      7.61419088e-02 1.66659296e-01 9.54855308e-02 1.07480362e-01 0. 0.
      1.67468432e-02 2.69562930e-01 1.51628569e-01 1.52170882e-01
      7.69288614e-02 6.32307902e-02 0. 0. 1.67468432e-02 2.45979667e-01</_>
    <_>
      2.73348302e-01 1.79634944e-01 8.41554999e-02 1.08761951e-01 0. 0.
      0. 0. 2.67146587e-01 1.18334204e-01 1.30827680e-01 0. 0. 0.
      1.12318322e-01 1.32526785e-01 2.88368851e-01 2.72913501e-02 0. 0.
      0. 1.06580779e-01 1.77123681e-01 7.88917691e-02 2.03849345e-01
      1.26696154e-02 0. 0. 0. 0. 1.60215750e-01 1.92727566e-01
      2.29125336e-01 0. 0. 0. 6.44995272e-02 1.19451113e-01
      1.72797665e-01 9.79645848e-02 3.03995878e-01 2.41722688e-02 0. 0.
      1.22214586e-01 0. 1.37393236e-01 1.42698944e-01 2.63383865e-01
      8.79472941e-02 7.85055608e-02 0. 1.10368997e-01 0. 1.12415239e-01
      1.37227640e-01 2.57375062e-01 2.30936766e-01 0. 0. 0. 0. 0. 0.</_>
    <_>
      3.20623219e-01 1.31669834e-01 1.37322649e-01 0. 0. 4.49466519e-02
      1.21001467e-01 1.17927916e-01 1.92053095e-01 1.12738930e-01
      1.29297525e-01 0. 0. 0. 3.64125520e-02 6.01732917e-02
      2.70628095e-01 3.20343971e-02 0. 0. 0. 1.08868457e-01
      1.04752153e-01 8.16562399e-02 2.41704389e-01 4.10899036e-02 0. 0.
      0. 0. 2.12953433e-01 1.90120950e-01 2.56705284e-01 2.79222894e-02
      4.07498553e-02 0. 0. 1.03162512e-01 1.65528134e-01 2.00538442e-01
      2.59120703e-01 2.79222894e-02 4.66061458e-02 1.22031279e-01 0.
      1.11490153e-01 9.96159539e-02 8.40686560e-02 1.66738778e-01
      1.23694256e-01 1.34898797e-01 0. 1.21862352e-01 0. 4.70408201e-02
      0. 3.39848131e-01 1.67740300e-01 0. 0. 0. 4.49466519e-02
      1.22015998e-01 1.17927916e-01</_>
    <_>
      3.30199540e-01 1.60318300e-01 0. 0. 0. 4.28032801e-02
      1.52056128e-01 7.94542432e-02 2.00946137e-01 1.18311986e-01
      1.33678496e-01 0. 1.19617634e-01 0. 4.19601277e-02 0.
      2.90080875e-01 2.41020545e-02 0. 0. 1.20270684e-01 1.04601443e-01
      1.01804487e-01 7.87686631e-02 2.62412012e-01 2.41020545e-02 0.
      3.90093736e-02 0. 0. 1.74608484e-01 1.67330354e-01 2.00904772e-01
      0. 0. 0. 0. 1.34886652e-01 1.75716907e-01 9.17726234e-02
      3.06179404e-01 2.05813330e-02 0. 0. 0. 1.05549462e-01
      1.73118100e-01 1.34491116e-01 2.57919729e-01 1.26444072e-01
      1.35374933e-01 0. 0. 3.86794955e-02 0. 0. 3.50298434e-01
      1.15173161e-01 0. 0. 0. 0. 0. 0.</_>
    <_>
      2.96063095e-01 1.72111422e-01 1.02652155e-01 7.29975477e-02 0. 0.
      1.11116618e-01 1.28974795e-01 2.08163381e-01 1.11918584e-01
      1.20591350e-01 1.17253684e-01 0. 0. 5.18917032e-02 1.09095834e-01
      2.85894692e-01 2.66318470e-02 0. 1.16391547e-01 0. 1.06278241e-01
      1.05987102e-01 7.99656659e-02 2.61633366e-01 3.40268686e-02 0. 0.
      0. 0. 1.30169377e-01 1.96638599e-01 1.96554899e-01 0. 0. 0.
      7.37379044e-02 8.60594139e-02 1.80066869e-01 1.01412751e-01
      3.00666779e-01 2.66318470e-02 0. 0. 0. 1.07821926e-01
      1.54084608e-01 1.58365607e-01 2.61526585e-01 1.20894924e-01
      1.23639554e-01 0. 0. 0. 7.72564858e-02 1.50624901e-01
      2.86585689e-01 1.30109936e-01 1.31301582e-01 0. 0. 0. 0. 0.</_>
    <_>
      3.03082585e-01 1.96468130e-01 8.60445723e-02 7.23545775e-02
      8.13759342e-02 0. 0. 0. 2.67311841e-01 1.08195327e-01
      8.60445723e-02 1.02324821e-01 0. 0. 0. 0. 3.04480880e-01 0. 0. 0.
      1.35938480e-01 0. 9.67728421e-02 7.23545775e-02 2.81894505e-01 0.
      0. 0. 0. 0. 1.70981705e-01 1.25321805e-01 2.57333308e-01 0. 0. 0.
      1.23159446e-01 0. 1.62829876e-01 1.25321805e-01 2.98994273e-01 0.
      0. 0. 1.15082957e-01 0. 1.38238549e-01 7.23545775e-02
      2.91032135e-01 9.67728421e-02 0. 7.23545775e-02 1.15082957e-01 0.
      0. 0. 3.41208220e-01 1.39605984e-01 0. 0. 0. 0. 0. 0.</_>
    <_>
      1.39516339e-01 2.08856791e-01 9.68927816e-02 1.06018357e-01 0. 0.
      2.05695722e-02 2.45164752e-01 8.60138461e-02 1.00687884e-01
      9.91081446e-02 1.07456706e-01 1.09830476e-01 0. 2.05695722e-02
      2.45164752e-01 9.51159820e-02 0. 0. 1.10100940e-01 0.
      1.22326404e-01 1.09586127e-01 2.51292765e-01 0. 0. 0. 0.
      1.65183738e-01 1.56993821e-01 1.18864015e-01 2.73745567e-01
      9.05357823e-02 8.49691555e-02 0. 0. 1.09069236e-01 1.19254939e-01
      2.25197434e-01 1.78222656e-01 1.65796757e-01 1.04803465e-01 0. 0.
      1.05585106e-01 5.80202453e-02 1.38770759e-01 2.24016890e-01
      3.90768647e-02 7.14271218e-02 1.66261226e-01 0. 0. 0.
      1.15671204e-02 2.45757058e-01 1.23380758e-01 1.28099084e-01
      2.34251902e-01 6.02330938e-02 0. 0. 2.62812451e-02 2.44755223e-01</_>
    <_>
      1.60560280e-01 1.64518744e-01 1.02663606e-01 1.17288396e-01
      7.85539448e-02 0. 1.47119556e-02 2.20075428e-01 7.20033273e-02
      1.69390485e-01 9.62366611e-02 1.08325854e-01 0. 0. 1.47119556e-02
      2.47648239e-01 1.11092053e-01 0. 0. 0. 1.31056428e-01
      1.11517198e-01 1.07076451e-01 2.78225392e-01 0. 0. 0. 0. 0. 0.
      1.65258408e-01 2.94734269e-01 3.39035131e-02 0. 0. 4.05741259e-02
      1.07015938e-01 1.22778602e-01 1.10626489e-01 2.99962491e-01
      1.06646553e-01 0. 0. 0. 1.27634555e-01 1.11517198e-01
      1.17405005e-01 2.56096125e-01 0. 7.13578090e-02 7.82996640e-02
      7.94102401e-02 1.57107890e-01 0. 1.68785807e-02 2.93532491e-01
      1.36599019e-01 1.44756272e-01 0. 2.97524054e-02 0. 0.
      1.68785807e-02 2.93532491e-01</_>
    <_>
      3.26428592e-01 1.35990575e-01 9.73624960e-02 7.15617910e-02 0. 0.
      0. 0. 2.35657722e-01 1.34421974e-01 0. 1.39743090e-01
      5.59418648e-02 6.50304258e-02 8.39769281e-03 0. 3.38234812e-01
      8.39769281e-03 0. 0. 1.74613863e-01 9.48368162e-02 8.39769281e-03
      7.22252876e-02 2.76143521e-01 8.39769281e-03 0. 0. 1.06019422e-01
      8.16980079e-02 4.66620140e-02 7.22252876e-02 2.25440815e-01
      8.39769281e-03 0. 0. 1.05340146e-01 1.17508709e-01 1.17029473e-01
      7.24378526e-02 3.23676020e-01 1.18761314e-02 4.74233143e-02
      7.04514235e-02 1.06846765e-01 1.34793103e-01 9.73768607e-02
      7.24378526e-02 2.61549413e-01 1.43282011e-01 8.41806903e-02
      1.32660553e-01 0. 0. 0. 0. 3.26428592e-01 1.65998235e-01 0. 0. 0.
      0. 0. 0.</_>
    <_>
      3.29659969e-01 1.54335663e-01 0. 0. 0. 0. 0. 0. 2.87258923e-01
      9.92005393e-02 1.17852308e-01 6.96763843e-02 0. 0. 0. 0.
      3.22760314e-01 8.52489658e-03 0. 0. 1.01623401e-01 1.37778878e-01
      8.52489658e-03 7.22026229e-02 2.55168289e-01 0. 0. 0.
      7.06061274e-02 1.18900917e-01 1.18614219e-01 7.37557560e-02
      2.54765183e-01 0. 0. 0. 6.96763843e-02 8.24963227e-02
      1.29915625e-01 1.25711009e-01 3.01522583e-01 8.52489658e-03 0. 0.
      7.37802684e-02 1.27580449e-01 1.60985067e-01 7.24217370e-02
      2.64367431e-01 1.36728078e-01 9.69854742e-02 7.12910071e-02
      7.17511550e-02 9.73691121e-02 0. 0. 3.30195427e-01 1.10259816e-01
      1.28454745e-01 7.28711635e-02 0. 0. 0. 0.</_>
    <_>
      1.32208854e-01 1.62532806e-01 9.90087315e-02 1.07560426e-01
      3.87158468e-02 0. 1.89615525e-02 2.44842723e-01 8.13052505e-02
      1.00976184e-01 9.67877880e-02 1.07065819e-01 1.09720305e-01 0.
      1.89615525e-02 2.68330485e-01 1.46425843e-01 1.31433070e-01 0. 0.
      6.29412830e-02 1.57205835e-01 9.17644203e-02 2.74383068e-01 0. 0.
      0. 0. 0. 1.22893475e-01 1.87571615e-01 2.09828198e-01 0. 0. 0. 0.
      1.32286876e-01 1.71907604e-01 1.21042714e-01 2.74294883e-01
      1.02662690e-01 0. 0. 0. 1.07854746e-01 1.24108821e-01
      1.16881073e-01 2.51838893e-01 3.58364396e-02 7.10537359e-02
      1.65646866e-01 1.10475793e-01 0. 0. 9.51719880e-02 1.95404381e-01
      1.89948589e-01 1.90516204e-01 1.25876814e-01 0. 0. 0.
      2.50319894e-02 2.67976105e-01</_>
    <_>
      1.38657972e-01 1.67328760e-01 1.12964824e-01 5.50345182e-02 0. 0.
      1.68462284e-02 2.22383946e-01 1.28590837e-01 1.63805172e-01
      8.13080817e-02 1.19998582e-01 0. 0. 1.68462284e-02 2.72604138e-01
      1.06032483e-01 0. 0. 0. 1.27505600e-01 1.11134380e-01
      1.12547942e-01 2.56390363e-01 0. 0. 0. 0. 1.07814297e-01
      1.75146297e-01 1.15746103e-01 2.79192239e-01 0. 0. 0. 0. 0.
      1.70819595e-01 8.78360271e-02 3.00126225e-01 1.11404575e-01 0. 0.
      0. 0. 1.26013964e-01 1.07326858e-01 2.79097468e-01 7.28431493e-02
      9.57521051e-02 8.12374800e-02 1.14982560e-01 1.11404583e-01 0.
      1.87783353e-02 2.48563692e-01 1.32307351e-01 2.01108351e-01
      1.28945693e-01 5.04660234e-02 0. 4.75799255e-02 1.27405107e-01
      2.17333689e-01</_>
    <_>
      3.05742919e-01 1.76946118e-01 8.07654262e-02 1.21167623e-01 0. 0.
      4.63871136e-02 8.82848352e-02 2.23725721e-01 9.62300822e-02
      1.14383556e-01 6.77570477e-02 0. 0. 0. 0. 3.31466287e-01
      1.18030719e-02 0. 0. 0. 9.13375765e-02 1.18501693e-01
      1.14520542e-01 2.41370469e-01 8.34603235e-03 4.64235283e-02 0.
      1.21150263e-01 1.68529302e-01 1.18030719e-02 7.30890855e-02
      2.35049248e-01 8.34603235e-03 4.71315756e-02 0. 7.04608113e-02
      4.25174274e-02 2.40912348e-01 9.98049676e-02 2.59943426e-01
      9.78337601e-02 0. 0. 7.00427368e-02 1.34036273e-01 9.59784612e-02
      7.13422224e-02 2.64298677e-01 1.56969056e-01 0. 0. 0. 0.
      1.35509998e-01 9.96476337e-02 2.82193244e-01 1.88910544e-01
      1.25509754e-01 6.93649128e-02 0. 0. 4.71662953e-02 7.06842691e-02</_>
    <_>
      1.94034010e-01 1.64600939e-01 1.36178866e-01 7.22528845e-02 0.
      5.13142347e-02 9.08669550e-03 2.55917132e-01 7.79078752e-02
      1.04177549e-01 8.75436589e-02 2.03184690e-02 0. 0. 9.08669550e-03
      2.72782236e-01 1.71198651e-01 0. 0. 0. 0. 0. 1.34661362e-01
      2.47173011e-01 1.27422690e-01 5.13520390e-02 0. 0. 0.
      1.05389245e-01 1.45230800e-01 3.07624966e-01 0. 0. 0. 0.
      1.05807431e-01 7.15583637e-02 1.64281666e-01 2.33669117e-01
      1.85838476e-01 5.23988493e-02 0. 0. 1.21537760e-01 1.29821017e-01
      1.42808273e-01 1.71911001e-01 1.53463155e-01 1.56951740e-01
      8.61204043e-02 0. 0. 9.07270014e-02 9.34407264e-02 2.55615056e-01
      2.65814990e-01 8.70082006e-02 0. 8.53046328e-02 0. 0. 0.
      2.22216621e-01</_>
    <_>
      3.13828617e-01 9.12338644e-02 1.32699117e-01 1.60127789e-01 0. 0.
      9.19245631e-02 6.96899518e-02 2.37578139e-01 1.27593428e-01 0.
      1.26766071e-01 0. 0. 0. 0. 2.60082096e-01 8.07913020e-03 0. 0.
      1.28380269e-01 9.12778676e-02 0. 7.07517341e-02 2.65686363e-01
      8.07913020e-03 0. 0. 1.26927465e-01 1.12879857e-01 2.09503099e-01
      7.05355853e-02 2.17085525e-01 8.07913020e-03 0. 0. 1.43157661e-01
      1.22298054e-01 1.29970089e-01 9.63104144e-02 2.86981940e-01
      8.07913020e-03 0. 0. 1.28380269e-01 8.04251209e-02 1.31521210e-01
      1.18524194e-01 2.73769230e-01 7.85989165e-02 0. 7.61512145e-02
      1.41571879e-01 0. 0. 0. 2.89441943e-01 1.37394622e-01
      1.40061811e-01 1.55049562e-01 5.59193008e-02 0. 0. 0.</_>
    <_>
      2.94715255e-01 1.38206393e-01 1.55651733e-01 1.41312361e-01 0. 0.
      0. 0. 2.73966253e-01 8.84388983e-02 0. 1.26425251e-01
      1.08625837e-01 0. 0. 0. 2.85464734e-01 1.14402501e-02 0.
      1.08215831e-01 1.29976645e-01 9.13947895e-02 0. 7.08423555e-02
      2.66026676e-01 8.08947906e-03 0. 0. 1.40060291e-01 1.66198701e-01
      1.18373424e-01 6.87457994e-02 1.88171253e-01 0. 0. 0.
      1.47756070e-01 7.75460005e-02 1.37727380e-01 1.20893560e-01
      2.87354261e-01 8.08947906e-03 0. 0. 6.89581782e-02 1.22582354e-01
      1.67875811e-01 1.19644709e-01 2.27149740e-01 1.88468993e-01
      8.09688196e-02 6.69998452e-02 0. 0. 0. 0. 3.10512841e-01
      1.53665334e-01 4.86024246e-02 1.02776363e-01 7.68100619e-02 0. 0.
      0.</_>
    <_>
      1.38438091e-01 9.82409492e-02 1.10802583e-01 0. 4.30977605e-02 0.
      1.47413528e-02 2.94328541e-01 0. 7.20858276e-02 7.78864622e-02
      6.38019815e-02 1.56276435e-01 0. 2.89097819e-02 2.94328541e-01
      1.06859662e-01 0. 0. 0. 1.26911059e-01 0. 1.61512375e-01
      2.52425164e-01 3.39712575e-02 0. 0. 4.06551994e-02 1.07229769e-01
      1.23023942e-01 1.11157075e-01 3.00430834e-01 0. 0. 0. 0. 0.
      9.14805159e-02 1.69445351e-01 2.87800670e-01 1.11314036e-01 0. 0.
      0. 6.38555363e-02 1.66280597e-01 1.18516579e-01 2.56353170e-01
      7.63125047e-02 1.68576822e-01 9.64289606e-02 1.08542308e-01 0. 0.
      1.69123076e-02 2.48457879e-01 1.46020114e-01 1.98895887e-01
      1.00270152e-01 7.56976381e-02 7.87109137e-02 0. 1.69123076e-02
      2.22081512e-01</_>
    <_>
      3.04571956e-01 1.81344047e-01 9.55535024e-02 1.49763539e-01 0. 0.
      0. 0. 2.62422949e-01 9.38071385e-02 0. 1.31910115e-01 0. 0. 0. 0.
      2.99820930e-01 8.44043493e-03 0. 0. 1.34247527e-01 9.54044238e-02
      1.46192620e-02 7.45677501e-02 2.77574897e-01 8.44043493e-03 0. 0.
      0. 0. 1.64994299e-01 1.26611620e-01 1.96344584e-01 0. 0. 0.
      1.49461001e-01 9.54886377e-02 1.65764183e-01 1.42211661e-01
      2.77567089e-01 8.44043493e-03 0. 0. 1.34247527e-01 9.54044238e-02
      1.37958407e-01 1.24854542e-01 2.62597591e-01 1.18834332e-01
      1.16592214e-01 1.32269830e-01 0. 0. 0. 0. 3.23895097e-01
      1.69833228e-01 0. 0. 0. 0. 0. 0.</_>
    <_>
      2.27879941e-01 2.18638033e-01 1.39158860e-01 1.24670938e-01 0. 0.
      9.82001200e-02 7.19762146e-02 2.22744152e-01 1.37168571e-01 0.
      7.12963045e-02 0. 0. 1.38875946e-01 1.01789735e-01 2.49423638e-01
      8.52552988e-03 0. 0. 7.22044781e-02 9.62745249e-02 8.52552988e-03
      7.19762146e-02 2.56089985e-01 8.52552988e-03 0. 0. 1.07784234e-01
      1.19297534e-01 2.23082304e-01 1.25576138e-01 1.98804900e-01
      8.52552988e-03 0. 0. 7.12963045e-02 1.19198881e-01 1.19116493e-01
      7.35405684e-02 3.23738217e-01 1.20569207e-02 0. 1.14260875e-01
      7.22044781e-02 9.62745249e-02 1.38978288e-01 1.24405861e-01
      2.65635937e-01 9.58885327e-02 0. 1.34680033e-01 1.14481159e-01 0.
      0. 0. 3.22286099e-01 1.61497265e-01 0. 1.22658722e-01
      8.09504017e-02 0. 0. 0.</_>
    <_>
      2.63048768e-01 2.20217824e-01 0. 0. 0. 0. 0. 0. 2.90935934e-01
      9.60443467e-02 0. 7.19819367e-02 0. 0. 1.40211463e-01
      1.02768615e-01 3.46685916e-01 8.60751700e-03 0. 0. 7.28988424e-02
      9.72064063e-02 8.60751700e-03 7.40299001e-02 2.83043236e-01
      8.60751700e-03 0. 0. 0. 0. 9.79365706e-02 7.42477775e-02
      2.58368462e-01 8.60751700e-03 0. 0. 1.02450751e-01 9.72003639e-02
      9.64292809e-02 1.02934211e-01 3.27425003e-01 1.21728675e-02 0. 0.
      7.24465400e-02 1.37744397e-01 9.94380638e-02 7.42477775e-02
      2.40823865e-01 8.37322921e-02 4.63082679e-02 1.35786250e-01
      1.15582079e-01 0. 0. 0. 3.52862298e-01 9.99136567e-02 0. 0. 0. 0.
      1.40050530e-01 1.02284372e-01</_>
    <_>
      3.08754981e-01 1.85578287e-01 9.70026329e-02 1.01646468e-01 0. 0.
      0. 0. 2.66897410e-01 9.57283229e-02 0. 1.34603679e-01 0. 0. 0. 0.
      3.04719388e-01 8.57864134e-03 0. 0. 1.36317685e-01 9.69213322e-02
      1.21320309e-02 7.51261190e-02 2.57522881e-01 8.57864134e-03 0. 0.
      6.96574971e-02 8.25720802e-02 1.46325320e-01 1.27557278e-01
      2.57522881e-01 8.57864134e-03 0. 0. 1.01643652e-01 1.29322946e-01
      1.73585370e-01 1.27557278e-01 2.82106668e-01 8.57864134e-03 0. 0.
      1.36317685e-01 9.69213322e-02 1.21320309e-02 7.51261190e-02
      1.95405379e-01 8.34584758e-02 4.30597849e-02 1.34603679e-01
      1.15194328e-01 0. 0. 0. 3.27871948e-01 1.62620068e-01
      5.15413620e-02 7.33614564e-02 0. 0. 1.39370665e-01 1.28298223e-01</_>
    <_>
      1.75402492e-01 1.81788251e-01 9.94642004e-02 0. 2.83306409e-02 0.
      1.71696935e-02 2.53563881e-01 7.48899281e-02 9.77599323e-02
      9.92648900e-02 1.10738575e-01 1.13543667e-01 0. 1.71696935e-02
      2.53563881e-01 1.13543667e-01 2.80453376e-02 0. 0. 8.08785409e-02
      1.11530334e-01 1.07158937e-01 3.04997385e-01 8.02874938e-02 0. 0.
      0. 0. 0. 1.53897375e-01 3.06121051e-01 9.09132957e-02 0. 0. 0. 0.
      9.47513133e-02 1.74842492e-01 2.60465950e-01 1.33044675e-01
      1.04280196e-01 0. 0. 1.28194377e-01 0. 9.24345702e-02
      2.59386957e-01 7.30329826e-02 7.38419592e-02 7.88498223e-02 0.
      8.02874938e-02 6.55732155e-02 1.19011879e-01 2.26340324e-01
      1.70034289e-01 1.69456661e-01 0. 3.77205834e-02 0. 0.
      8.45571421e-03 3.10445875e-01</_>
    <_>
      2.19031662e-01 1.14335090e-01 1.15699440e-01 6.70451149e-02 0. 0.
      0. 1.92098424e-01 1.65779322e-01 1.34497389e-01 9.43056867e-02
      7.11047649e-02 1.58402160e-01 0. 0. 2.38393858e-01 1.47172168e-01
      4.55918759e-02 0. 7.08721876e-02 1.52838275e-01 1.22366138e-01
      1.08227484e-01 2.06299290e-01 1.53352171e-01 0. 0. 0.
      7.15830177e-02 5.01153655e-02 8.24369714e-02 3.11013877e-01
      1.12007238e-01 0. 0. 0. 7.15830177e-02 5.08835688e-02
      1.57374248e-01 2.77174026e-01 1.58402160e-01 0. 0. 0.
      1.30716205e-01 9.21209976e-02 1.33984238e-01 2.33610347e-01
      1.05554238e-01 9.62322503e-02 9.46103558e-02 1.27034724e-01
      7.92010799e-02 4.71395254e-02 4.71055992e-02 2.73506671e-01
      1.66826993e-01 1.56790614e-01 4.41663265e-02 0. 0. 0.
      1.17963729e-02 2.36904070e-01</_>
    <_>
      3.14204037e-01 1.10123135e-01 1.23662278e-01 1.07295267e-01 0. 0.
      0. 0. 2.43729621e-01 1.21508166e-01 1.12749904e-01 1.33411586e-01
      1.11626238e-01 0. 0. 0. 3.10986787e-01 1.69597398e-02 0. 0.
      1.44715965e-01 1.65083721e-01 1.06805027e-01 7.21381977e-02
      2.45489150e-01 8.31292104e-03 0. 0. 0. 0. 1.57312810e-01
      7.84999058e-02 2.44088709e-01 1.47826970e-02 0. 0. 6.40346259e-02
      1.21931002e-01 1.68854252e-01 1.24741048e-01 2.68551677e-01
      1.47826970e-02 0. 0. 1.55911922e-01 9.62659791e-02 1.04550414e-01
      7.23495483e-02 2.57592827e-01 1.21453851e-01 1.68143928e-01
      6.61291406e-02 0. 0. 0. 0. 3.18413258e-01 1.55107528e-01
      8.96686465e-02 0. 0. 0. 0. 0.</_>
    <_>
      2.47868329e-01 1.97388560e-01 1.26180112e-01 7.77638108e-02 0. 0.
      0. 0. 2.63607144e-01 9.22992304e-02 0. 1.30050331e-01 0. 0.
      1.37952968e-01 1.01001784e-01 2.51286536e-01 1.31095812e-01
      4.89582308e-02 0. 1.36456072e-01 9.71724838e-02 7.39281923e-02
      3.51979099e-02 2.80310333e-01 1.93223115e-02 0. 0. 0. 0.
      2.09753335e-01 1.32347211e-01 2.55993843e-01 1.73342340e-02 0. 0.
      0. 9.99097377e-02 1.60818025e-01 1.10375404e-01 2.77088463e-01
      1.29176810e-01 5.11711650e-02 0. 1.36456072e-01 9.71724913e-02
      7.77713731e-02 3.51979099e-02 2.87279963e-01 9.30854380e-02 0.
      1.30050331e-01 0. 0. 1.38323367e-01 1.00318894e-01 2.87461489e-01
      1.17816806e-01 1.28097221e-01 0. 0. 0. 0. 0.</_>
    <_>
      3.28830689e-01 1.11587286e-01 1.26777232e-01 1.09123848e-01 0.
      4.38218154e-02 9.44343135e-02 7.57381022e-02 1.95953578e-01
      1.53557599e-01 1.16746150e-01 1.32720307e-01 0. 0. 0. 0.
      3.23112816e-01 1.20248236e-02 0. 1.14288822e-01 0. 9.46900472e-02
      1.70513779e-01 1.26400232e-01 1.97819039e-01 8.50283448e-03 0. 0.
      6.76398948e-02 1.17663890e-01 1.17410898e-01 7.96895698e-02
      2.28430197e-01 0. 0. 0. 1.33524075e-01 8.32043216e-02
      1.73656002e-01 7.80452639e-02 2.97740221e-01 0. 0. 0.
      7.27233738e-02 1.28998756e-01 1.09975465e-01 7.65796751e-02
      1.67571381e-01 1.65905684e-01 9.70346183e-02 1.00748248e-01 0. 0.
      9.50425938e-02 7.44575411e-02 2.97480136e-01 1.67051494e-01
      9.97687578e-02 7.42262974e-02 0. 0. 1.37514740e-01 1.00076340e-01</_>
    <_>
      3.36086422e-01 1.58403426e-01 0. 0. 0. 6.58423379e-02
      1.08288698e-01 7.09818006e-02 2.17718661e-01 1.61429167e-01 0.
      1.39833778e-01 0. 0. 0. 0. 2.85166025e-01 1.78345926e-02 0. 0.
      1.12180628e-01 1.10664025e-01 1.43097416e-01 1.08396158e-01
      2.11189553e-01 1.55452481e-02 5.73583618e-02 0. 4.28722650e-02 0.
      2.12199673e-01 1.34223565e-01 2.30156839e-01 0. 0. 0.
      1.43166184e-01 9.67142805e-02 1.73870862e-01 1.32604077e-01
      2.58633554e-01 8.83282498e-02 4.69882004e-02 0. 1.14463910e-01
      1.01231761e-01 1.12009332e-01 7.60816336e-02 2.43563041e-01
      1.13738306e-01 1.24806739e-01 7.02637434e-02 0. 0. 1.00653954e-01
      7.21633509e-02 2.81525522e-01 1.81972370e-01 1.16779096e-01
      1.13077372e-01 0. 0. 0. 0.</_>
    <_>
      2.54246056e-01 1.76171005e-01 1.25362918e-01 7.36301616e-02 0. 0.
      0. 7.63141364e-02 2.15809390e-01 1.90690637e-01 9.29786712e-02
      6.82717264e-02 0. 0. 1.36339009e-01 9.94394273e-02 3.08867007e-01
      8.40797741e-03 0. 0. 7.16731921e-02 1.27415910e-01 1.97236881e-01
      1.00705490e-01 1.33543387e-01 9.55521092e-02 0. 0. 1.02735683e-01
      1.16973244e-01 1.15574673e-01 1.08994216e-01 2.22812235e-01 0. 0.
      0. 6.68853074e-02 1.16164066e-01 1.15606569e-01 7.79916048e-02
      3.16345870e-01 0. 0. 0. 1.47264495e-01 1.66858822e-01
      1.09073132e-01 7.25265443e-02 1.99757025e-01 1.98486269e-01
      8.40332955e-02 1.31761178e-01 0. 0. 1.36339009e-01 9.94394273e-02
      2.56311536e-01 1.76325962e-01 1.26002759e-01 1.07866645e-01 0. 0.
      0. 0.</_>
    <_>
      2.75501072e-01 2.11012945e-01 4.81308252e-02 0. 0. 0. 0. 0.
      2.56633133e-01 1.66341543e-01 0. 7.08528906e-02 1.12694465e-01 0.
      9.66675282e-02 7.08528906e-02 2.76043952e-01 0. 0. 0.
      1.33117154e-01 0. 1.66341543e-01 1.22720815e-01 2.25388929e-01 0.
      0. 0. 0. 0. 1.93335056e-01 1.41705781e-01 1.50798902e-01
      1.36708528e-01 0. 0. 0. 0. 1.67091042e-01 1.22850679e-01
      2.98161536e-01 0. 0. 0. 1.33117154e-01 8.42587650e-02
      1.98139325e-01 1.22720815e-01 2.56633133e-01 1.66341543e-01 0.
      7.08528906e-02 1.12694465e-01 0. 0. 0. 3.22429359e-01
      1.66341543e-01 0. 7.08528906e-02 7.96870217e-02 0. 0. 0.</_>
    <_>
      2.99361259e-01 1.96347103e-01 8.34966227e-02 7.02120066e-02
      7.89662302e-02 0. 1.65918589e-01 1.21610768e-01 1.31913066e-01
      1.42125055e-01 8.34966227e-02 7.02120066e-02 1.11675113e-01 0. 0.
      0. 2.95464575e-01 0. 0. 0. 7.02120066e-02 8.34966227e-02
      1.71393856e-01 9.92947742e-02 1.86553240e-01 1.35471970e-01 0. 0.
      7.02120066e-02 8.34966227e-02 1.94516465e-01 7.02120066e-02
      2.49713138e-01 0. 0. 0. 7.02120066e-02 8.34966227e-02
      2.37042844e-01 1.21610768e-01 2.49713138e-01 0. 0. 0.
      1.72836304e-01 0. 9.39071998e-02 7.02120066e-02 2.59396195e-01
      1.42125055e-01 8.34966227e-02 7.02120066e-02 1.11675113e-01 0. 0.
      0. 2.99361259e-01 1.96347103e-01 8.34966227e-02 7.02120066e-02 0.
      0. 0. 0.</_>
    <_>
      3.18515718e-01 1.59450725e-01 0. 0. 0. 0. 0. 0. 2.58156300e-01
      1.82452261e-01 9.46878865e-02 6.96160793e-02 0. 0. 0. 0.
      3.34413230e-01 6.85518831e-02 9.36423689e-02 7.90475160e-02 0.
      8.09870139e-02 1.26280725e-01 1.26393899e-01 2.78677791e-01 0. 0.
      0. 7.02799633e-02 4.47460897e-02 8.26548412e-02 9.98624787e-02
      2.73382097e-01 8.32461100e-03 0. 0. 0. 4.47862372e-02
      1.95777908e-01 1.22237384e-01 2.73740351e-01 8.32461100e-03 0. 0.
      7.00654164e-02 1.26042560e-01 8.39030370e-02 7.07202405e-02
      2.73382902e-01 8.09779689e-02 9.47068706e-02 1.19177207e-01 0. 0.
      0. 0. 3.30633312e-01 1.35309801e-01 0. 0. 8.91859010e-02 0.
      4.70106043e-02 8.80719423e-02</_>
    <_>
      2.23927155e-01 1.44068137e-01 7.88207203e-02 6.34344593e-02 0. 0.
      0. 2.44969010e-01 7.13855922e-02 1.61992222e-01 1.15133069e-01
      7.66250417e-02 1.10140204e-01 0. 1.85050424e-02 2.10882932e-01
      1.29857898e-01 9.16134492e-02 0. 1.26745686e-01 6.71977103e-02
      1.44738123e-01 1.39105439e-01 2.04919070e-01 1.49578288e-01 0. 0.
      0. 0. 1.27944618e-01 1.43832743e-01 3.03887874e-01 7.25012422e-02
      0. 0. 0. 2.92940885e-02 7.12797865e-02 1.54362351e-01
      2.94647932e-01 1.11126512e-01 0. 0. 0. 7.36558735e-02
      1.12937100e-01 9.71019715e-02 2.68846601e-01 1.46009490e-01
      6.23430461e-02 1.18106931e-01 7.16093704e-02 6.94525465e-02
      7.80294314e-02 8.27570632e-03 2.70754129e-01 1.49140581e-01
      1.50056243e-01 1.18222520e-01 6.65179342e-02 0. 5.05537726e-02
      8.27570632e-03 2.07618192e-01</_>
    <_>
      1.65224716e-01 2.03458577e-01 0. 0. 0. 0. 0. 2.68243492e-01
      2.61596479e-02 8.35949033e-02 1.55497089e-01 1.19273618e-01 0. 0.
      1.33814424e-01 2.13131145e-01 1.09475777e-01 0. 0. 0.
      1.67866305e-01 1.18030049e-01 3.98361273e-02 2.39069358e-01
      8.58919546e-02 7.92427212e-02 4.04507332e-02 0. 7.11704195e-02
      9.56612974e-02 1.31017089e-01 2.93279707e-01 0. 0. 0. 0.
      7.77732134e-02 1.46404758e-01 1.37181848e-01 2.28073865e-01
      1.46086171e-01 1.32105112e-01 0. 0. 1.25096098e-01 8.12540799e-02
      1.28971830e-01 2.75696337e-01 8.84303600e-02 7.63203204e-02
      1.27307832e-01 9.90502015e-02 1.09475777e-01 0. 1.33634403e-01
      1.81869417e-01 1.63704649e-01 2.11483702e-01 1.12819694e-01
      6.48551732e-02 0. 0. 9.56040248e-02 2.28538200e-01</_>
    <_>
      3.29658121e-01 1.15314394e-01 1.15893044e-01 1.27864987e-01 0. 0.
      0. 0. 2.68095613e-01 9.54625607e-02 0. 1.33803129e-01 0. 0. 0. 0.
      3.28189492e-01 1.76508222e-02 0. 0. 1.11024700e-01 1.09523728e-01
      1.02804862e-01 7.94112906e-02 2.59241939e-01 1.76508222e-02 0. 0.
      0. 0. 1.64862052e-01 8.16986486e-02 2.00755879e-01 1.53850680e-02
      0. 0. 6.88624308e-02 1.18873365e-01 2.23315597e-01 8.02519768e-02
      2.78266966e-01 1.53850680e-02 0. 0. 7.42464811e-02 9.79905874e-02
      1.58054411e-01 1.06961921e-01 2.68089324e-01 1.21303655e-01
      1.18067659e-01 6.95397407e-02 0. 0. 0. 0. 3.34822625e-01
      1.17838152e-01 1.29012614e-01 7.64166936e-02 0. 0. 0. 0.</_>
    <_>
      2.58756429e-01 1.15035608e-01 1.16005100e-01 6.82663992e-02 0. 0.
      0. 1.92459270e-01 1.72119409e-01 1.06086746e-01 1.26000822e-01
      7.07230195e-02 1.11771494e-01 0. 8.32373928e-03 1.92760721e-01
      2.22664624e-01 0. 0. 0. 1.30963624e-01 1.23505376e-01
      1.07012570e-01 1.31091073e-01 2.21782774e-01 0. 0. 0.
      7.11516589e-02 9.63963345e-02 1.33785293e-01 2.31991068e-01
      1.58068761e-01 0. 0. 0. 7.13664070e-02 9.67800319e-02
      1.88405946e-01 1.97347939e-01 2.05577031e-01 1.06920235e-01 0. 0.
      1.30963624e-01 8.33135620e-02 1.63595781e-01 1.86174706e-01
      2.07106650e-01 1.71976894e-01 1.25996515e-01 7.07230195e-02
      1.11771494e-01 0. 8.39821920e-02 1.72872379e-01 2.29355067e-01
      1.71635926e-01 1.24144070e-01 6.89400658e-02 0. 0. 9.58758146e-02
      0.</_>
    <_>
      3.46257150e-01 9.81886461e-02 0. 0. 0. 0. 0. 0. 3.07175845e-01
      9.36270729e-02 0. 1.32370785e-01 1.13128304e-01 0. 0. 0.
      2.77034312e-01 1.19144404e-02 0. 1.12931378e-01 1.00587852e-01
      1.35736883e-01 8.42478219e-03 7.13546872e-02 2.53279984e-01
      1.45921502e-02 0. 0. 6.97769374e-02 1.25933021e-01 1.74101681e-01
      1.24357738e-01 2.77034312e-01 8.42478219e-03 0. 0. 0. 0.
      9.46607739e-02 7.41864741e-02 3.39341372e-01 8.42478219e-03 0. 0.
      7.15815350e-02 1.27526000e-01 1.08454295e-01 7.28895813e-02
      2.36753315e-01 1.90302968e-01 0. 0. 0. 0. 0. 0. 3.06994170e-01
      1.52500123e-01 1.51265949e-01 7.20153749e-02 0. 0. 0. 0.</_>
    <_>
      2.49840558e-01 1.96512252e-01 1.28935456e-01 0. 0. 0.
      1.00142799e-01 6.79259077e-02 1.83430538e-01 1.91976786e-01
      1.22489028e-01 1.33825436e-01 0. 0. 1.38729975e-01 1.00741692e-01
      3.26609850e-01 2.59485282e-02 0. 1.12907238e-01 1.36749178e-01
      9.72315371e-02 1.58731177e-01 1.05361469e-01 1.99546084e-01 0. 0.
      0. 0. 0. 1.61902666e-01 8.37490261e-02 1.98980317e-01
      1.52444243e-02 0. 0. 0. 1.33404747e-01 2.26701200e-01
      1.31006822e-01 2.57728845e-01 0. 0. 0. 0. 9.45951864e-02
      1.72264397e-01 1.31139785e-01 2.20441297e-01 1.82826325e-01 0.
      6.81946352e-02 0. 0. 0. 0. 2.92908043e-01 2.37498567e-01 0. 0. 0.
      0. 0. 0.</_>
    <_>
      2.86602885e-01 1.68700814e-01 0. 7.09615797e-02 0. 0.
      8.56781378e-03 1.62576362e-01 2.12458834e-01 8.56781378e-03
      1.38041362e-01 1.02295585e-01 0. 0. 8.56781378e-03 1.62576362e-01
      2.81811178e-01 0. 0. 0. 1.35159925e-01 4.60533425e-02
      8.37852880e-02 1.77294865e-01 2.30097875e-01 0. 0. 0. 0. 0.
      1.39262870e-01 1.91825107e-01 1.99270606e-01 0. 0. 0. 0.
      9.78831202e-02 2.37784103e-01 1.35104835e-01 2.23932713e-01
      1.39346585e-01 0. 0. 1.14635125e-01 0. 1.36608794e-01
      1.77479625e-01 2.41609216e-01 0. 9.67580229e-02 7.25625828e-02
      1.15048937e-01 0. 8.56781378e-03 1.62576362e-01 2.91340947e-01
      1.67775974e-01 0. 0. 0. 0. 8.56781378e-03 1.62576362e-01</_>
    <_>
      3.44672501e-01 1.39740914e-01 0. 0. 6.95217028e-02 0.
      1.10193968e-01 7.16753379e-02 2.47772232e-01 1.57481641e-01
      5.59698083e-02 7.09627792e-02 1.11350305e-01 4.13211919e-02 0. 0.
      2.86208540e-01 1.74787845e-02 0. 0. 1.12120613e-01 1.09587021e-01
      1.42478332e-01 1.07100114e-01 2.11640894e-01 0. 5.41188605e-02 0.
      0. 4.50409837e-02 2.14300379e-01 1.31873429e-01 2.01266512e-01 0.
      0. 0. 1.15998529e-01 8.30460787e-02 1.58586890e-01 1.09148227e-01
      2.98274219e-01 0. 0. 0. 0. 1.00334130e-01 1.73834607e-01
      1.29523903e-01 2.36675054e-01 1.63374692e-01 4.31631692e-02
      7.16753379e-02 0. 0. 0. 0. 3.26649368e-01 1.63467288e-01 0.
      1.11247830e-01 0. 0. 0. 0.</_>
    <_>
      2.86711544e-01 2.19379112e-01 0. 0. 0. 0. 0. 0. 2.67764211e-01
      1.46709949e-01 8.61901939e-02 7.24770203e-02 0. 0. 9.88833979e-02
      7.24770203e-02 2.67764211e-01 9.88833979e-02 0. 0. 7.24770203e-02
      8.61901939e-02 1.46709949e-01 7.24770203e-02 2.30555415e-01 0. 0.
      0. 7.24770203e-02 8.61901939e-02 2.02681184e-01 1.25533894e-01
      2.30555415e-01 0. 0. 0. 7.24770203e-02 0. 1.70154512e-01
      1.25533894e-01 3.04996163e-01 0. 0. 0. 7.24770203e-02
      8.61901939e-02 1.76922962e-01 1.02497987e-01 2.05758736e-01
      1.70154512e-01 0. 7.24770203e-02 1.15277708e-01 0. 0. 0.
      3.29820275e-01 1.70154512e-01 0. 7.24770203e-02 8.15136507e-02 0.
      9.88833979e-02 7.24770203e-02</_>
    <_>
      1.40973538e-01 1.96062595e-01 0. 3.07052117e-02 0. 0.
      1.51830995e-02 2.80576378e-01 7.51840323e-02 8.91430900e-02
      9.39424112e-02 1.14915647e-01 0. 0. 1.51830995e-02 2.80576378e-01
      1.14649728e-01 0. 0. 0. 6.79203048e-02 1.15803838e-01
      1.14952102e-01 2.64400065e-01 0. 0. 0. 0. 0. 1.81185499e-01
      1.22063980e-01 2.87920624e-01 8.82454216e-02 8.17304328e-02 0.
      3.98809724e-02 0. 0. 1.05931491e-01 3.24481249e-01 1.14649728e-01
      0. 0. 0. 7.55770132e-02 1.32375076e-01 1.87563881e-01
      2.10976735e-01 1.27055004e-01 1.69714883e-01 1.08223200e-01
      1.09173395e-01 0. 0. 1.74191091e-02 2.80408502e-01 1.61642581e-01
      1.20980792e-01 1.28522724e-01 1.00574918e-01 0. 0. 8.53808410e-03
      1.96650162e-01</_>
    <_>
      3.31518918e-01 1.64890721e-01 5.03666140e-02 1.09719746e-01 0. 0.
      1.40525907e-01 1.02582738e-01 1.71359748e-01 1.70683965e-01 0.
      1.36396497e-01 0. 0. 0. 0. 3.07117254e-01 8.64620041e-03 0. 0.
      1.37264997e-01 9.76432636e-02 8.64620041e-03 7.43625984e-02
      2.59936631e-01 1.49756586e-02 0. 0. 7.16108084e-02 8.36630389e-02
      1.48270041e-01 1.27889305e-01 2.58390337e-01 8.64620041e-03 0. 0.
      7.16108084e-02 9.61200222e-02 1.92513525e-01 1.63236097e-01
      2.59001762e-01 8.64620041e-03 0. 0. 1.37264997e-01 8.55093151e-02
      0. 7.32300133e-02 2.56388694e-01 8.45518336e-02 4.65163849e-02
      1.36396497e-01 0. 0. 0. 0. 3.09799343e-01 1.79729760e-01
      1.30282566e-01 7.39080757e-02 0. 0. 0. 7.98121169e-02</_>
    <_>
      2.78685689e-01 1.73859671e-01 1.14649355e-01 6.85750991e-02 0. 0.
      8.20013229e-03 0. 2.56010026e-01 1.32112071e-01 9.45910513e-02
      6.94486126e-02 1.10111691e-01 0. 8.20013229e-03 1.09899819e-01
      2.91328162e-01 0. 0. 0. 1.29306898e-01 1.47590607e-01
      1.03196308e-01 0. 2.55764693e-01 9.44520682e-02 0. 0.
      7.07337037e-02 8.22002813e-02 1.31933182e-01 1.29539624e-01
      2.20223382e-01 0. 0. 0. 6.96627498e-02 1.54834211e-01
      1.86065465e-01 6.92290589e-02 2.40808159e-01 1.33575395e-01 0. 0.
      1.29306898e-01 0. 1.24171123e-01 1.46672890e-01 1.83941558e-01
      2.08559349e-01 9.45910513e-02 6.94486126e-02 0. 0. 1.33826852e-01
      1.47184566e-01 2.25559935e-01 2.08921984e-01 0. 0. 0. 0.
      1.33575395e-01 9.79046747e-02</_>
    <_>
      3.44183207e-01 1.43719748e-01 1.04449831e-01 0. 0. 0. 0. 0.
      2.75730997e-01 9.74400342e-02 0. 1.37968510e-01 0. 0. 0. 0.
      3.17335516e-01 8.87475535e-03 0. 1.18065059e-01 7.56522119e-02
      1.00313656e-01 0. 7.84047917e-02 2.66320676e-01 0. 0. 0. 0. 0.
      2.00785846e-01 1.05964392e-01 2.66547918e-01 0. 0. 0. 0. 0.
      2.22871259e-01 1.34447977e-01 2.91975021e-01 0. 0. 0.
      7.59043619e-02 1.00402206e-01 1.77495107e-02 7.97692016e-02
      2.73357600e-01 9.86341760e-02 0. 7.27855116e-02 0. 0. 0. 0.
      3.29512298e-01 2.03462943e-01 0. 0. 0. 0. 0. 0.</_>
    <_>
      3.39473128e-01 1.31713003e-01 1.18659668e-01 0. 0. 0.
      1.02584608e-01 6.90536946e-02 1.86999410e-01 1.95493117e-01
      4.20922115e-02 1.37396500e-01 0. 0. 0. 0. 3.15951705e-01
      1.24987643e-02 0. 1.17356963e-01 7.53385574e-02 9.99209285e-02
      1.43650115e-01 1.29808933e-01 2.05167949e-01 0. 0. 0. 0. 0.
      1.70505390e-01 1.34149790e-01 2.65446752e-01 0. 0. 0. 0. 0.
      2.62501150e-01 1.32310584e-01 2.65629023e-01 0. 0. 0.
      7.55896643e-02 9.99859422e-02 0. 7.94384852e-02 2.71797121e-01
      9.58210155e-02 0. 7.24837407e-02 0. 0. 0. 0. 3.12774986e-01
      2.29230389e-01 0. 0. 0. 0. 0. 0.</_>
    <_>
      2.97152638e-01 1.75133571e-01 1.12897046e-01 1.24559484e-01 0. 0.
      0. 0. 2.35685930e-01 1.17738873e-01 1.15015440e-01 1.31035998e-01
      0. 0. 0. 0. 3.19703788e-01 2.68670581e-02 0. 1.11991838e-01
      1.10355884e-01 9.75986347e-02 1.05997756e-01 7.81773478e-02
      2.76741445e-01 1.71945225e-02 0. 0. 0. 0. 1.58148840e-01
      7.95866176e-02 1.95566058e-01 1.49873411e-02 0. 0. 1.29895821e-01
      7.94647485e-02 2.05453843e-01 1.46598861e-01 2.13059947e-01
      1.29246026e-01 4.97818403e-02 0. 7.23271072e-02 9.54573900e-02
      1.55117527e-01 1.04196802e-01 2.84460992e-01 1.18071631e-01
      1.14310756e-01 6.70446008e-02 0. 0. 1.36502296e-01 1.00164890e-01
      2.84163117e-01 1.14791870e-01 1.26465693e-01 0. 0. 0. 0. 0.</_>
    <_>
      2.87455916e-01 1.84356496e-01 1.32760197e-01 0. 0. 4.43960913e-02
      0. 1.12835847e-01 2.19558403e-01 1.14773683e-01 1.20740034e-01
      8.09581801e-02 0. 0. 1.01871550e-01 7.30363056e-02 3.11319381e-01
      1.57332979e-02 0. 0. 1.13979489e-01 1.11888275e-01 1.03457682e-01
      7.60900825e-02 2.35054627e-01 8.84748343e-03 0. 0. 0. 0.
      1.97276995e-01 1.11603715e-01 2.63622791e-01 1.57332979e-02 0. 0.
      1.43735439e-01 8.66028294e-02 1.75965324e-01 1.31930053e-01
      2.85630733e-01 2.52769943e-02 0. 1.17749892e-01 7.59269968e-02
      1.00208536e-01 7.57276043e-02 0. 2.47522846e-01 1.22937381e-01
      1.21478267e-01 7.18404651e-02 0. 0. 0. 0. 3.38919401e-01
      1.78569615e-01 0. 0. 0. 0. 0. 0.</_>
    <_>
      1.41862065e-01 1.43935248e-01 0. 0. 0. 0. 3.40416208e-02
      2.97320038e-01 0. 7.34509453e-02 7.78745040e-02 8.62313285e-02
      1.59033641e-01 0. 1.70048811e-02 2.97320038e-01 1.06566727e-01 0.
      4.15210538e-02 1.06126353e-01 6.45093396e-02 1.11873917e-01
      1.16967149e-01 2.58704334e-01 2.41391975e-02 0. 0. 4.00918536e-02
      1.09094322e-01 1.23781204e-01 1.13794282e-01 3.02955270e-01 0. 0.
      0. 0. 0. 0. 1.03525855e-01 3.22618157e-01 1.12453766e-01 0. 0. 0.
      1.08741485e-01 6.23526350e-02 8.21410790e-02 3.02724481e-01
      7.84982368e-02 1.64858520e-01 9.82841551e-02 0. 0. 0.
      1.89551860e-02 2.50926524e-01 1.49361938e-01 1.56042293e-01
      1.89107880e-01 0. 0. 0. 1.89551860e-02 2.24275455e-01</_>
    <_>
      2.08703220e-01 1.72796071e-01 7.74539411e-02 0. 0. 4.85589318e-02
      1.61274105e-01 1.67613089e-01 1.37492746e-01 1.59900948e-01
      8.15745220e-02 5.98912276e-02 1.13696851e-01 0. 8.46712198e-03
      2.27339551e-01 1.96413189e-01 0. 0. 0. 1.32126734e-01
      4.40305993e-02 1.17222339e-01 2.13883445e-01 1.45391434e-01
      8.40698332e-02 4.55529429e-02 0. 0. 1.15557060e-01 1.75444826e-01
      2.36326709e-01 1.70984641e-01 8.38014781e-02 4.48325686e-02 0. 0.
      6.91808388e-02 1.83589637e-01 2.61201024e-01 1.60791621e-01 0. 0.
      9.30007547e-02 7.95479342e-02 4.25000228e-02 1.17362849e-01
      2.19130546e-01 1.51835546e-01 9.76875871e-02 8.42874572e-02
      7.19412789e-02 1.13696851e-01 0. 8.46712198e-03 1.96841225e-01
      2.33105764e-01 2.04012185e-01 4.41355929e-02 0. 0. 0.
      9.75273550e-02 2.08673224e-01</_>
    <_>
      2.84182876e-01 1.63014680e-01 0. 0. 0. 0. 8.35730787e-03
      1.58581972e-01 2.35737652e-01 9.61851403e-02 1.34492025e-01
      7.03406185e-02 0. 0. 8.35730787e-03 1.58581972e-01 2.74887264e-01
      0. 0. 0. 6.98895156e-02 8.37758556e-02 1.41856328e-01
      1.73119068e-01 2.24444523e-01 0. 0. 0. 0. 0. 1.64776608e-01
      1.73119068e-01 1.49456903e-01 1.27744243e-01 4.57304940e-02 0. 0.
      9.54781994e-02 1.34560227e-01 1.72667414e-01 2.73807168e-01 0. 0.
      0. 6.98895156e-02 9.50788558e-02 2.12070182e-01 1.48857474e-01
      1.80124789e-01 1.66281298e-01 8.13051164e-02 7.18745664e-02
      1.12006329e-01 0. 1.18190181e-02 1.57331347e-01 2.84182876e-01
      1.49898872e-01 4.49218415e-02 0. 0. 0. 1.36055708e-01
      1.49783373e-01</_>
    <_>
      3.28868896e-01 2.05649197e-01 0. 0. 0. 4.54580188e-02 0. 0.
      2.77343661e-01 9.61250961e-02 0. 7.26112425e-02 0. 0. 0. 0.
      3.17784190e-01 0. 0. 0. 7.48436004e-02 1.00010969e-01
      1.54887047e-02 1.13009200e-01 2.55806863e-01 8.94240756e-03 0. 0.
      0. 0. 1.99710935e-01 1.12006143e-01 2.40239426e-01 0. 0. 0.
      1.08536057e-01 9.47968066e-02 2.12015316e-01 1.54169470e-01
      2.66230762e-01 0. 0. 0. 1.14253633e-01 1.11237608e-01
      1.02900952e-01 7.71365017e-02 2.50673175e-01 1.49604976e-01
      8.93746465e-02 7.33403563e-02 0. 0. 0. 0. 3.42806846e-01
      1.79887101e-01 0. 0. 0. 0. 0. 0.</_>
    <_>
      2.14971572e-01 2.13457197e-01 9.72366333e-02 7.74413198e-02
      4.76459749e-02 0. 0. 2.76126832e-01 7.78627470e-02 1.00484565e-01
      8.54348019e-02 1.14930034e-01 0. 0. 1.53677493e-01 1.11805618e-01
      1.48885489e-01 9.29450765e-02 0. 0. 1.29005626e-01 0.
      9.56941247e-02 2.55883455e-01 1.60074979e-01 0. 0. 0. 0.
      4.92292792e-02 2.03149214e-01 2.50401616e-01 1.60184607e-01 0. 0.
      0. 0. 1.24599680e-01 1.12870768e-01 3.02745193e-01 1.17058828e-01
      0. 3.64011861e-02 0. 1.27601638e-01 0. 1.82272643e-01
      2.07180679e-01 1.19430102e-01 4.61433344e-02 8.19060951e-02
      6.75056130e-02 1.65546179e-01 5.92853576e-02 7.47208595e-02
      1.82260290e-01 2.28707165e-01 1.43257275e-01 0. 0. 0. 0.
      7.07035810e-02 2.43155748e-01</_>
    <_>
      2.28359923e-01 4.61973250e-02 0. 0. 0. 0. 0. 2.59345263e-01
      1.85474858e-01 1.15482293e-01 0. 8.15813690e-02 0. 0.
      2.81913374e-02 2.61574000e-01 2.05606088e-01 7.24890977e-02 0. 0.
      7.64741898e-02 1.00541659e-01 8.45808908e-02 2.79178888e-01
      4.66887765e-02 0. 0. 0. 0. 0. 2.01857671e-01 2.32091621e-01
      8.02020580e-02 0. 0. 0. 0. 4.79007289e-02 1.15732014e-01
      3.11036617e-01 1.59081638e-01 5.25526851e-02 0. 0. 0.
      8.49307030e-02 2.81913374e-02 3.39395195e-01 8.13199729e-02
      1.01233236e-01 8.59754309e-02 1.31529897e-01 0. 3.56826931e-02
      2.81913374e-02 2.12008923e-01 2.28485078e-01 1.92598164e-01 0. 0.
      0. 0. 1.51119204e-02 2.47485265e-01</_>
    <_>
      2.48286858e-01 1.50492147e-01 0. 0. 0. 0. 0. 2.52972990e-01
      1.34038851e-01 9.82545763e-02 1.18708320e-01 7.62373134e-02 0. 0.
      8.50862637e-03 2.15724915e-01 1.96856573e-01 0. 0. 0.
      6.97827339e-02 1.24820873e-01 1.08079009e-01 1.76862165e-01
      2.23982975e-01 0. 0. 0. 0. 0. 9.94314998e-02 2.84888864e-01
      1.25482291e-01 1.29931211e-01 4.50523309e-02 0. 0. 0.
      1.63508296e-01 2.80827463e-01 1.60307497e-01 0. 0. 0.
      1.31814659e-01 4.27083522e-02 1.55024961e-01 2.16929883e-01
      1.68826267e-01 1.69227347e-01 1.07518926e-01 1.10070214e-01 0. 0.
      8.50862637e-03 2.13440776e-01 2.48294517e-01 1.59526512e-01
      4.25050594e-02 0. 0. 0. 1.38519153e-01 1.53009996e-01</_>
    <_>
      3.07987541e-01 1.97267562e-01 0. 0. 0. 0. 0. 0. 2.83136398e-01
      8.24762359e-02 0. 0. 1.69881850e-01 0. 0. 0. 3.04947257e-01 0. 0.
      0. 1.23330742e-01 1.19752117e-01 9.52353552e-02 0. 2.83136398e-01
      0. 0. 0. 7.12050349e-02 0. 1.53004393e-01 1.00699127e-01
      2.83136398e-01 0. 0. 0. 0. 0. 1.97267562e-01 7.12050349e-02
      2.99643397e-01 0. 0. 0. 1.69881850e-01 0. 8.24762359e-02 0.
      2.83136398e-01 9.52353552e-02 1.19752117e-01 1.23330742e-01 0. 0.
      0. 0. 3.21143478e-01 1.53004393e-01 0. 7.12050349e-02 0. 0. 0. 0.</_>
    <_>
      2.30017573e-01 1.52632564e-01 0. 0. 0. 0. 0. 2.85665780e-01
      8.21156725e-02 9.68793109e-02 8.91962722e-02 1.32679865e-01 0. 0.
      2.10976060e-02 2.55845785e-01 1.12682402e-01 0. 0. 0. 0.
      3.37015875e-02 1.13741055e-01 2.77442724e-01 2.05385402e-01 0. 0.
      0. 0. 0. 1.28572676e-02 3.46972197e-01 1.60271510e-01
      8.43133256e-02 0. 0. 0. 0. 1.11462444e-01 3.11983615e-01
      1.44602776e-01 4.52470332e-02 0. 0. 0. 1.41554579e-01
      1.58554479e-01 1.80819198e-01 1.08317569e-01 0. 1.21867612e-01
      7.33735040e-02 0. 0. 7.08432868e-02 2.33701453e-01 1.89137146e-01
      9.60163102e-02 0. 7.47894049e-02 0. 8.21505412e-02 1.00824639e-01
      2.56183922e-01</_>
    <_>
      3.30780536e-01 1.60365567e-01 0. 0. 0. 0. 0. 0. 2.88703561e-01
      8.31371918e-02 0. 7.17756674e-02 1.14162169e-01 0. 0. 0.
      3.42486501e-01 0. 0. 0. 0. 8.53561312e-02 1.28457740e-01
      7.17756674e-02 3.12645972e-01 0. 0. 0. 0. 0. 8.53561312e-02
      7.17756674e-02 2.79639065e-01 0. 0. 0. 0. 0. 1.60365567e-01
      7.17756674e-02 3.22899371e-01 0. 0. 0. 1.34850830e-01 0.
      8.31371918e-02 7.17756674e-02 3.20779145e-01 1.28457740e-01
      8.53561312e-02 0. 0. 0. 0. 0. 3.49926800e-01 8.53561312e-02 0. 0.
      0. 0. 0. 0.</_>
    <_>
      3.39981914e-01 1.62044883e-01 0. 0. 0. 0. 0. 0. 2.85698414e-01
      1.18051283e-01 1.27047226e-01 0. 0. 0. 3.48729193e-02 0.
      2.31690258e-01 4.49693725e-02 1.07174270e-01 4.52733263e-02 0.
      7.34042451e-02 8.80651698e-02 6.08760975e-02 2.27524176e-01
      1.04735307e-01 1.13929681e-01 0. 1.10303432e-01 0. 1.59974456e-01
      3.47387046e-02 2.86557913e-01 0. 0. 0. 0. 0. 6.86704516e-02
      1.07720874e-01 3.48408312e-01 6.99899048e-02 0. 1.25286266e-01 0.
      1.14071369e-01 1.10088319e-01 8.62180963e-02 3.46818000e-01
      1.20204568e-01 0. 0. 0. 0. 0. 4.59601507e-02 3.66694391e-01
      1.31807253e-02 0. 0. 0. 0. 0. 0.</_>
    <_>
      2.14971572e-01 2.13457197e-01 9.72366333e-02 7.74413198e-02
      4.76459749e-02 0. 0. 2.76126832e-01 7.78627470e-02 1.00484565e-01
      8.54348019e-02 1.14930034e-01 0. 0. 1.53677493e-01 1.11805618e-01
      1.48885489e-01 9.29450765e-02 0. 0. 1.29005626e-01 0.
      9.56941247e-02 2.55883455e-01 1.60074979e-01 0. 0. 0. 0.
      4.92292792e-02 2.03149214e-01 2.50401616e-01 1.60184607e-01 0. 0.
      0. 0. 1.24599680e-01 1.12870768e-01 3.02745193e-01 1.17058828e-01
      0. 3.64011861e-02 0. 1.27601638e-01 0. 1.82272643e-01
      2.07180679e-01 1.19430102e-01 4.61433344e-02 8.19060951e-02
      6.75056130e-02 1.65546179e-01 5.92853576e-02 7.47208595e-02
      1.82260290e-01 2.28707165e-01 1.43257275e-01 0. 0. 0. 0.
      7.07035810e-02 2.43155748e-01</_>
    <_>
      2.55520076e-01 1.88372150e-01 9.98603031e-02 7.40855932e-02 0. 0.
      0. 1.10054158e-01 2.63310283e-01 8.26286599e-02 0. 1.32259354e-01
      0. 0. 1.38756469e-01 1.01291060e-01 2.86974967e-01 8.60052407e-02
      4.89615835e-02 0. 1.12926610e-01 9.53366086e-02 8.72618183e-02
      7.31977150e-02 2.78143734e-01 0. 0. 0. 0. 0. 1.80614382e-01
      1.03677116e-01 2.80671507e-01 2.09121071e-02 0. 0. 0.
      4.23587486e-02 2.04776689e-01 1.26276359e-01 2.80761451e-01
      8.53733160e-03 0. 0. 1.37817457e-01 8.22509453e-02 0.
      7.28068575e-02 2.88795888e-01 1.28666759e-01 9.42860171e-02
      6.81242719e-02 0. 0. 0. 0. 3.26765180e-01 1.60383865e-01 0.
      7.71714821e-02 0. 0. 0. 0.</_>
    <_>
      2.98398137e-01 1.12018399e-01 1.69531360e-01 8.32602531e-02
      8.28504860e-02 0. 0. 0. 2.55436093e-01 1.21245489e-01
      1.14998423e-01 1.32298931e-01 0. 0. 0. 0. 3.04213196e-01
      2.91523710e-02 0. 1.15774527e-01 1.07995771e-01 7.40397647e-02
      9.23746079e-02 6.49638250e-02 2.81074822e-01 8.72564409e-03 0. 0.
      0. 0. 1.81831762e-01 8.23972970e-02 2.79059350e-01 0. 0. 0.
      1.18982896e-01 8.54752660e-02 1.53742433e-01 8.38323385e-02
      2.90785104e-01 1.55166332e-02 0. 0. 1.34250700e-01 8.25823024e-02
      0. 6.33250177e-02 2.80744135e-01 1.19346745e-01 1.14998423e-01
      6.40255138e-02 0. 0. 0. 0. 3.30870569e-01 1.03954270e-01
      1.23491116e-01 0. 0. 0. 0. 0.</_>
    <_>
      1.89665288e-01 1.55279890e-01 1.21793225e-01 0. 0. 0.
      2.42333785e-02 2.72147328e-01 5.07150739e-02 7.83940256e-02
      6.02784827e-02 1.06584176e-01 1.11325808e-01 0. 1.01307683e-01
      2.30658486e-01 1.64535493e-01 8.97878259e-02 1.11514628e-01
      6.89821169e-02 1.06577963e-01 1.26886576e-01 1.14212677e-01
      2.08648771e-01 9.07633677e-02 0. 0. 0. 1.09211601e-01
      1.62225589e-01 1.76405534e-01 1.81645960e-01 0. 0. 0. 0.
      6.52600005e-02 1.29063353e-01 2.21124798e-01 1.45671189e-01
      1.93266839e-01 1.32004842e-01 0. 0. 1.33385763e-01 9.64105055e-02
      7.88920820e-02 2.76395142e-01 8.00710991e-02 1.08922668e-01
      9.77481753e-02 1.08599581e-01 1.09562024e-01 0. 3.84810120e-02
      2.47660324e-01 1.07883044e-01 1.19675487e-01 1.69169530e-01
      1.88640952e-01 7.27142021e-02 0. 4.49673422e-02 1.90953299e-01</_>
    <_>
      2.38323495e-01 1.05944224e-01 1.32163927e-01 0. 0. 0. 0.
      1.93008348e-01 1.89219445e-01 1.12060115e-01 1.59209937e-01
      6.82724416e-02 0. 0. 7.40322769e-02 2.21800283e-01 1.96507066e-01
      4.10475060e-02 0. 2.28253044e-02 1.36635572e-01 1.40694574e-01
      1.20380513e-01 1.81283027e-01 1.15394235e-01 1.00414030e-01 0. 0.
      0. 1.40521914e-01 1.31152451e-01 2.30414659e-01 1.48486421e-01
      7.27881342e-02 0. 0. 0. 1.35734156e-01 1.01502322e-01
      2.43050486e-01 1.93476915e-01 5.60248271e-02 4.42316234e-02
      1.09739408e-01 1.21043734e-01 1.56323209e-01 4.43808511e-02
      2.15092868e-01 1.70040607e-01 1.17914408e-01 8.51008147e-02
      1.35892123e-01 1.15244135e-01 0. 1.91907194e-02 2.13807285e-01
      1.94726706e-01 1.73589334e-01 1.35024354e-01 0. 0. 0.
      1.91907194e-02 1.80422723e-01</_>
    <_>
      2.31576204e-01 1.12624191e-01 1.24698602e-01 0. 0. 0. 0.
      1.89703599e-01 1.54210627e-01 1.56777039e-01 1.40782118e-01
      1.25062406e-01 1.08882897e-01 0. 0. 2.18568876e-01 1.50609240e-01
      6.16201945e-02 8.11563805e-02 6.86735958e-02 1.28094018e-01
      1.79376215e-01 5.17563075e-02 2.40309969e-01 1.09921813e-01 0. 0.
      0. 0. 1.33059025e-01 1.23624571e-01 2.62172043e-01 1.38887793e-01
      5.97402267e-02 0. 3.86373661e-02 0. 1.36138648e-01 9.68995467e-02
      2.48316258e-01 1.85348645e-01 3.42823118e-02 0. 0. 1.25580132e-01
      1.22557476e-01 1.20135464e-01 2.16346234e-01 1.02281265e-01
      1.54355347e-01 1.41093597e-01 6.60885647e-02 0. 3.81163321e-02
      3.61412391e-02 2.11917356e-01 2.09672183e-01 1.51040196e-01
      1.27160206e-01 0. 0. 0. 5.97118065e-02 2.09449261e-01</_>
    <_>
      2.48831630e-01 1.74862832e-01 9.49139073e-02 1.07777089e-01 0. 0.
      0. 0. 2.15198129e-01 1.30637944e-01 1.22476034e-01 1.24540254e-01
      1.22898817e-01 0. 9.49644074e-02 1.07363403e-01 2.88920492e-01
      2.70510092e-02 5.01832329e-02 0. 7.95376152e-02 1.81645066e-01
      1.68323442e-01 1.07511908e-01 1.94653675e-01 0. 0. 0. 0.
      1.27282038e-01 1.54843688e-01 1.16192684e-01 2.27231085e-01 0. 0.
      0. 1.14383936e-01 1.04000300e-01 1.75565660e-01 9.84703004e-02
      3.01386237e-01 2.39593983e-02 0. 0. 1.16753213e-01 1.08167820e-01
      1.76930264e-01 8.06334838e-02 1.88146159e-01 7.31283948e-02
      1.57812223e-01 1.44848347e-01 4.57609594e-02 5.31457886e-02
      9.14172381e-02 1.04514241e-01 2.39947215e-01 1.87831372e-01
      4.68458422e-02 0. 0. 0. 1.33435354e-01 7.45229423e-02</_>
    <_>
      2.45360196e-01 1.34725153e-01 1.32477149e-01 0. 0. 0.
      9.89613384e-02 0. 1.85392335e-01 1.21775806e-01 1.86699659e-01
      1.14595577e-01 4.56413068e-02 0. 9.42412689e-02 1.16530292e-01
      3.12990010e-01 5.55697195e-02 0. 0. 1.73363730e-01 8.59142989e-02
      1.36565998e-01 1.08299144e-01 2.22492486e-01 0. 0. 0. 0.
      1.90136939e-01 9.09670964e-02 5.50733171e-02 2.20601261e-01 0. 0.
      0. 0. 0. 1.66099891e-01 1.59907222e-01 2.68345386e-01
      2.55636070e-02 0. 0. 1.34252265e-01 1.75774932e-01 1.22107670e-01
      1.11473314e-01 2.70649374e-01 8.53250697e-02 0. 1.23017125e-01
      1.66080639e-01 0. 3.15328389e-02 0. 3.16875070e-01 1.17817134e-01
      1.32157564e-01 0. 0. 0. 0. 0.</_>
    <_>
      3.17879230e-01 1.17019922e-01 1.31735295e-01 0. 4.12179232e-02 0.
      1.44801304e-01 7.91832879e-02 1.92495540e-01 1.13531128e-01
      1.86686635e-01 0. 0. 0. 4.61208001e-02 0. 2.48576120e-01
      2.52122693e-02 0. 0. 0. 1.03995234e-01 1.69790566e-01
      7.73903579e-02 2.28766739e-01 2.52122693e-02 0. 0. 1.21617116e-01
      8.59052613e-02 2.25701630e-01 1.20191507e-01 2.49904394e-01 0. 0.
      0. 0. 9.74974185e-02 1.24505147e-01 1.30177394e-01 2.98389941e-01
      2.19758861e-02 0. 0. 1.26387388e-01 1.98879749e-01 8.53301510e-02
      7.12061003e-02 1.80095315e-01 1.01369798e-01 1.08275130e-01
      1.31709412e-01 1.63978711e-01 0. 6.03719503e-02 9.53768939e-02
      2.86161631e-01 1.04501709e-01 1.01505250e-01 0. 0. 6.05184361e-02
      1.33728534e-01 7.47380406e-02</_>
    <_>
      1.34982273e-01 2.06748068e-01 0. 0. 0. 0. 0. 2.49861151e-01
      7.49307945e-02 1.05332084e-01 1.26221210e-01 7.11575225e-02
      1.11717992e-01 0. 0. 2.73704886e-01 1.11717984e-01 0. 0. 0.
      1.70386672e-01 0. 8.05228353e-02 2.81578183e-01 0. 0. 0. 0.
      1.01695441e-01 1.15329698e-01 1.07972197e-01 3.02782595e-01 0. 0.
      0. 0. 0. 1.49009079e-01 1.50331676e-01 2.81586200e-01
      1.11717984e-01 0. 0. 0. 1.29862621e-01 1.14232413e-01
      1.13865718e-01 2.58649915e-01 7.13322461e-02 1.05638944e-01
      1.26078963e-01 7.09211454e-02 1.11717992e-01 0. 8.31975415e-03
      2.49665752e-01 1.67139053e-01 1.70539156e-01 1.22229218e-01
      6.68719783e-02 0. 0. 8.31975415e-03 2.49665752e-01</_>
    <_>
      3.18569064e-01 1.16128020e-01 1.26669362e-01 7.86662251e-02 0. 0.
      0. 0. 2.48794824e-01 1.20546363e-01 1.31095886e-01 1.13501497e-01
      0. 3.74568813e-02 0. 0. 3.03339452e-01 1.94397848e-02 0. 0.
      9.71236080e-02 1.34614825e-01 1.56663343e-01 9.94552374e-02
      2.29858875e-01 8.58864747e-03 0. 2.81569082e-02 5.75561859e-02
      1.16909474e-01 1.64086059e-01 8.46912637e-02 2.49233738e-01 0. 0.
      0. 0. 1.31891891e-01 1.42425388e-01 1.45310253e-01 2.74225414e-01
      1.74396206e-02 0. 4.09942716e-02 2.02752769e-01 8.41720775e-02
      8.70597735e-02 6.65506124e-02 1.80544034e-01 1.07394837e-01
      1.80725843e-01 1.13501497e-01 1.12504445e-01 3.74568813e-02
      4.01697233e-02 9.13249329e-02 2.96720445e-01 1.17901057e-01 0. 0.
      0. 0. 1.26516819e-01 7.61172920e-02</_>
    <_>
      2.42051780e-01 1.84529498e-01 1.00731485e-01 0. 0. 0.
      1.00296646e-01 0. 1.86440632e-01 1.32393822e-01 1.29587650e-01
      1.24366559e-01 1.18273884e-01 0. 1.27618074e-01 7.39278495e-02
      3.21336836e-01 2.39362624e-02 0. 0. 1.23554625e-01 1.69098854e-01
      1.22737683e-01 7.39195496e-02 2.54431546e-01 0. 0. 0. 0. 0.
      1.53617397e-01 9.03780684e-02 1.94513381e-01 0. 0. 0. 0.
      1.34662658e-01 1.13708451e-01 9.22864377e-02 3.03813547e-01
      6.90235421e-02 4.60516289e-02 0. 1.65253580e-01 1.04369916e-01
      1.70521095e-01 1.05166204e-01 2.43011296e-01 1.37883052e-01
      1.20468035e-01 1.30122140e-01 1.18273884e-01 0. 1.31348923e-01
      6.97911978e-02 2.72311002e-01 1.07213803e-01 1.26215011e-01 0. 0.
      0. 0. 0.</_>
    <_>
      3.17995399e-01 1.01337276e-01 1.24419421e-01 7.36932978e-02 0. 0.
      0. 0. 2.69797534e-01 9.86201391e-02 0. 1.27666727e-01
      1.12334460e-01 0. 0. 0. 3.14219415e-01 8.36566370e-03 0. 0.
      7.17921332e-02 1.27081290e-01 1.69398636e-01 7.21615478e-02
      2.48140007e-01 8.36566370e-03 0. 0. 0. 0. 1.58137426e-01
      7.75991082e-02 2.21585974e-01 0. 0. 0. 6.58512786e-02
      1.15311466e-01 1.69731230e-01 1.26619995e-01 2.71719694e-01 0. 0.
      0. 1.33315951e-01 1.27081290e-01 1.63753077e-01 7.21615478e-02
      2.91999727e-01 9.89743248e-02 0. 1.27666727e-01 1.58864915e-01 0.
      0. 0. 3.37037385e-01 8.96576419e-02 0. 0. 0. 0. 0. 0.</_>
    <_>
      3.32151651e-01 1.37965322e-01 9.87079218e-02 7.23017529e-02 0. 0.
      0. 0. 2.66272247e-01 1.18061103e-01 1.21212162e-01 1.24834418e-01
      0. 0. 0. 0. 3.43906164e-01 0. 0. 0. 1.24834418e-01 1.21212162e-01
      1.18061103e-01 7.20731840e-02 2.80798197e-01 0. 0. 0.
      7.13923573e-02 0. 9.60197002e-02 7.20731840e-02 1.62118927e-01 0.
      0. 0. 0. 0. 1.67656898e-01 7.20731840e-02 2.66272247e-01
      4.81982417e-02 0. 0. 1.77417845e-01 8.57099444e-02 1.93768188e-01
      0. 2.23188043e-01 2.38352180e-01 8.57099444e-02 7.20731840e-02
      1.14635393e-01 0. 4.81982417e-02 7.20731840e-02 3.11742604e-01
      1.37700930e-01 9.67814699e-02 0. 0. 0. 0. 0.</_>
    <_>
      2.68641651e-01 1.00174300e-01 8.49807635e-02 7.04404935e-02 0. 0.
      0. 2.86931187e-01 1.31848097e-01 0. 8.50474760e-02 0.
      1.65545568e-01 0. 8.82760063e-03 2.10026085e-01 1.82630956e-01
      1.03466637e-01 0. 0. 1.39258146e-01 0. 1.74004242e-01
      1.74886465e-01 0. 0. 0. 0. 0. 0. 1.74425796e-01 2.74368674e-01
      2.09813699e-01 1.51665464e-01 6.72187433e-02 0. 0. 0.
      1.51386321e-01 2.67897934e-01 1.66317150e-01 5.19185141e-02 0.
      1.08331561e-01 1.17913961e-01 8.17101821e-02 1.01559944e-01
      1.18800946e-01 1.59059644e-01 1.01445921e-01 9.96918529e-02
      7.47627690e-02 1.18537366e-01 0. 1.43226847e-01 2.31543750e-01
      1.97934672e-01 1.49805635e-01 1.33434713e-01 1.04601771e-01 0. 0.
      0. 1.18579656e-01</_>
    <_>
      2.71292180e-01 1.60474375e-01 1.30616874e-01 3.91253754e-02
      5.61891012e-02 3.97166237e-02 1.03596076e-01 1.16349377e-01
      2.12037444e-01 1.23587742e-01 1.23837374e-01 3.41016427e-02
      5.61891012e-02 0. 7.30576739e-02 8.04809853e-02 2.57482946e-01
      3.42192054e-02 0. 0. 7.76488483e-02 1.01029292e-01 1.35167956e-01
      1.33962229e-01 1.98319539e-01 4.46225852e-02 0. 0. 0.
      1.13267377e-01 2.08568409e-01 1.61681846e-01 2.24134460e-01 0. 0.
      0. 1.01147696e-01 8.57247785e-02 1.95211574e-01 1.79389119e-01
      2.25776926e-01 0. 0. 0. 1.27306595e-01 8.58321339e-02
      1.47488937e-01 1.48878098e-01 2.62638032e-01 8.57079029e-02
      1.00547560e-01 7.65246525e-02 1.15949184e-01 0. 0. 0.
      3.08846712e-01 1.40516803e-01 1.86771125e-01 7.28991926e-02 0. 0.
      0. 0.</_>
    <_>
      2.94745535e-01 1.14120848e-01 1.30127817e-01 0. 8.30816254e-02 0.
      8.16157386e-02 1.39429599e-01 2.10887074e-01 1.22266397e-01
      1.21360578e-01 0. 9.90368053e-02 0. 0. 6.85601979e-02
      2.72159874e-01 7.21313879e-02 0. 0. 1.74960628e-01 0.
      1.38571873e-01 1.34581417e-01 2.21267566e-01 3.53622250e-02
      4.01798449e-02 0. 3.69750410e-02 0. 1.60488054e-01 1.76872864e-01
      2.45710045e-01 7.13395774e-02 4.41007838e-02 0. 7.27322698e-02 0.
      1.94102198e-01 1.94915935e-01 2.21705481e-01 0. 4.87629287e-02 0.
      8.22940469e-02 8.63741562e-02 1.02065533e-01 1.36893973e-01
      2.36904278e-01 1.27396941e-01 1.20206043e-01 1.13499172e-01 0. 0.
      4.59901169e-02 1.11648023e-01 3.07454765e-01 1.32727385e-01
      1.40695229e-01 0. 0. 0. 4.59901169e-02 1.11648023e-01</_>
    <_>
      2.86001295e-01 1.25004411e-01 1.29099056e-01 0. 0. 0. 0. 0.
      2.63139307e-01 9.07921121e-02 6.37596250e-02 1.11195244e-01 0. 0.
      1.37810826e-01 1.00667126e-01 3.44389111e-01 2.47077309e-02 0. 0.
      1.37172878e-01 9.78451073e-02 7.92382434e-02 3.88591960e-02
      2.62557596e-01 4.38328087e-02 0. 5.17685339e-02 0. 9.70767066e-02
      8.29284489e-02 4.99334745e-02 2.56615251e-01 2.15361137e-02 0. 0.
      0. 1.63004741e-01 1.79757461e-01 1.10896505e-01 2.82295853e-01 0.
      0. 0. 1.37470886e-01 9.83712971e-02 8.07544068e-02 4.28688936e-02
      2.05109119e-01 8.49102288e-02 6.52351677e-02 1.11711517e-01
      1.19844325e-01 0. 0. 0. 3.12389821e-01 1.37219444e-01
      1.21580385e-01 1.30495831e-01 5.74956462e-02 0. 1.09738074e-01
      1.30650744e-01</_>
    <_>
      1.70779482e-01 1.99947715e-01 0. 0. 0. 0. 9.61577073e-02
      2.58857340e-01 1.09286293e-01 1.60408273e-01 8.13530162e-02
      8.82687122e-02 0. 0. 0. 2.48996362e-01 1.11276656e-01 0. 0.
      1.03099547e-01 7.49840960e-02 0. 1.75876573e-01 2.11865216e-01
      6.79604113e-02 9.52417105e-02 0. 0. 7.53041506e-02 1.22485526e-01
      1.91852525e-01 2.65327156e-01 9.77104679e-02 9.52417105e-02 0. 0.
      0. 1.19041398e-01 1.08663641e-01 2.99555719e-01 1.11276656e-01 0.
      0. 0. 5.35644069e-02 1.47210971e-01 7.69418553e-02 2.77146339e-01
      7.66727403e-02 1.23151846e-01 1.54925451e-01 6.38340935e-02 0. 0.
      2.05058306e-02 2.48294011e-01 1.53583795e-01 1.76454559e-01
      1.57950968e-01 0. 0. 0. 1.68268848e-02 2.22180203e-01</_>
    <_>
      1.39197603e-01 1.63291529e-01 0. 0. 0. 0. 0. 2.80840069e-01
      2.55290493e-02 7.30628520e-02 9.66022760e-02 7.30083361e-02
      1.13792673e-01 0. 1.70723051e-02 3.03335309e-01 1.14623785e-01 0.
      0. 0. 1.33226335e-01 0. 9.25488099e-02 2.88902074e-01 0. 0. 0. 0.
      7.43085667e-02 1.27599970e-01 1.11990482e-01 3.10657978e-01 0. 0.
      0. 0. 0. 1.00464702e-01 1.38236329e-01 3.10574353e-01
      1.14623785e-01 0. 0. 0. 6.93124905e-02 8.51927698e-02
      1.43091485e-01 2.65210897e-01 7.60348812e-02 1.08386628e-01
      1.29358292e-01 7.27658123e-02 0. 0. 8.53615254e-03 2.80641615e-01
      1.38018504e-01 1.78689554e-01 1.18211322e-01 6.86113238e-02 0. 0.
      8.53615254e-03 2.56159604e-01</_>
    <_>
      1.90682933e-01 1.30756184e-01 8.71964768e-02 7.22036511e-02 0. 0.
      0. 1.81249186e-01 1.64198756e-01 1.28407091e-01 1.28837436e-01
      1.54286921e-01 4.01707068e-02 0. 5.55128604e-02 2.49083534e-01
      1.73332438e-01 8.95319507e-02 5.80316521e-02 1.16226882e-01
      1.14866063e-01 1.66543826e-01 5.35855442e-02 2.10208237e-01
      1.47825807e-01 0. 5.63110411e-02 0. 0. 0. 1.25432581e-01
      2.59691656e-01 1.02885023e-01 5.28372265e-02 0. 0. 0.
      5.18993251e-02 1.16358638e-01 2.42891848e-01 2.12965786e-01
      4.37507704e-02 0. 1.17908254e-01 1.05405122e-01 1.41471118e-01
      9.55547988e-02 2.23156586e-01 1.52925849e-01 1.64688751e-01
      1.54387668e-01 9.35283825e-02 0. 0. 7.63090402e-02 2.40027249e-01
      1.89946994e-01 1.98339656e-01 0. 0. 0. 0. 0. 1.93346962e-01</_>
    <_>
      3.24743539e-01 1.17271699e-01 1.44406632e-01 7.56329969e-02 0. 0.
      0. 0. 2.81741887e-01 8.83776620e-02 8.70003104e-02 9.39866155e-02
      0. 0. 0. 4.75673713e-02 2.50694513e-01 6.22342452e-02 0. 0.
      3.97459678e-02 1.12002686e-01 1.25564516e-01 1.40325770e-01
      2.31823817e-01 1.61332767e-02 0. 0. 0. 6.99869469e-02
      1.92747235e-01 1.63092688e-01 2.17314377e-01 5.96312806e-02
      4.94290665e-02 0. 0. 1.05574109e-01 1.64052784e-01 1.46173343e-01
      2.65191406e-01 0. 5.64796925e-02 4.62625846e-02 1.84155166e-01 0.
      1.26123473e-01 1.11397788e-01 2.15855226e-01 1.59519479e-01
      8.73165131e-02 5.54627217e-02 1.40387863e-01 0. 9.68763679e-02
      1.31138861e-01 2.70694017e-01 1.41341329e-01 1.09296829e-01 0. 0.
      0. 1.28045008e-01 9.07975733e-02</_>
    <_>
      3.36068302e-01 1.18285537e-01 0. 0. 0. 0. 0. 0. 2.74357855e-01
      1.14233539e-01 1.27327457e-01 0. 0. 0. 3.76182161e-02
      6.05149306e-02 2.82628506e-01 2.73432396e-02 0. 0. 1.39258176e-01
      8.81161615e-02 8.50900710e-02 7.38981739e-02 2.58751810e-01
      1.26937041e-02 0. 0. 0. 1.33610934e-01 1.29474148e-01
      1.69081122e-01 2.48362333e-01 0. 0. 0. 0. 0. 1.68130070e-01
      1.17427468e-01 3.00142586e-01 0. 3.56468372e-02 1.21058315e-01
      6.28082380e-02 8.84481445e-02 1.32732958e-01 1.10309765e-01
      2.60189176e-01 8.59813243e-02 0. 1.27127603e-01 1.24226473e-01 0.
      8.90361592e-02 7.53280073e-02 3.03235829e-01 1.11078583e-01
      1.56499043e-01 4.40202169e-02 0. 0. 1.01684347e-01 0.</_>
    <_>
      3.41492385e-01 1.10614523e-01 0. 0. 0. 0. 0. 0. 2.97855139e-01
      8.51745084e-02 8.48940238e-02 9.20907259e-02 0. 0. 0.
      4.64157574e-02 2.81865269e-01 2.76882052e-02 0. 6.00318201e-02
      1.31054208e-01 8.92278478e-02 8.69321972e-02 5.70480973e-02
      2.60204494e-01 1.28538497e-02 0. 0. 0. 1.35471597e-01
      1.49843067e-01 1.49537548e-01 2.33716473e-01 5.92226721e-02 0. 0.
      0. 3.97691205e-02 1.61259294e-01 1.48570269e-01 2.60283589e-01 0.
      5.18471152e-02 0. 1.85532808e-01 0. 1.21325925e-01 1.06976107e-01
      2.55599380e-01 2.76882052e-02 8.98246914e-02 1.45610064e-01
      1.22048043e-01 0. 0. 7.94646591e-02 3.13610107e-01 1.12847514e-01
      1.33188948e-01 9.69320014e-02 0. 0. 6.85210675e-02 9.06657055e-02</_>
    <_>
      2.46431053e-01 1.91629142e-01 5.65830134e-02 0. 0. 0.
      1.05472013e-01 0. 2.38390774e-01 8.81754979e-02 1.05972342e-01
      1.29888192e-01 1.41005710e-01 0. 1.01215899e-01 1.09674290e-01
      2.88761258e-01 2.83865649e-02 0. 6.12610057e-02 1.23236120e-01
      9.16771665e-02 1.89568594e-01 9.82405618e-02 2.36355394e-01 0. 0.
      0. 7.57142380e-02 9.18230265e-02 1.34678647e-01 1.70381099e-01
      2.33250290e-01 0. 0. 0. 0. 0. 1.94752887e-01 1.21900916e-01
      3.07592541e-01 5.06710745e-02 0. 0. 6.52047843e-02 9.18230265e-02
      1.96654439e-01 1.13487169e-01 2.05022484e-01 1.18128613e-01
      9.18230265e-02 1.16471231e-01 7.38766193e-02 5.15758805e-02
      9.23647583e-02 1.06423549e-01 2.29057789e-01 1.69562563e-01
      1.06435910e-01 0. 2.90556177e-02 0. 1.05271280e-01 0.</_>
    <_>
      2.95360476e-01 1.12462476e-01 1.32514387e-01 0. 0. 0.
      1.23156570e-01 8.96619558e-02 2.01643467e-01 1.13627546e-01
      1.56588718e-01 1.27708182e-01 6.07668236e-02 0. 0. 1.02951042e-01
      2.77066708e-01 2.75715068e-02 0. 0. 1.52182117e-01 9.94147211e-02
      1.13772742e-01 1.01472527e-01 2.44435549e-01 6.43717647e-02 0. 0.
      0. 0. 1.78501159e-01 1.31474212e-01 2.55003005e-01 0. 0. 0.
      7.25437403e-02 1.09330252e-01 1.33965671e-01 1.50633365e-01
      2.80179411e-01 2.44204067e-02 0. 0. 1.35432079e-01 8.91089812e-02
      1.59746513e-01 6.11481182e-02 2.22092375e-01 1.07753448e-01
      8.92685875e-02 1.29211992e-01 1.35878742e-01 0. 0. 1.02951042e-01
      3.04141551e-01 1.25078812e-01 0. 0. 0. 0. 1.26445979e-01
      8.65468681e-02</_>
    <_>
      2.61254072e-01 1.62155628e-01 7.37345070e-02 0. 3.85028906e-02 0.
      1.37331605e-01 7.85688832e-02 1.67373344e-01 1.75170839e-01
      5.52140772e-02 9.14150700e-02 9.03510302e-02 0. 1.30356178e-01
      6.53410777e-02 3.17865521e-01 2.50475612e-02 0. 0. 5.01001365e-02
      9.03757662e-02 1.69738024e-01 8.18587020e-02 2.68732637e-01
      1.30346790e-02 0. 0. 0. 0. 2.07890287e-01 9.31538418e-02
      2.63379633e-01 0. 0. 0. 7.95446187e-02 9.06094983e-02
      1.66193783e-01 1.33616075e-01 2.86750793e-01 2.13887226e-02
      6.03662804e-02 0. 1.16794638e-01 9.04831141e-02 1.65359363e-01
      5.34385853e-02 1.95569962e-01 1.06575131e-01 9.12870318e-02
      1.51157469e-01 1.20817177e-01 0. 4.10902649e-02 1.00965433e-01
      2.95396298e-01 1.20570220e-01 0. 0. 0. 0. 1.37331605e-01
      7.85688832e-02</_>
    <_>
      3.31388742e-01 8.97803679e-02 1.43764228e-01 9.38179046e-02 0. 0.
      0. 0. 2.88655102e-01 1.06979951e-01 1.05985686e-01 5.20616323e-02
      0. 0. 0. 0. 2.79542446e-01 2.48476192e-02 0. 0. 1.22486874e-01
      8.44923258e-02 9.94443148e-02 7.73534998e-02 2.76343703e-01
      2.48476192e-02 0. 3.78790647e-02 0. 0. 1.82975471e-01
      1.47107184e-01 2.25249976e-01 0. 0. 0. 7.31549412e-02
      8.46627951e-02 1.65313303e-01 8.96755606e-02 2.96396643e-01
      2.16580443e-02 0. 6.56774417e-02 9.15579945e-02 8.45447108e-02
      1.41561657e-01 1.48716763e-01 2.91702181e-01 8.33460018e-02
      3.34400982e-02 1.24543488e-01 1.15642339e-01 0. 0. 0.
      3.35790277e-01 9.94191617e-02 0. 0. 0. 0. 0. 0.</_>
    <_>
      3.18372637e-01 1.59379080e-01 0. 0. 0. 0. 0. 0. 2.58040309e-01
      1.82560012e-01 9.46453437e-02 1.31446972e-01 0. 0. 0. 0.
      2.94970900e-01 1.17674880e-02 0. 1.11517988e-01 1.32100135e-01
      1.25833347e-01 9.57657769e-02 7.06884637e-02 2.49650359e-01
      8.32087081e-03 0. 0. 1.05049551e-01 8.09506252e-02 1.35005832e-01
      1.22439198e-01 2.05368891e-01 9.52745378e-02 0. 0. 6.84633404e-02
      0. 1.50467366e-01 1.22439198e-01 2.94638753e-01 8.32087081e-03 0.
      0. 7.04711750e-02 1.17370188e-01 1.89586639e-01 9.96578932e-02
      2.28038490e-01 1.90397888e-01 9.46453437e-02 6.95848018e-02 0. 0.
      0. 0. 2.98873603e-01 1.90189302e-01 9.60965306e-02 7.06884637e-02
      0. 0. 0. 0.</_>
    <_>
      2.81089693e-01 1.86978191e-01 1.10085458e-01 7.49916658e-02 0. 0.
      5.85608222e-02 6.33995682e-02 2.75437653e-01 1.09783590e-01
      1.37778848e-01 0. 0. 0. 0. 0. 3.02725673e-01 2.32125167e-02 0. 0.
      1.60233244e-01 1.00708827e-01 1.06091470e-01 8.30606222e-02
      2.55541801e-01 2.32125167e-02 0. 0. 0. 0. 2.05659121e-01
      8.55735913e-02 2.74613917e-01 1.98217332e-02 0. 6.50505647e-02 0.
      8.38782862e-02 1.97388723e-01 1.20750889e-01 2.43149668e-01
      1.98217332e-02 0. 0. 8.13172311e-02 0. 1.45151824e-01
      6.88753501e-02 2.02584043e-01 2.00189054e-01 8.19130316e-02
      1.11426301e-01 0. 0. 0. 0. 3.29067260e-01 1.21420063e-01
      1.25969484e-01 7.80496597e-02 0. 0. 9.97816846e-02 6.76809624e-02</_>
    <_>
      3.03882569e-01 1.24126621e-01 9.99739692e-02 3.92145626e-02 0. 0.
      1.13019824e-01 1.16184704e-01 2.52072096e-01 9.53869969e-02
      1.11122034e-01 0. 8.01939219e-02 0. 2.45371517e-02 3.38936336e-02
      2.58220911e-01 3.06552816e-02 0. 1.16616048e-01 0. 1.06127821e-01
      1.50554463e-01 1.56574681e-01 1.96436629e-01 3.06552816e-02 0.
      3.92145626e-02 0. 1.26441270e-01 2.01604515e-01 1.58815786e-01
      2.42009327e-01 0. 0. 0. 0. 4.30116542e-02 1.93018198e-01
      2.10762739e-01 2.26776853e-01 0. 0. 0. 0. 0. 1.49864256e-01
      1.91090345e-01 2.64983475e-01 1.16212070e-01 1.25079945e-01 0. 0.
      0. 0. 0. 3.19671333e-01 1.81927428e-01 8.17203000e-02
      6.97288960e-02 0. 0. 0. 0.</_>
    <_>
      1.96651593e-01 1.82290375e-01 0. 0. 0. 0. 0. 2.18548730e-01
      1.00805573e-01 1.52197376e-01 1.05368286e-01 1.28220782e-01 0. 0.
      0. 2.38362342e-01 1.31549954e-01 9.48041156e-02 0. 0.
      1.32781178e-01 0. 1.54443264e-01 2.39998460e-01 7.37117827e-02 0.
      0. 0. 7.37434849e-02 1.23482563e-01 1.73528269e-01 2.49257550e-01
      0. 0. 0. 0. 0. 1.24557450e-01 1.14058524e-01 3.00966799e-01
      1.11464009e-01 0. 0. 0. 1.48887277e-01 1.37724921e-01
      1.24585204e-01 2.56953597e-01 7.69978166e-02 1.04398474e-01
      9.61260796e-02 1.08690850e-01 1.57633916e-01 0. 1.69350933e-02
      2.72593081e-01 1.36266515e-01 1.71904430e-01 1.14053130e-01
      6.39415681e-02 0. 0. 1.69350933e-02 2.48744711e-01</_>
    <_>
      1.33436128e-01 2.04235300e-01 0. 0. 0. 0. 0. 2.19833389e-01
      7.36976489e-02 2.08695501e-01 1.03603952e-01 1.05008401e-01 0. 0.
      0. 2.69232571e-01 1.09879434e-01 0. 0. 0. 1.27725452e-01
      1.47072256e-01 1.46324635e-01 2.29380861e-01 0. 0. 0. 0.
      7.14328438e-02 1.55495524e-01 1.41019970e-01 2.76800841e-01
      8.97045955e-02 9.08803418e-02 0. 0. 0. 8.70215744e-02
      1.54575422e-01 2.93973982e-01 1.09879434e-01 0. 0. 0.
      6.57714605e-02 1.84205532e-01 1.58270523e-01 1.96125269e-01
      1.21544451e-01 2.14350790e-01 1.24143973e-01 6.99864775e-02 0. 0.
      8.18283577e-03 2.45578662e-01 1.49255827e-01 1.61794707e-01
      1.47361279e-01 1.16659671e-01 0. 4.69285473e-02 8.23109969e-02
      1.29969850e-01</_>
    <_>
      1.84686244e-01 2.02548444e-01 9.17366967e-02 6.79645836e-02 0. 0.
      0. 2.55152255e-01 7.36968443e-02 9.83244777e-02 1.29617989e-01
      7.30724707e-02 0. 4.67109829e-02 8.51065293e-02 2.11894348e-01
      1.46599889e-01 9.85705107e-02 0. 0. 1.32357240e-01 0.
      8.26898143e-02 2.88707227e-01 0. 0. 0. 0. 0. 1.53019205e-01
      1.47470608e-01 2.59135962e-01 1.49948478e-01 9.85705107e-02 0. 0.
      7.45825991e-02 1.28035963e-01 1.11901306e-01 3.06941479e-01
      1.14724465e-01 0. 0. 0. 1.32821098e-01 4.06905077e-02
      1.59590408e-01 1.88872159e-01 1.02369875e-01 9.75772515e-02
      9.65934843e-02 7.28297234e-02 1.14724472e-01 0. 8.54364969e-03
      2.80888110e-01 1.72009438e-01 1.60122260e-01 4.01458442e-02 0. 0.
      0. 0. 2.56585240e-01</_>
    <_>
      1.68425009e-01 1.04634643e-01 0. 0. 0. 0. 4.63616475e-02
      2.71898061e-01 8.98431316e-02 1.25536129e-01 6.05094433e-02
      1.04249731e-01 0. 0. 2.16911566e-02 3.05008352e-01 1.52394414e-01
      1.37817100e-01 0. 0. 1.12245344e-01 6.49643764e-02 9.22090188e-02
      2.51739115e-01 1.05048053e-01 9.77121145e-02 0. 0. 0. 0.
      1.12732284e-01 2.87972152e-01 1.54368728e-01 0. 0. 0.
      5.27620353e-02 1.35815620e-01 1.05759107e-01 2.93267369e-01
      1.15819126e-01 0. 0. 0. 1.13850832e-01 1.30835772e-01
      8.25773850e-02 2.19455525e-01 1.00033909e-01 1.58431411e-01
      8.04300085e-02 8.84060189e-02 1.15819134e-01 0. 2.48856060e-02
      2.82834172e-01 1.45418495e-01 1.68800041e-01 1.31302938e-01 0. 0.
      0. 2.86809672e-02 2.31876031e-01</_>
    <_>
      2.20901966e-01 1.31959453e-01 6.55261204e-02 0. 0. 0. 0.
      2.78031915e-01 1.32926330e-01 1.31485209e-01 8.17508996e-02 0. 0.
      0. 1.55229298e-02 2.42474958e-01 1.12525284e-01 0. 0. 0.
      1.31304011e-01 0. 1.00160897e-01 2.26350561e-01 1.65686950e-01 0.
      0. 0. 7.79947340e-02 1.29546598e-01 1.04436420e-01 3.08600485e-01
      2.01525435e-01 0. 0. 3.50027308e-02 0. 0. 8.35597366e-02
      3.23915929e-01 1.00979716e-01 0. 0. 0. 1.15944140e-01 0.
      7.77441263e-02 2.52336323e-01 6.48947880e-02 9.25458968e-02
      8.54448751e-02 1.19977459e-01 1.17215835e-01 0. 4.64780517e-02
      2.07623333e-01 2.37538040e-01 1.41011238e-01 1.36898756e-01
      4.28107120e-02 0. 0. 8.72918498e-03 2.57589668e-01</_>
    <_>
      2.76726276e-01 1.79128766e-01 1.02694318e-01 0. 0. 0.
      1.00370213e-01 6.78282604e-02 2.40059540e-01 1.13677487e-01
      1.29241034e-01 0. 0. 0. 1.39077350e-01 9.96788368e-02
      2.90515035e-01 9.09392834e-02 1.01206683e-01 0. 0. 1.02690645e-01
      1.40620247e-01 1.11875683e-01 2.01747984e-01 2.19038501e-02 0. 0.
      0. 0. 1.74123794e-01 1.31033227e-01 2.34207422e-01 0. 0. 0. 0.
      9.71778259e-02 1.76265776e-01 1.95498213e-01 2.60922551e-01
      2.19038501e-02 0. 0. 1.17080510e-01 1.04639784e-01 1.45302594e-01
      1.14257932e-01 2.11868718e-01 1.21926941e-01 1.33302376e-01 0.
      1.18111253e-01 0. 0. 0. 3.18769783e-01 1.69689342e-01
      1.31264746e-01 0. 0. 0. 9.86702368e-02 7.30951503e-02</_>
    <_>
      2.34738812e-01 1.49343237e-01 0. 0. 0. 0. 2.57052165e-02
      2.95455068e-01 4.64857295e-02 7.67081827e-02 0. 1.25183389e-01
      1.58485025e-01 0. 2.57052165e-02 2.23219410e-01 1.12065837e-01 0.
      0. 0. 1.56734511e-01 1.20967917e-01 5.74347712e-02 2.45963454e-01
      9.51809138e-02 7.92688355e-02 0. 0. 6.63895682e-02 7.82510042e-02
      9.12985355e-02 3.18692535e-01 1.25323460e-01 1.05635442e-01
      4.00860049e-02 0. 4.42457646e-02 7.53484741e-02 1.68784499e-01
      2.33665928e-01 1.67787001e-01 1.06175959e-01 0. 6.11749366e-02
      1.12065844e-01 7.87920877e-02 7.38550648e-02 2.46404737e-01
      1.35546267e-01 1.32787600e-01 9.75208730e-02 7.47640207e-02 0. 0.
      2.94908173e-02 2.73426503e-01 1.45339489e-01 1.96046993e-01 0. 0.
      0. 0. 2.94908173e-02 2.22543001e-01</_>
    <_>
      2.58865297e-01 1.69046775e-01 9.05265585e-02 6.20100535e-02
      3.50750498e-02 0. 1.04308881e-01 1.18877478e-01 1.99935362e-01
      1.15160182e-01 1.65364549e-01 4.10822891e-02 2.90513616e-02 0.
      1.10390469e-01 1.30843148e-01 3.16065580e-01 2.94448938e-02 0. 0.
      0. 1.05565727e-01 1.69380501e-01 7.86937550e-02 2.48971328e-01
      1.22559443e-02 0. 0. 0. 0. 1.49445266e-01 9.61014926e-02
      2.47370586e-01 2.33830269e-02 0. 3.84258553e-02 0. 4.31143790e-02
      2.08539709e-01 1.63155481e-01 2.47262478e-01 4.71254624e-02 0.
      1.16883442e-01 6.06422052e-02 8.53978768e-02 1.61561146e-01
      7.95192495e-02 1.89363927e-01 1.10993542e-01 1.84494957e-01
      1.16400234e-01 0. 0. 0. 4.71069887e-02 3.15753669e-01
      1.16775125e-01 1.30960703e-01 0. 0. 4.65825126e-02 1.47120088e-01
      7.29809105e-02</_>
    <_>
      2.03481406e-01 1.03225797e-01 0. 0. 0. 0. 6.72946125e-02
      2.88500875e-01 5.66416904e-02 7.63981715e-02 1.09309532e-01
      1.21763609e-01 1.05978154e-01 0. 2.27626376e-02 2.72619933e-01
      1.13283381e-01 0. 0. 1.13311946e-01 0. 1.24545850e-01
      1.17826082e-01 2.58824855e-01 0. 0. 0. 0. 0. 1.01012968e-01
      8.91592279e-02 3.23136657e-01 1.36648223e-01 9.88817737e-02
      4.21439037e-02 0. 5.95586598e-02 7.85811394e-02 1.68101028e-01
      2.41039589e-01 1.70460150e-01 1.07461624e-01 0. 0. 8.62329826e-02
      1.32310957e-01 1.11464046e-01 2.26938501e-01 1.55088618e-01
      1.51632369e-01 1.01793878e-01 0. 0. 0. 2.56998260e-02
      2.52387345e-01 1.94907680e-01 1.54113352e-01 1.25580505e-01 0. 0.
      0. 2.56998260e-02 1.94788679e-01</_>
    <_>
      1.78953201e-01 1.51782021e-01 0. 0. 0. 0. 2.13533454e-02
      3.01310480e-01 4.93864529e-02 7.76591226e-02 9.88306031e-02
      7.57781267e-02 1.11551188e-01 0. 4.01182808e-02 2.78816998e-01
      1.14015393e-01 0. 0. 0. 1.11953616e-01 1.27978936e-01
      6.12722300e-02 2.49609441e-01 9.51185450e-02 8.67368877e-02 0. 0.
      0. 9.86297652e-02 8.94632339e-02 3.26035470e-01 0. 0. 0. 0.
      9.65822563e-02 1.07018888e-01 1.12429686e-01 3.05759579e-01
      1.14015393e-01 0. 0. 0. 4.80903648e-02 1.08382829e-01
      1.06441103e-01 2.84210414e-01 1.29541948e-01 1.31851569e-01
      9.75364521e-02 7.46948868e-02 0. 0. 2.44980454e-02 2.54010826e-01
      1.76194504e-01 1.88637599e-01 9.62528437e-02 0. 0. 0.
      3.89226750e-02 2.26905838e-01</_>
    <_>
      3.19692284e-01 9.20521915e-02 1.45272076e-01 7.24161342e-02 0. 0.
      1.33406118e-01 9.86053422e-02 2.30697140e-01 7.89628699e-02 0.
      1.26070678e-01 1.10718913e-01 0. 0. 0. 3.13085645e-01
      1.16606886e-02 0. 0. 7.05211759e-02 1.25092432e-01 1.06645197e-01
      7.42606968e-02 2.47454867e-01 1.16606886e-02 0. 0. 9.76943672e-02
      1.24225900e-01 1.21080756e-01 2.64567006e-02 2.56364048e-01
      9.77558494e-02 0. 0. 1.17049746e-01 1.48305744e-01 9.20257345e-02
      2.75699962e-02 3.13237280e-01 0. 0. 0. 1.31398648e-01
      1.25253662e-01 5.52421547e-02 0. 1.97187662e-01 1.60592437e-01 0.
      1.28183693e-01 0. 0. 1.33860677e-01 9.75180715e-02 2.56162465e-01
      1.17766500e-01 1.76499680e-01 9.76943672e-02 0. 0. 1.33860677e-01
      9.75180715e-02</_>
    <_>
      3.19692284e-01 9.20521915e-02 1.45272076e-01 7.24161342e-02 0. 0.
      1.33406118e-01 9.86053422e-02 2.30697140e-01 7.89628699e-02 0.
      1.26070678e-01 1.10718913e-01 0. 0. 0. 3.13085645e-01
      1.16606886e-02 0. 0. 7.05211759e-02 1.25092432e-01 1.06645197e-01
      7.42606968e-02 2.47454867e-01 1.16606886e-02 0. 0. 9.76943672e-02
      1.24225900e-01 1.21080756e-01 2.64567006e-02 2.56364048e-01
      9.77558494e-02 0. 0. 1.17049739e-01 1.48305744e-01 9.20257270e-02
      2.75699962e-02 3.13237280e-01 0. 0. 0. 1.31398648e-01
      1.25253662e-01 5.52421547e-02 0. 1.97187662e-01 1.60592437e-01 0.
      1.28183693e-01 0. 0. 1.33860677e-01 9.75180715e-02 2.56162465e-01
      1.17766500e-01 1.76499680e-01 9.76943672e-02 0. 0. 1.33860677e-01
      9.75180715e-02</_>
    <_>
      3.44485432e-01 8.18444043e-02 0. 0. 5.61934710e-02 0. 0. 0.
      3.05628121e-01 8.18444043e-02 0. 0. 1.68580428e-01 0. 0. 0.
      3.17878276e-01 0. 0. 0. 1.32753894e-01 0. 1.59015313e-01
      1.22385934e-01 2.24773884e-01 0. 0. 0. 9.99276936e-02
      8.40288401e-02 1.33651361e-01 7.06595480e-02 2.75290668e-01 0. 0.
      0. 9.99276936e-02 8.40288401e-02 1.25019401e-01 7.06595480e-02
      3.17878276e-01 0. 0. 0. 7.06595480e-02 8.40288401e-02
      1.26460224e-01 7.06595480e-02 2.84214228e-01 8.18444043e-02 0.
      7.06595480e-02 1.12386942e-01 0. 0. 0. 3.25636864e-01
      1.33651361e-01 8.40288401e-02 9.99276936e-02 0. 0. 0. 0.</_>
    <_>
      3.59061778e-01 1.25869989e-01 1.38149232e-01 8.45107809e-02 0. 0.
      0. 0. 2.81743348e-01 1.11408114e-01 8.34643617e-02 0. 0. 0. 0. 0.
      3.07167858e-01 1.90797821e-02 0. 0. 0. 0. 1.58112094e-01
      8.13935548e-02 2.50579953e-01 1.66305993e-02 0. 0. 0.
      3.92343253e-02 2.26524368e-01 1.43620193e-01 1.57945231e-01
      3.64158191e-02 0. 0. 0. 0. 1.72763795e-01 9.43220407e-02
      3.01392198e-01 9.34290290e-02 9.29614007e-02 8.62431154e-02
      1.18514024e-01 1.19148776e-01 1.73063636e-01 1.08640522e-01
